{
    "level": 24,
    "net_a_fc1_bias": [
        0.04842493310570717,
        0.3043820559978485,
        0.3299327790737152,
        0.37257683277130127,
        0.16150307655334473,
        0.13675260543823242,
        0.06604649126529694,
        0.1939106583595276,
        0.20018409192562103,
        -0.18837764859199524,
        0.003880518488585949,
        -0.07203823328018188,
        0.010371753945946693,
        0.08369597047567368,
        0.06734490394592285,
        0.13238072395324707,
        0.015509014949202538,
        0.2787071466445923,
        0.01754974201321602,
        0.10195289552211761,
        0.10106443613767624,
        0.1558832824230194,
        0.1306612491607666,
        0.11907035112380981,
        -0.0025046144146472216,
        0.04012054577469826,
        0.21066467463970184,
        -0.2412368357181549,
        0.17266064882278442,
        0.2395237237215042,
        -0.0003109138924628496,
        0.13156329095363617,
        0.23205098509788513,
        -0.08472639322280884,
        -0.219047412276268,
        -0.031700532883405685,
        0.09990479797124863,
        0.18018192052841187,
        -0.07633247971534729,
        -0.09729261696338654,
        -0.039699241518974304,
        0.20936517417430878,
        0.08560682833194733,
        0.10652104765176773,
        0.11994533240795135,
        0.2796751856803894,
        0.08392240852117538,
        0.1087915450334549,
        0.18917134404182434,
        0.08864229917526245,
        0.21720193326473236,
        0.2534677982330322,
        -0.103300541639328,
        0.12879325449466705,
        0.18979917466640472,
        -0.07934798300266266,
        -0.0005603951285593212,
        0.1877208799123764,
        0.3692264258861542,
        0.16169492900371552
    ],
    "net_a_fc1_weight": [
        [
            1.1354833841323853,
            -0.19904270768165588,
            0.2526925802230835,
            -0.059954818338155746,
            0.01791665144264698,
            -0.7566381692886353,
            -0.3665739595890045,
            -0.35577869415283203,
            -0.2839139997959137,
            -0.557674765586853,
            0.4402906000614166,
            0.5252070426940918
        ],
        [
            0.8060058355331421,
            -0.533593475818634,
            -0.6390518546104431,
            0.0555502213537693,
            0.14575955271720886,
            -0.48719820380210876,
            0.10978302359580994,
            -0.24277517199516296,
            -0.17695866525173187,
            -0.03170979768037796,
            -0.1070258840918541,
            -0.8134870529174805
        ],
        [
            0.42792850732803345,
            0.8954943418502808,
            -0.4494939148426056,
            -1.0815820693969727,
            -0.16729387640953064,
            -0.5097123980522156,
            0.06792835891246796,
            0.2712785303592682,
            1.0746955871582031,
            -0.260929673910141,
            0.5583779811859131,
            -0.042773447930812836
        ],
        [
            0.9950513243675232,
            0.13656161725521088,
            -0.01562113594263792,
            0.08370141685009003,
            -0.12979915738105774,
            0.004944892134517431,
            0.1778276562690735,
            -1.4331228733062744,
            1.1183300018310547,
            -0.0863824263215065,
            0.9247875213623047,
            0.1553885042667389
        ],
        [
            0.376333624124527,
            0.21659024059772491,
            -0.3698347210884094,
            -0.32321566343307495,
            0.5302122235298157,
            -1.3555865287780762,
            -0.3054101765155792,
            0.5765411853790283,
            0.7571240067481995,
            -0.7436356544494629,
            0.5846132636070251,
            0.17212308943271637
        ],
        [
            -0.15465393662452698,
            0.05380173400044441,
            0.2809867560863495,
            0.24472734332084656,
            0.05464887619018555,
            0.4112622141838074,
            1.2229290008544922,
            -0.13680928945541382,
            -0.6621465086936951,
            -0.3098008334636688,
            0.17899887263774872,
            -0.3970109820365906
        ],
        [
            -0.31442779302597046,
            -0.050156231969594955,
            -1.4214154481887817,
            0.8942546844482422,
            1.6635701656341553,
            -0.09278210252523422,
            0.010925562120974064,
            0.085529625415802,
            0.36142468452453613,
            0.1137206181883812,
            -0.3525131344795227,
            -0.774646520614624
        ],
        [
            0.08495708554983139,
            0.51943039894104,
            -0.8228384256362915,
            0.31524065136909485,
            -0.8159456253051758,
            0.930839478969574,
            0.3496986925601959,
            0.5515936017036438,
            0.439444363117218,
            -0.5797739624977112,
            -0.2640065550804138,
            -0.6255767345428467
        ],
        [
            0.17461666464805603,
            -0.8903173208236694,
            0.10528673231601715,
            0.03869812190532684,
            0.7638185620307922,
            0.5549214482307434,
            -0.43536126613616943,
            0.48167580366134644,
            0.03155616670846939,
            -0.17951153218746185,
            0.07684937864542007,
            0.13934043049812317
        ],
        [
            0.16276513040065765,
            0.5710500478744507,
            0.4492564797401428,
            -0.31652453541755676,
            0.0912652537226677,
            0.31240132451057434,
            0.004483695141971111,
            0.005495285615324974,
            -0.3475854992866516,
            0.46261370182037354,
            0.7879148125648499,
            -0.20094028115272522
        ],
        [
            -0.2822232246398926,
            -0.2749181091785431,
            -0.5685132741928101,
            -0.04261719435453415,
            -0.26866331696510315,
            -0.21929806470870972,
            0.6067718863487244,
            -0.4315146803855896,
            0.014638148248195648,
            -0.25017085671424866,
            -1.1521912813186646,
            -0.607408881187439
        ],
        [
            -0.5752459764480591,
            0.08675949275493622,
            -0.028835412114858627,
            -0.0008366701658815145,
            -0.7147290706634521,
            0.5232778787612915,
            -0.06477557867765427,
            -0.16495126485824585,
            -0.3915119171142578,
            -0.0854899063706398,
            -0.4195042848587036,
            0.10993357002735138
        ],
        [
            0.29778215289115906,
            0.019814927130937576,
            -0.11746218055486679,
            0.28813061118125916,
            0.204032763838768,
            -0.08083698153495789,
            1.0449429750442505,
            0.7185248732566833,
            0.2582055330276489,
            0.2375178337097168,
            0.20731781423091888,
            0.21142397820949554
        ],
        [
            0.3972281515598297,
            -0.6082665324211121,
            0.19237525761127472,
            0.5063861608505249,
            -0.2772046625614166,
            0.12666131556034088,
            -0.6817852854728699,
            -0.6209467053413391,
            -0.4914848506450653,
            0.05899227038025856,
            0.7023995518684387,
            -0.18517175316810608
        ],
        [
            -0.19502297043800354,
            0.04158312827348709,
            0.15735875070095062,
            -0.5639263987541199,
            -0.15783827006816864,
            -0.23051774501800537,
            -0.56172776222229,
            -0.5989392399787903,
            0.32596737146377563,
            -0.4349772036075592,
            0.0966535434126854,
            -0.3632095456123352
        ],
        [
            0.11744601279497147,
            0.15599828958511353,
            0.5533739924430847,
            0.48905009031295776,
            -0.21426381170749664,
            -0.08118535578250885,
            0.33046087622642517,
            0.20360732078552246,
            0.7068628668785095,
            0.36229780316352844,
            -0.35862910747528076,
            -0.15243656933307648
        ],
        [
            -0.01997692883014679,
            -0.14718645811080933,
            -0.7997547388076782,
            -0.15104448795318604,
            0.1526741087436676,
            0.31951195001602173,
            0.589253842830658,
            -0.796888530254364,
            -0.5190090537071228,
            -0.25652986764907837,
            -0.7986882925033569,
            -0.16854426264762878
        ],
        [
            0.2973564565181732,
            -0.8722429871559143,
            0.32656216621398926,
            -0.5380006432533264,
            -0.42046985030174255,
            -0.29805803298950195,
            -0.019378500059247017,
            0.038891613483428955,
            -0.5027508735656738,
            0.08296618610620499,
            -0.13811072707176208,
            -0.5250081419944763
        ],
        [
            0.7757223844528198,
            0.318515807390213,
            0.5457633137702942,
            -0.12623919546604156,
            -0.7179096937179565,
            -0.5333712697029114,
            0.7744290828704834,
            0.20389916002750397,
            -0.28629329800605774,
            0.17605812847614288,
            0.6787757873535156,
            -0.03896041586995125
        ],
        [
            -0.3645572364330292,
            -0.8914544582366943,
            0.021934285759925842,
            0.2689231336116791,
            -0.6046203374862671,
            0.6879558563232422,
            0.1826159656047821,
            -0.04764162376523018,
            0.6598723530769348,
            -0.46015143394470215,
            0.6509226560592651,
            0.30269095301628113
        ],
        [
            0.35889989137649536,
            0.1460825353860855,
            -0.025478823110461235,
            -0.28567904233932495,
            0.8703317046165466,
            -0.1573338359594345,
            -0.3409202992916107,
            0.6642184257507324,
            0.3986099660396576,
            -0.31188616156578064,
            0.12328822165727615,
            0.2855157256126404
        ],
        [
            0.11175801604986191,
            0.22224117815494537,
            -0.38938409090042114,
            0.5731675624847412,
            -0.010889064520597458,
            0.22379541397094727,
            0.01615583896636963,
            0.33193811774253845,
            -0.38038530945777893,
            -0.2523454427719116,
            -0.07060223072767258,
            -0.1353771984577179
        ],
        [
            0.1503409743309021,
            -0.02832685597240925,
            0.28312036395072937,
            -0.10639774799346924,
            0.8865218758583069,
            0.3168144226074219,
            0.5756658911705017,
            0.040189433842897415,
            -0.06797276437282562,
            -0.6333103179931641,
            0.5367615222930908,
            -0.09872768074274063
        ],
        [
            0.222905695438385,
            0.28097957372665405,
            -0.5540139675140381,
            -0.8140518665313721,
            0.24509134888648987,
            0.04287072643637657,
            0.0076564280316233635,
            -0.4288035035133362,
            0.12877871096134186,
            0.500714898109436,
            -0.7225019931793213,
            0.24748526513576508
        ],
        [
            -0.13361306488513947,
            -1.0026136636734009,
            -0.4154103994369507,
            0.24675105512142181,
            0.3479601740837097,
            0.15525022149085999,
            -0.03359222412109375,
            0.3296778202056885,
            -0.47256672382354736,
            -0.10976769030094147,
            -0.14137721061706543,
            0.43327435851097107
        ],
        [
            0.01445604395121336,
            0.449370801448822,
            0.21941222250461578,
            -0.423051118850708,
            -0.3539990186691284,
            -0.9061880707740784,
            0.05990193039178848,
            0.4913036525249481,
            -0.47791799902915955,
            -0.22055819630622864,
            0.15477442741394043,
            0.17984113097190857
        ],
        [
            -0.10178913176059723,
            0.18121472001075745,
            0.07089214771986008,
            1.0218384265899658,
            0.2662810683250427,
            0.10362530499696732,
            -0.024129221215844154,
            0.5166976451873779,
            -0.3822435438632965,
            0.4878033995628357,
            -0.06226673722267151,
            0.027505619451403618
        ],
        [
            0.08575353026390076,
            -0.7044278979301453,
            0.5533930659294128,
            -0.4239513576030731,
            -0.08169679343700409,
            0.17822958528995514,
            0.08605402708053589,
            0.644450843334198,
            -0.08994510024785995,
            0.21280831098556519,
            -0.14124497771263123,
            -0.3557254374027252
        ],
        [
            0.007289369590580463,
            -0.4265286922454834,
            -0.28633439540863037,
            -0.4731023609638214,
            0.3841143846511841,
            -0.007120824884623289,
            0.32172101736068726,
            -0.3495418429374695,
            0.7363049983978271,
            0.46926918625831604,
            0.13739113509655,
            -0.5401474833488464
        ],
        [
            -0.5825225114822388,
            0.17715561389923096,
            0.2565895915031433,
            0.3858358860015869,
            -0.04886971786618233,
            0.23507511615753174,
            0.3115556538105011,
            0.39423635601997375,
            -0.09174180030822754,
            -0.61264967918396,
            -0.18419933319091797,
            -0.39126381278038025
        ],
        [
            0.0841251015663147,
            0.10008040815591812,
            0.8007949590682983,
            0.37918898463249207,
            -0.6035785675048828,
            0.2728225886821747,
            -0.12551406025886536,
            -0.2768658995628357,
            0.3276418447494507,
            0.0058143772184848785,
            0.2292221188545227,
            0.06493966281414032
        ],
        [
            0.2717813551425934,
            -0.6810509562492371,
            0.5235550403594971,
            -0.5050471425056458,
            0.38286903500556946,
            0.2315381020307541,
            -0.23847976326942444,
            0.6269243359565735,
            -0.17793358862400055,
            0.9379832744598389,
            -0.3828752636909485,
            0.8843514919281006
        ],
        [
            0.17785266041755676,
            -0.26274511218070984,
            0.6514502167701721,
            -0.2697139382362366,
            0.4584098160266876,
            -1.383195161819458,
            -0.6910513639450073,
            -0.17840184271335602,
            -0.06218680739402771,
            -1.111232042312622,
            0.49022769927978516,
            -0.07634806632995605
        ],
        [
            0.5283994078636169,
            1.042174220085144,
            -0.34225258231163025,
            -0.3100292682647705,
            0.6847265958786011,
            0.01573333516716957,
            -0.09688589721918106,
            0.931281566619873,
            0.4244449734687805,
            0.08243352919816971,
            0.13254410028457642,
            -0.2974594831466675
        ],
        [
            0.2880248427391052,
            0.9647274613380432,
            -0.26836833357810974,
            0.8733267188072205,
            0.09203307330608368,
            0.7864812612533569,
            0.06120629236102104,
            -1.036763310432434,
            -0.08428100496530533,
            0.31284353137016296,
            0.71700519323349,
            0.6002886295318604
        ],
        [
            0.6235098838806152,
            -0.20526523888111115,
            -0.08800553530454636,
            -0.7502151131629944,
            -0.7434592843055725,
            0.6008808016777039,
            -0.9006315469741821,
            -0.0306890569627285,
            0.18779076635837555,
            -0.1416521966457367,
            -0.8646467328071594,
            0.982183039188385
        ],
        [
            0.1849128007888794,
            -0.23550371825695038,
            0.5378610491752625,
            -0.22269240021705627,
            0.016267193481326103,
            -0.9361851215362549,
            0.034096017479896545,
            -0.09328758716583252,
            0.28519806265830994,
            -0.364227831363678,
            -0.27192842960357666,
            -0.276405930519104
        ],
        [
            -0.41450729966163635,
            -0.322232186794281,
            0.38368257880210876,
            0.7631542086601257,
            -0.3116883933544159,
            0.5351694226264954,
            0.5970871448516846,
            -0.587249755859375,
            -0.7088425755500793,
            0.6496852040290833,
            0.03513159602880478,
            -0.07864325493574142
        ],
        [
            0.06231405586004257,
            0.539648175239563,
            -0.2443300485610962,
            -0.17333906888961792,
            -0.06034713611006737,
            -0.2521274983882904,
            -0.3149386942386627,
            -0.21312719583511353,
            -0.10799044370651245,
            0.04734055697917938,
            0.5100150108337402,
            0.10999952256679535
        ],
        [
            -0.22858472168445587,
            0.9748334288597107,
            -0.25485026836395264,
            -0.5357261896133423,
            -0.21628348529338837,
            -0.06920420378446579,
            -0.9237545132637024,
            0.13123643398284912,
            -0.10107053816318512,
            -0.3669798672199249,
            -0.43573886156082153,
            -0.08069344609975815
        ],
        [
            -0.5526267886161804,
            0.37807804346084595,
            -0.4875383973121643,
            -0.17249877750873566,
            -0.13083992898464203,
            -0.2560529410839081,
            0.2624041438102722,
            0.49274441599845886,
            0.4037649929523468,
            -1.0179458856582642,
            -0.5375477075576782,
            0.5688862204551697
        ],
        [
            -0.03615592420101166,
            0.17905530333518982,
            -0.3353385627269745,
            -0.23668010532855988,
            0.7133772969245911,
            0.5823737978935242,
            -0.16578222811222076,
            0.6627953052520752,
            0.15654009580612183,
            -0.7248353958129883,
            -0.6380578875541687,
            -0.9495435357093811
        ],
        [
            -0.6185581684112549,
            0.6515458822250366,
            -0.6965120434761047,
            -0.1263972967863083,
            0.02239787019789219,
            0.6764262914657593,
            0.18082594871520996,
            -0.1422216147184372,
            -0.3360100984573364,
            0.004496658220887184,
            0.09119627624750137,
            -0.27795135974884033
        ],
        [
            0.13133099675178528,
            0.6365508437156677,
            -0.48472124338150024,
            -0.6752998232841492,
            -0.5612419247627258,
            0.5610188245773315,
            -0.26444441080093384,
            0.38036268949508667,
            -0.9120602607727051,
            0.5543478727340698,
            -0.593900740146637,
            0.5388036370277405
        ],
        [
            0.06060813367366791,
            0.31074056029319763,
            0.46253544092178345,
            0.5394188761711121,
            -0.3948993384838104,
            0.6282866597175598,
            -0.4318239390850067,
            0.3518386483192444,
            -0.1713891625404358,
            0.01144108921289444,
            0.33599650859832764,
            -0.35624104738235474
        ],
        [
            -0.16299891471862793,
            -0.8077787160873413,
            -0.843641459941864,
            -0.02719244547188282,
            -0.31901875138282776,
            0.28660646080970764,
            0.19609548151493073,
            1.0206634998321533,
            0.5959871411323547,
            0.03300797566771507,
            0.09874552488327026,
            -0.031352583318948746
        ],
        [
            -0.60726398229599,
            -0.9392920732498169,
            -0.016964716836810112,
            0.31623291969299316,
            -0.561795175075531,
            -0.5391452312469482,
            -0.27629324793815613,
            -0.2141733467578888,
            -0.17923979461193085,
            0.32395708560943604,
            0.7499260902404785,
            -0.12674649059772491
        ],
        [
            -0.1908789873123169,
            0.17465710639953613,
            0.3069268763065338,
            -0.48673462867736816,
            -0.1674245446920395,
            -0.12360277771949768,
            0.19850590825080872,
            -0.0802447497844696,
            -0.6593229174613953,
            0.44731608033180237,
            0.08956395089626312,
            0.2031167894601822
        ],
        [
            -0.3210126757621765,
            1.1019823551177979,
            0.5889171361923218,
            0.9128931760787964,
            0.14373831450939178,
            0.7077502608299255,
            -0.4280756413936615,
            -0.3053056299686432,
            0.42563918232917786,
            -0.08351067453622818,
            0.027274275198578835,
            -0.11713626235723495
        ],
        [
            0.5464320182800293,
            0.23149976134300232,
            0.7223532199859619,
            -0.01687699370086193,
            0.13120535016059875,
            -0.3537540137767792,
            -0.2315363585948944,
            0.31603461503982544,
            0.3781774938106537,
            -0.5070180296897888,
            0.027060173451900482,
            -0.12599404156208038
        ],
        [
            -0.23701037466526031,
            -0.3918812572956085,
            0.18002307415008545,
            0.4074245095252991,
            0.6085494756698608,
            -0.7538905143737793,
            0.07809123396873474,
            0.29218921065330505,
            0.21953682601451874,
            0.7229265570640564,
            -0.1851769983768463,
            0.010393536649644375
        ],
        [
            0.4303879141807556,
            -0.5417175889015198,
            -0.33484578132629395,
            0.21646623313426971,
            1.0477842092514038,
            -0.22976355254650116,
            -0.13240431249141693,
            0.5605465769767761,
            0.30961692333221436,
            0.2764156758785248,
            -0.37449365854263306,
            -0.5651789307594299
        ],
        [
            0.5748127102851868,
            0.17852117121219635,
            -0.0542534701526165,
            -0.4335729479789734,
            -0.39072442054748535,
            0.38403475284576416,
            -0.4071246385574341,
            -0.021261807531118393,
            0.17863020300865173,
            0.36100295186042786,
            -0.1676982343196869,
            -0.11531808972358704
        ],
        [
            0.3273378908634186,
            -0.13117662072181702,
            -0.17568530142307281,
            -0.12161604315042496,
            0.2452223300933838,
            -0.038819968700408936,
            0.20360182225704193,
            0.21498072147369385,
            -1.115050196647644,
            -0.162594735622406,
            0.28573092818260193,
            -0.7157309055328369
        ],
        [
            -0.35175707936286926,
            -0.30170169472694397,
            0.3261672556400299,
            -0.47917965054512024,
            -0.0654214471578598,
            0.2786967158317566,
            0.42397254705429077,
            -0.6802670955657959,
            0.07798835635185242,
            -0.5261312127113342,
            0.5069937705993652,
            0.14927199482917786
        ],
        [
            -0.22075094282627106,
            0.21522141993045807,
            0.07156553864479065,
            -0.9302647113800049,
            0.8720518350601196,
            0.3787743151187897,
            0.06713499128818512,
            -0.24197383224964142,
            -0.7572726607322693,
            -0.7027260065078735,
            0.27535033226013184,
            -0.8649885058403015
        ],
        [
            -0.06632726639509201,
            0.4505169689655304,
            0.11383887380361557,
            -0.7728902101516724,
            0.24025996029376984,
            0.36653947830200195,
            0.6507533192634583,
            0.29144883155822754,
            -1.1563783884048462,
            0.7423184514045715,
            0.9871608018875122,
            -0.3878561556339264
        ],
        [
            -0.20040176808834076,
            -0.2726736068725586,
            0.33654043078422546,
            0.48269444704055786,
            0.8435104489326477,
            -0.8160755634307861,
            0.4877380430698395,
            -0.7345064878463745,
            0.1793154627084732,
            -0.20886428654193878,
            -0.8270958065986633,
            -0.2504170835018158
        ],
        [
            -0.3167089819908142,
            0.7156689763069153,
            0.22564485669136047,
            -0.09054425358772278,
            -0.026581401005387306,
            0.5571300983428955,
            -0.5291980504989624,
            -0.9383965730667114,
            0.2755686342716217,
            0.05159629136323929,
            0.32806825637817383,
            0.2308465540409088
        ],
        [
            0.38294917345046997,
            -1.1470263004302979,
            0.33080920577049255,
            0.18724194169044495,
            0.16586051881313324,
            -0.1716466099023819,
            0.2347491979598999,
            0.5608784556388855,
            0.09130949527025223,
            0.1399339884519577,
            0.40549173951148987,
            -0.25759586691856384
        ]
    ],
    "net_a_fc2_bias": [
        -0.005965010263025761,
        0.036918628960847855,
        0.0977836474776268,
        0.004597834777086973,
        0.1626560091972351,
        -0.09658094495534897,
        -0.011300548911094666,
        0.03526951000094414,
        0.08107727020978928,
        0.0235519427806139,
        0.01689380593597889,
        -0.03964568302035332,
        0.03902597725391388,
        0.07066324353218079,
        -0.03469116613268852,
        0.08016698807477951,
        0.018477322533726692,
        -0.000486998469568789,
        0.18904611468315125,
        0.13476769626140594,
        -0.0038849259726703167,
        0.06889821588993073,
        -0.0472538098692894,
        -0.01563224196434021
    ],
    "net_a_fc2_weight": [
        [
            0.2828831672668457,
            0.02843482233583927,
            0.07515760511159897,
            -0.6827822923660278,
            0.46530625224113464,
            -0.09040705114603043,
            0.2856960594654083,
            -0.0923621878027916,
            -0.2656479477882385,
            0.004361063241958618,
            -0.3319737911224365,
            -0.281308114528656,
            0.21092413365840912,
            -0.3736151158809662,
            -0.07322319597005844,
            -0.3282596468925476,
            -0.1856585592031479,
            -0.27784955501556396,
            0.19483692944049835,
            0.04511849209666252,
            0.07624826580286026,
            0.3017239570617676,
            -0.4284725487232208,
            -0.24665148556232452,
            -0.2929379343986511,
            0.21097981929779053,
            0.28991571068763733,
            0.21343393623828888,
            -0.2777858376502991,
            -0.24125155806541443,
            -0.22300094366073608,
            -0.08906438201665878,
            -0.316446989774704,
            0.15337133407592773,
            -0.018633857369422913,
            0.12988542020320892,
            0.0124381547793746,
            0.06526651233434677,
            -0.07992253452539444,
            -0.031471703201532364,
            0.12477416545152664,
            -0.2601567208766937,
            0.18034228682518005,
            0.26854732632637024,
            -0.39630192518234253,
            0.2441878616809845,
            -0.3394847810268402,
            0.02519478090107441,
            -0.20909713208675385,
            -0.19665230810642242,
            -0.37425845861434937,
            0.22300340235233307,
            0.16536283493041992,
            0.01617339253425598,
            -0.24603088200092316,
            -0.2958553433418274,
            0.07774892449378967,
            -0.06180030480027199,
            0.23767836391925812,
            0.36291688680648804
        ],
        [
            -0.26249268651008606,
            0.14662426710128784,
            -0.14079278707504272,
            -0.5064595341682434,
            -0.1709275245666504,
            0.10691048949956894,
            0.1979653537273407,
            0.010972416959702969,
            -0.05236157402396202,
            -0.31656333804130554,
            0.47154244780540466,
            0.1526843160390854,
            0.007785964757204056,
            -0.045549362897872925,
            -0.30092504620552063,
            -0.0494733527302742,
            -0.05998240411281586,
            -0.38216203451156616,
            0.17608052492141724,
            0.11959244310855865,
            -0.3092518746852875,
            0.08841715008020401,
            0.22552460432052612,
            -0.18545079231262207,
            -0.3503568172454834,
            -0.04596133902668953,
            -0.3720930814743042,
            -0.03400299325585365,
            -0.29798516631126404,
            0.09551148861646652,
            -0.380246102809906,
            -0.2610040307044983,
            0.33879852294921875,
            -0.1401212066411972,
            -0.7374646663665771,
            -0.46418529748916626,
            0.0627591460943222,
            -0.1898718625307083,
            -0.09474795311689377,
            -0.19682323932647705,
            -0.149457186460495,
            -0.22615371644496918,
            0.0015091518871486187,
            -0.09479184448719025,
            0.05631641671061516,
            -0.22389709949493408,
            0.20468991994857788,
            -0.21515174210071564,
            -0.22555789351463318,
            -0.15798060595989227,
            -0.3824022114276886,
            0.4781348407268524,
            -0.07622993737459183,
            0.15200749039649963,
            0.20620866119861603,
            -0.12171219289302826,
            -0.10791453719139099,
            0.16363322734832764,
            0.245955228805542,
            0.1570213884115219
        ],
        [
            -0.19902314245700836,
            -0.4103687107563019,
            -0.22263678908348083,
            0.12135827541351318,
            0.004771422129124403,
            0.32170894742012024,
            -0.06016972288489342,
            -0.195040762424469,
            -0.0492817759513855,
            0.48874109983444214,
            -0.193017840385437,
            -0.06306726485490799,
            -0.04753577336668968,
            -0.36484718322753906,
            0.28464338183403015,
            0.005344894714653492,
            0.17836883664131165,
            0.12405195832252502,
            0.28440549969673157,
            0.05942201614379883,
            0.17198865115642548,
            -0.1935786008834839,
            0.4547097980976105,
            -0.09576568752527237,
            -0.11514361202716827,
            -0.10063354671001434,
            -0.13946373760700226,
            0.6651936769485474,
            -0.08623845130205154,
            -0.39683738350868225,
            0.18108582496643066,
            0.5821295976638794,
            0.004433603957295418,
            0.22787222266197205,
            -0.3762451112270355,
            0.01189375203102827,
            0.1606798768043518,
            0.25235527753829956,
            0.05480879545211792,
            0.025679439306259155,
            -0.47562724351882935,
            -0.19185328483581543,
            0.06987860798835754,
            -0.02495783567428589,
            -0.12419439107179642,
            0.18083254992961884,
            -0.13515034317970276,
            0.5137404799461365,
            -0.35717228055000305,
            -0.08016219735145569,
            0.20830205082893372,
            -0.2673163115978241,
            0.06736128032207489,
            0.4265018403530121,
            -0.05520617589354515,
            0.2422088384628296,
            0.5560666918754578,
            -0.35614243149757385,
            -0.017944460734725,
            -0.30163249373435974
        ],
        [
            0.5216394066810608,
            0.28616654872894287,
            0.413985937833786,
            -0.09947919845581055,
            0.006698452867567539,
            -0.16900202631950378,
            -0.2369159609079361,
            0.12718917429447174,
            0.029160719364881516,
            -0.2780413329601288,
            -0.13422980904579163,
            -0.172529935836792,
            0.1303473711013794,
            -0.12048988789319992,
            0.3666627109050751,
            0.30336353182792664,
            -0.3460094630718231,
            0.3866899609565735,
            0.1743364781141281,
            0.20583036541938782,
            -0.03524993360042572,
            -0.08707965165376663,
            -0.09594672918319702,
            -0.11321067810058594,
            -0.14164498448371887,
            0.25202178955078125,
            -0.30452126264572144,
            0.07746170461177826,
            0.1540774405002594,
            -0.15783488750457764,
            0.24352583289146423,
            -0.11965330690145493,
            0.038287632167339325,
            0.17373718321323395,
            -0.12179705500602722,
            0.32671910524368286,
            0.008783266879618168,
            0.09110008180141449,
            -0.21032051742076874,
            -0.24954770505428314,
            -0.11924763768911362,
            -0.05971725657582283,
            -0.36466580629348755,
            0.010215196758508682,
            -0.045198529958724976,
            -0.04017041623592377,
            -0.19895537197589874,
            0.5268552899360657,
            -0.41453513503074646,
            0.13516190648078918,
            -0.1417597085237503,
            -0.2852216958999634,
            -0.035868216305971146,
            0.32952824234962463,
            0.5059575438499451,
            -0.05675289407372475,
            0.03849098086357117,
            0.053102850914001465,
            0.4081679582595825,
            0.12868905067443848
        ],
        [
            -0.09733472764492035,
            0.34060266613960266,
            0.1943092793226242,
            0.24516701698303223,
            -0.043327219784259796,
            0.3226742148399353,
            0.1855955719947815,
            0.3874627947807312,
            -0.0523340106010437,
            -0.2895745635032654,
            0.6393760442733765,
            -0.03117704577744007,
            0.24698646366596222,
            -0.117547407746315,
            0.16532453894615173,
            0.28653910756111145,
            -0.02709803357720375,
            -0.4644463360309601,
            0.08704740554094315,
            -0.16102223098278046,
            0.1402626633644104,
            -0.09632255882024765,
            -0.023492978885769844,
            0.042490165680646896,
            -0.0028696393128484488,
            -0.4552057087421417,
            -0.2837766408920288,
            0.5504370927810669,
            0.4639623463153839,
            0.12086979299783707,
            -0.22599254548549652,
            -0.0355643667280674,
            -0.012962092645466328,
            0.10535095632076263,
            0.05834987014532089,
            -0.17594192922115326,
            0.4271014630794525,
            0.08061713725328445,
            0.1094418540596962,
            -0.3108702600002289,
            0.2271067053079605,
            0.38392025232315063,
            -0.4724739193916321,
            0.045928943902254105,
            0.24631738662719727,
            0.1380520612001419,
            -0.09968916326761246,
            -0.28548210859298706,
            0.4627053439617157,
            -0.06520730257034302,
            0.16829495131969452,
            0.2430834025144577,
            -0.12338172644376755,
            0.2525293231010437,
            0.261727511882782,
            -0.12428994476795197,
            -0.15827299654483795,
            0.5222933292388916,
            -0.280752569437027,
            0.006298896856606007
        ],
        [
            -0.034816864877939224,
            -0.3037515878677368,
            0.26625633239746094,
            0.03605673462152481,
            -0.052890095859766006,
            0.19522680342197418,
            -0.12883758544921875,
            -0.3331608474254608,
            0.4155150353908539,
            0.4464437961578369,
            -0.12478601187467575,
            -0.5708214640617371,
            -0.21124738454818726,
            -0.15379999577999115,
            0.21015498042106628,
            -0.21074648201465607,
            -0.07041794806718826,
            0.22724120318889618,
            0.05079752579331398,
            0.3580184578895569,
            0.1442723423242569,
            -0.2054200917482376,
            -0.2968965172767639,
            0.06457871198654175,
            0.05645656958222389,
            0.1099061369895935,
            0.1426209956407547,
            0.0458105094730854,
            -0.37432852387428284,
            0.05669497326016426,
            -0.11798866093158722,
            0.444364070892334,
            0.02939801849424839,
            -0.09373015910387039,
            0.23958037793636322,
            0.2426939457654953,
            -0.20101025700569153,
            0.27941906452178955,
            0.22742649912834167,
            0.038577333092689514,
            -0.294708788394928,
            -0.4688141644001007,
            0.06190977618098259,
            0.25819098949432373,
            -0.08374864608049393,
            -0.2678026556968689,
            0.018418554216623306,
            0.33990299701690674,
            -0.0989382341504097,
            0.06021151691675186,
            -0.37810516357421875,
            -0.32389509677886963,
            -0.004815377295017242,
            -0.37759873270988464,
            -0.16562247276306152,
            0.18598555028438568,
            0.0968921035528183,
            0.10052721947431564,
            0.6386410593986511,
            0.0630272701382637
        ],
        [
            -0.011902538128197193,
            -0.06432370096445084,
            0.1992189735174179,
            -0.103996142745018,
            -0.2991294860839844,
            0.3069821894168854,
            0.20642049610614777,
            0.09641804546117783,
            0.480016827583313,
            0.15108484029769897,
            0.4540371298789978,
            0.21302036941051483,
            -0.12047470360994339,
            0.2752521336078644,
            0.03397810459136963,
            -0.0912487804889679,
            -0.18754450976848602,
            -0.12179046869277954,
            0.06555268168449402,
            0.3909463882446289,
            0.036845456808805466,
            -0.11797595024108887,
            -0.07702479511499405,
            -0.12318310886621475,
            0.3346453011035919,
            -0.27782952785491943,
            0.2952089011669159,
            0.14669257402420044,
            0.14188723266124725,
            0.28127729892730713,
            0.11536895483732224,
            0.2626427114009857,
            -0.0002358572237426415,
            -0.21627412736415863,
            0.03899013623595238,
            -0.1963328719139099,
            -0.4713725745677948,
            0.15412390232086182,
            -0.07442750781774521,
            -0.28944140672683716,
            -0.5311108231544495,
            0.11007366329431534,
            -0.17547833919525146,
            -0.18616808950901031,
            0.23233668506145477,
            -0.007589011453092098,
            0.42222076654434204,
            0.46430277824401855,
            0.4064519703388214,
            0.39903467893600464,
            -0.13294881582260132,
            -0.14151206612586975,
            0.19040635228157043,
            -0.15326949954032898,
            -0.1616879254579544,
            -0.3809005916118622,
            0.18025600910186768,
            0.07421550154685974,
            0.2841331660747528,
            -0.45738935470581055
        ],
        [
            -0.18156875669956207,
            -0.06221519410610199,
            -0.2720283269882202,
            0.018443085253238678,
            -0.043081048876047134,
            0.08593545109033585,
            0.2341085523366928,
            -0.3370133936405182,
            -0.5096728205680847,
            0.48041215538978577,
            0.5518027544021606,
            -0.2732529938220978,
            -0.12282221764326096,
            0.34711724519729614,
            -0.10981801897287369,
            0.5560539960861206,
            0.06680959463119507,
            -0.1479768007993698,
            0.23889800906181335,
            -0.03720751404762268,
            -0.05264083668589592,
            0.1578722894191742,
            0.02546970173716545,
            -0.01472577452659607,
            0.06711273640394211,
            -0.00476382952183485,
            0.46031373739242554,
            0.2578696310520172,
            -0.08437428623437881,
            0.2614966630935669,
            -0.006066901609301567,
            -0.16722720861434937,
            -0.19000133872032166,
            -0.12902621924877167,
            0.3466610908508301,
            -0.5269356369972229,
            -0.30679962038993835,
            0.29391172528266907,
            -0.34683525562286377,
            -0.04215221852064133,
            -0.5695491433143616,
            -0.519660472869873,
            -0.5585829615592957,
            0.31463590264320374,
            0.14652061462402344,
            -0.10001225769519806,
            -0.021225834265351295,
            -0.04063465818762779,
            0.09857746958732605,
            0.1629294753074646,
            0.5599769353866577,
            0.38823291659355164,
            -0.15532544255256653,
            0.28387153148651123,
            -0.4758280813694,
            0.0803433433175087,
            -0.23134897649288177,
            0.2644850015640259,
            -0.40580055117607117,
            0.010105135850608349
        ],
        [
            0.6150504946708679,
            0.07402180880308151,
            0.2299668788909912,
            -0.20644518733024597,
            0.06811819225549698,
            0.14976084232330322,
            -0.15456631779670715,
            -0.37433090806007385,
            -0.07860006392002106,
            -0.2611142694950104,
            -0.21589364111423492,
            0.24714526534080505,
            -0.17849411070346832,
            -0.04866719990968704,
            -0.49878039956092834,
            0.03196649253368378,
            0.4407065808773041,
            0.48177745938301086,
            0.2460007518529892,
            0.08687521517276764,
            -0.5475527048110962,
            -0.012460599653422832,
            0.3599734306335449,
            -0.2450622022151947,
            0.1072937473654747,
            0.520306408405304,
            0.11913469433784485,
            0.0985797718167305,
            -0.39164644479751587,
            0.20697110891342163,
            -0.0218901839107275,
            0.047186482697725296,
            -0.11237885057926178,
            0.20987571775913239,
            -0.058639660477638245,
            -0.0069987778551876545,
            0.17693403363227844,
            0.03073296882212162,
            -0.03472891449928284,
            0.5769883990287781,
            0.1433691680431366,
            -0.28187108039855957,
            0.24936841428279877,
            0.021143505349755287,
            0.11601501703262329,
            -0.030493415892124176,
            -0.42915335297584534,
            0.2054087519645691,
            -0.27039435505867004,
            0.4037400186061859,
            -0.5293710827827454,
            0.11055944114923477,
            -0.022900860756635666,
            -0.13206347823143005,
            -0.36061450839042664,
            0.37764132022857666,
            -0.42732441425323486,
            -0.6953001618385315,
            -0.1987398862838745,
            0.4323277771472931
        ],
        [
            -0.284788578748703,
            0.3467331528663635,
            0.23419204354286194,
            0.2040564864873886,
            -0.15636879205703735,
            -0.18772542476654053,
            0.2484682947397232,
            0.1568894237279892,
            0.3568362891674042,
            -0.09167306125164032,
            0.10743837803602219,
            -0.04132983088493347,
            0.26976442337036133,
            0.019177379086613655,
            0.070083849132061,
            -0.17801323533058167,
            0.5500836968421936,
            0.2035745233297348,
            -0.19272233545780182,
            0.07101361453533173,
            -0.04965846240520477,
            -0.1320665180683136,
            0.19377727806568146,
            0.8930327296257019,
            0.3653737008571625,
            -0.1321110874414444,
            -0.10107768326997757,
            0.25892120599746704,
            0.10401258617639542,
            -0.7315399646759033,
            -0.0018220874480903149,
            0.18546709418296814,
            -0.08308630436658859,
            0.10591627657413483,
            0.4053564667701721,
            0.010314414277672768,
            -0.14303231239318848,
            0.16366524994373322,
            0.058642398566007614,
            -0.1385062038898468,
            0.421459436416626,
            -0.07328719645738602,
            0.42768728733062744,
            0.042853668332099915,
            0.3898678719997406,
            -0.3029053807258606,
            0.2641974091529846,
            0.004955283831804991,
            -0.3038136065006256,
            -0.1521109789609909,
            0.13621804118156433,
            0.006415230222046375,
            0.35400474071502686,
            0.6042070388793945,
            -0.17364759743213654,
            -0.40305399894714355,
            0.6304826736450195,
            0.09131604433059692,
            0.28752991557121277,
            0.3150256872177124
        ],
        [
            -0.018144845962524414,
            -0.005224999506026506,
            0.1372174173593521,
            -0.060941122472286224,
            0.13684795796871185,
            0.1264745146036148,
            -0.3398408591747284,
            0.4501531720161438,
            0.2560846209526062,
            0.4104042053222656,
            0.5316833257675171,
            0.008504965342581272,
            0.09823506325483322,
            0.1558080017566681,
            0.29370036721229553,
            0.2990054488182068,
            -0.2391510009765625,
            -0.18233941495418549,
            0.2652537524700165,
            -0.36034202575683594,
            0.7358914613723755,
            -0.3586825430393219,
            -0.01996646076440811,
            -0.4078921377658844,
            0.046921588480472565,
            -0.08756501227617264,
            -0.37469446659088135,
            0.07636303454637527,
            0.12700124084949493,
            -0.25162938237190247,
            -0.05669967085123062,
            -0.43360745906829834,
            0.39904600381851196,
            0.1291639804840088,
            0.1370311975479126,
            -0.05343149974942207,
            -0.3261662423610687,
            -0.19429990649223328,
            -0.4437159597873688,
            -0.3726471960544586,
            0.22981633245944977,
            0.2980901300907135,
            -0.5937492847442627,
            -0.32511892914772034,
            -0.061402250081300735,
            0.14213021099567413,
            0.3253469169139862,
            -0.6149676442146301,
            -0.3535018265247345,
            0.2985523045063019,
            0.17271746695041656,
            0.41517987847328186,
            -0.04821988195180893,
            -0.1379464715719223,
            -0.18413954973220825,
            -0.3765760064125061,
            -0.09476582705974579,
            0.36309683322906494,
            0.0749785304069519,
            -0.20300525426864624
        ],
        [
            0.1036941334605217,
            0.26476946473121643,
            0.03384025767445564,
            0.13766181468963623,
            0.11559509485960007,
            -0.058969564735889435,
            0.007979938760399818,
            0.213387131690979,
            -0.4474320411682129,
            -0.05083907023072243,
            0.47586536407470703,
            0.311084121465683,
            0.18442592024803162,
            0.23566459119319916,
            0.21373997628688812,
            0.45390796661376953,
            0.20383131504058838,
            -0.4040850102901459,
            0.07216808944940567,
            0.45166993141174316,
            -0.04862204194068909,
            -0.03119339793920517,
            -0.04585416242480278,
            -0.022966699674725533,
            0.001654956373386085,
            0.06451143324375153,
            -0.6689264178276062,
            0.07677823305130005,
            0.5575922727584839,
            -0.5414925813674927,
            -0.13312280178070068,
            0.01706591248512268,
            0.1489148736000061,
            -0.4518105387687683,
            -0.1497681736946106,
            -0.3532908856868744,
            0.25521373748779297,
            -0.4199281334877014,
            0.2376987487077713,
            -0.4250543713569641,
            -0.2920544743537903,
            -0.3872067332267761,
            -0.508048951625824,
            0.035567160695791245,
            -0.5000817179679871,
            -0.8334243893623352,
            0.15370716154575348,
            0.25315654277801514,
            -0.4490589499473572,
            0.5332143902778625,
            0.1878325343132019,
            -0.10545910894870758,
            0.12430527806282043,
            0.29693394899368286,
            -0.18420173227787018,
            0.1514512300491333,
            -0.028767552226781845,
            0.3938809335231781,
            -0.555604100227356,
            -0.3419246971607208
        ],
        [
            0.27344828844070435,
            0.12194477766752243,
            0.238651841878891,
            -0.1307918280363083,
            0.30908337235450745,
            -0.21060843765735626,
            -0.20322026312351227,
            0.00017836922779679298,
            0.2208627313375473,
            -0.2369978278875351,
            -0.11142163723707199,
            0.21950945258140564,
            0.1353577971458435,
            0.10688194632530212,
            -0.4305807650089264,
            -0.2948687970638275,
            0.10506940633058548,
            0.13851630687713623,
            -0.1034279316663742,
            -0.11514955013990402,
            -0.2233937680721283,
            0.21692882478237152,
            -0.23834267258644104,
            -0.2702719271183014,
            -0.2533537745475769,
            0.1558060646057129,
            0.5119290947914124,
            -0.341501384973526,
            -0.09378869086503983,
            0.7765980958938599,
            -0.320704847574234,
            -0.02043558843433857,
            -0.11018399894237518,
            -0.03893187642097473,
            -0.464498370885849,
            0.5291891694068909,
            0.11687976121902466,
            0.30028459429740906,
            -0.030102647840976715,
            0.24124759435653687,
            0.3225591778755188,
            -0.35747578740119934,
            0.04469877481460571,
            0.030608652159571648,
            -0.3790169358253479,
            0.15840749442577362,
            -0.22027587890625,
            -0.21912871301174164,
            -0.30313459038734436,
            0.0026772781275212765,
            0.08056154102087021,
            0.594567060470581,
            -0.1875782310962677,
            -0.03502379730343819,
            -0.11122617870569229,
            -0.011929696425795555,
            -0.06595613807439804,
            -0.10375010967254639,
            -0.45060938596725464,
            0.31272825598716736
        ],
        [
            0.24992842972278595,
            0.03854617103934288,
            0.1984928399324417,
            0.28862908482551575,
            -0.07361723482608795,
            0.13495557010173798,
            -0.1469159871339798,
            0.16432157158851624,
            0.2761451303958893,
            0.07507973909378052,
            -0.3345320224761963,
            0.18021352589130402,
            0.17393137514591217,
            0.09063679724931717,
            -0.48687463998794556,
            0.09903819859027863,
            0.2523023188114166,
            0.13599936664104462,
            0.3262968957424164,
            -0.35723358392715454,
            -0.37222152948379517,
            0.21942026913166046,
            -0.3573269844055176,
            -0.013191555626690388,
            0.05263445898890495,
            0.24615593254566193,
            -0.29591891169548035,
            0.08223231881856918,
            -0.14332938194274902,
            -0.3541214168071747,
            0.0034705891739577055,
            0.03451499715447426,
            0.02171463333070278,
            0.07898357510566711,
            -0.3167800009250641,
            0.14676477015018463,
            0.04117922484874725,
            0.24871554970741272,
            -0.13032035529613495,
            0.09214747697114944,
            0.16385993361473083,
            0.03886723518371582,
            0.08428052067756653,
            -0.19875171780586243,
            0.07448332011699677,
            0.15010659396648407,
            -0.08100772649049759,
            0.10915344953536987,
            -0.1341153234243393,
            -0.018710244446992874,
            -0.26748237013816833,
            0.13586778938770294,
            0.25327152013778687,
            -0.14901144802570343,
            -0.36401090025901794,
            0.03718147426843643,
            0.31024202704429626,
            -0.30154141783714294,
            -0.02720685303211212,
            -0.12284286320209503
        ],
        [
            -0.14814208447933197,
            -0.1947048008441925,
            0.14495831727981567,
            -0.12199921160936356,
            -0.3407996892929077,
            -0.06917782872915268,
            -0.13286690413951874,
            -0.034394871443510056,
            0.1667211502790451,
            0.391804963350296,
            0.1910972148180008,
            -0.0881626084446907,
            -0.16173429787158966,
            0.15096357464790344,
            0.17365480959415436,
            -0.43000441789627075,
            -0.14349327981472015,
            0.1775672286748886,
            0.07010911405086517,
            -0.3836124837398529,
            0.082908034324646,
            -0.33450785279273987,
            0.0033583715558052063,
            0.08844435960054398,
            -0.13704875111579895,
            0.14546062052249908,
            -0.14277532696723938,
            -0.2896505892276764,
            -0.11430107802152634,
            0.03190476819872856,
            -0.2596491575241089,
            -0.12693819403648376,
            -0.2743814289569855,
            -0.04746926575899124,
            -0.10631415247917175,
            0.06710844486951828,
            0.21268732845783234,
            0.2760574519634247,
            0.01806013658642769,
            0.07058871537446976,
            -0.36441752314567566,
            0.020067164674401283,
            0.002133286790922284,
            0.2553653120994568,
            -0.07411123812198639,
            0.28179678320884705,
            -0.35667282342910767,
            0.37080249190330505,
            -0.17142227292060852,
            -0.23546560108661652,
            -0.17696380615234375,
            -0.41460734605789185,
            -0.15034446120262146,
            -0.04997193440794945,
            -0.30063435435295105,
            0.04807957261800766,
            -0.31332942843437195,
            -0.3372979760169983,
            -0.21248145401477814,
            0.20235227048397064
        ],
        [
            0.1798565834760666,
            0.3440786898136139,
            0.46850162744522095,
            0.03461518883705139,
            -0.31788480281829834,
            0.13010554015636444,
            -0.23493629693984985,
            0.09745928645133972,
            -0.11233323812484741,
            -0.09991759061813354,
            0.025008708238601685,
            -0.07840252667665482,
            -0.04892510920763016,
            0.03866118565201759,
            -0.21675577759742737,
            -0.04172713682055473,
            0.500989556312561,
            0.35483819246292114,
            0.26342853903770447,
            -0.39348605275154114,
            0.07784461230039597,
            -0.20026497542858124,
            0.27396127581596375,
            0.2443755567073822,
            0.3090818226337433,
            0.4289352595806122,
            -0.38037586212158203,
            -0.028468461707234383,
            -0.10502363741397858,
            0.11466261744499207,
            -0.3780483305454254,
            0.30740949511528015,
            -0.22809870541095734,
            -0.2842292785644531,
            0.007915421389043331,
            -0.0039321621879935265,
            0.2173444926738739,
            0.11886324733495712,
            -0.14416813850402832,
            -0.05433104187250137,
            0.05784941464662552,
            -0.0585954412817955,
            0.034177977591753006,
            0.15289536118507385,
            -0.03916530683636665,
            0.19163595139980316,
            -0.363547682762146,
            -0.26720720529556274,
            0.46397602558135986,
            -0.09025168418884277,
            -0.22061727941036224,
            -0.043119534850120544,
            0.04657324403524399,
            0.36679917573928833,
            -0.3468818664550781,
            0.21849820017814636,
            0.1515243500471115,
            0.4045495092868805,
            -0.18807490170001984,
            0.2540605068206787
        ],
        [
            0.22645938396453857,
            0.33453527092933655,
            0.2290215939283371,
            0.24961614608764648,
            0.6149499416351318,
            0.008793133310973644,
            0.3225151598453522,
            0.1314971148967743,
            -0.07208288460969925,
            -0.2564452290534973,
            0.05627613514661789,
            -0.12337459623813629,
            -0.12659703195095062,
            -0.002247187774628401,
            -0.14855057001113892,
            0.025604519993066788,
            -0.2862658202648163,
            -0.38970980048179626,
            -0.1742585003376007,
            -0.13449448347091675,
            0.3198452889919281,
            0.21830669045448303,
            0.5057921409606934,
            0.14426608383655548,
            -0.12703754007816315,
            -0.27815139293670654,
            -0.04997106269001961,
            0.4042423367500305,
            0.5761131644248962,
            0.0729224681854248,
            -0.44390758872032166,
            0.3134130537509918,
            0.045979149639606476,
            0.07715950906276703,
            0.31829652190208435,
            -0.03872721642255783,
            0.3889754116535187,
            -0.04593314602971077,
            0.3611173629760742,
            0.38208848237991333,
            0.3917211592197418,
            -0.013982925564050674,
            0.04968520998954773,
            0.06063709780573845,
            0.08721648156642914,
            -0.1558309942483902,
            0.035662081092596054,
            0.04342926666140556,
            0.06971018016338348,
            0.11061336100101471,
            0.16659100353717804,
            -0.08180179446935654,
            0.25555139780044556,
            0.00016580510418862104,
            -0.20134209096431732,
            -0.5775145292282104,
            0.23097221553325653,
            0.05056308954954147,
            -0.2382688820362091,
            0.04938988387584686
        ],
        [
            -0.22589871287345886,
            0.048028912395238876,
            0.3610822856426239,
            0.5117195844650269,
            0.12512873113155365,
            0.09587298333644867,
            0.23515735566616058,
            0.1786218285560608,
            -0.02717316523194313,
            0.05221660062670708,
            0.11854007840156555,
            0.08774353563785553,
            0.16004042327404022,
            -0.5449414253234863,
            -0.00867480505257845,
            -0.20380164682865143,
            0.4794206917285919,
            -0.1759088635444641,
            0.24531979858875275,
            0.01750224269926548,
            0.1654655635356903,
            -0.13423311710357666,
            0.5739192366600037,
            0.03572971001267433,
            0.5323758125305176,
            0.3425407111644745,
            0.06753077358007431,
            -0.17718857526779175,
            0.21851304173469543,
            -0.3754321336746216,
            0.07720320671796799,
            0.02959286794066429,
            0.047597408294677734,
            0.31746581196784973,
            0.06945875287055969,
            0.10255637764930725,
            0.0349869579076767,
            0.16022635996341705,
            0.1516142338514328,
            -0.18121643364429474,
            0.24774210155010223,
            -0.015490375459194183,
            0.0811997726559639,
            0.17036393284797668,
            -0.3355078399181366,
            0.1851777583360672,
            -0.2802433371543884,
            0.2736440896987915,
            0.042924098670482635,
            -0.2105976641178131,
            -0.10742294043302536,
            -0.3716256320476532,
            -0.01134902611374855,
            0.12545858323574066,
            -0.45093822479248047,
            0.02526526153087616,
            0.27238187193870544,
            -0.17907193303108215,
            0.4943898022174835,
            -0.2145306020975113
        ],
        [
            0.4689647853374481,
            0.5944260954856873,
            -0.07470384985208511,
            0.41757455468177795,
            -0.10804834961891174,
            0.5046417713165283,
            0.2627665102481842,
            0.28956490755081177,
            -0.15689785778522491,
            0.3805968463420868,
            0.7192156910896301,
            0.2672099769115448,
            0.12794242799282074,
            -0.05207308381795883,
            -0.018611477687954903,
            0.23370273411273956,
            0.514233410358429,
            -0.40731778740882874,
            0.13815727829933167,
            0.3314042091369629,
            -0.31043457984924316,
            0.23787789046764374,
            0.12449049204587936,
            0.3546733558177948,
            0.33944594860076904,
            0.29132914543151855,
            -0.009528023190796375,
            -0.5217922925949097,
            0.5503777861595154,
            -0.164912149310112,
            -0.2810555696487427,
            -0.018398143351078033,
            0.016580482944846153,
            -0.19898231327533722,
            -0.15533386170864105,
            0.04351497441530228,
            -0.3420247733592987,
            0.36040377616882324,
            0.3460407555103302,
            -0.03631111979484558,
            0.37396007776260376,
            0.5655356645584106,
            0.4485085904598236,
            0.28745976090431213,
            0.005549049004912376,
            0.18666987121105194,
            0.6881189942359924,
            -0.07403172552585602,
            0.23577900230884552,
            0.28329795598983765,
            0.2505790889263153,
            -0.08114844560623169,
            0.3630487322807312,
            0.5612428784370422,
            -0.2623298466205597,
            0.004297453910112381,
            0.29226362705230713,
            0.6122705340385437,
            0.15484337508678436,
            -0.3297048807144165
        ],
        [
            -0.0551997572183609,
            0.2057647556066513,
            0.33435872197151184,
            0.36264416575431824,
            0.32626742124557495,
            0.07329800724983215,
            0.2627367079257965,
            0.2092416137456894,
            0.021463952958583832,
            -0.4095267355442047,
            0.40974897146224976,
            -0.3196036219596863,
            -0.08078908920288086,
            0.19982966780662537,
            0.13039322197437286,
            0.0718427523970604,
            -0.0657147765159607,
            0.17340004444122314,
            -0.1738128513097763,
            0.030040789395570755,
            -0.011347390711307526,
            0.1938953995704651,
            0.014760266989469528,
            -0.07058973610401154,
            0.025636987760663033,
            0.0036873193457722664,
            0.07058807462453842,
            0.03324256092309952,
            0.5490643382072449,
            0.4126749038696289,
            0.09693218767642975,
            0.0474005863070488,
            0.5363256931304932,
            0.1868036836385727,
            -0.15411865711212158,
            -0.08577822148799896,
            0.5593838095664978,
            -0.24304205179214478,
            0.08023777604103088,
            -0.14511528611183167,
            0.31980040669441223,
            0.428683876991272,
            0.3758738338947296,
            0.257830947637558,
            0.02683374471962452,
            -0.0024113592226058245,
            -0.031297288835048676,
            -0.45603933930397034,
            0.4200291931629181,
            0.26273250579833984,
            -0.11038880795240402,
            0.2131669670343399,
            -0.05548887327313423,
            -0.04744769632816315,
            0.21664026379585266,
            0.29790928959846497,
            -0.06982360780239105,
            0.3074711561203003,
            0.06562944501638412,
            0.16833306849002838
        ],
        [
            -0.20457391440868378,
            -0.2426617294549942,
            -0.3168201446533203,
            0.014968113042414188,
            -0.1343909353017807,
            -0.05384070426225662,
            0.16101039946079254,
            -0.0840434655547142,
            -0.13860440254211426,
            -0.42577672004699707,
            0.2022717446088791,
            -0.07091214507818222,
            0.260487824678421,
            0.13167114555835724,
            0.11353044956922531,
            -0.23836511373519897,
            -0.006166096311062574,
            -0.004288105294108391,
            -0.275136798620224,
            0.0069889044389128685,
            -0.14341910183429718,
            -0.2422255128622055,
            -0.19909828901290894,
            -0.02016553096473217,
            0.12133517861366272,
            -0.05172727629542351,
            -0.20840564370155334,
            0.06866476684808731,
            -0.2657451927661896,
            0.16544649004936218,
            -0.328177809715271,
            0.2248907834291458,
            -0.1493968665599823,
            -0.38462212681770325,
            0.1876191943883896,
            -0.218540757894516,
            0.1724572628736496,
            -0.01908312737941742,
            -0.4863515794277191,
            0.0941702201962471,
            -0.022943193092942238,
            0.2594778537750244,
            0.013822023756802082,
            0.10669955611228943,
            -0.031461335718631744,
            0.008588566444814205,
            0.0037231009919196367,
            -0.08858492970466614,
            0.031212560832500458,
            -0.28048503398895264,
            -0.07399482280015945,
            -0.010752175003290176,
            -0.3151165544986725,
            0.08392476290464401,
            0.042968302965164185,
            -0.3939444422721863,
            -0.3292829990386963,
            -0.13356897234916687,
            -0.10153138637542725,
            0.09572185575962067
        ],
        [
            -0.0048128520138561726,
            0.16950723528862,
            0.11363141238689423,
            -0.028442708775401115,
            -0.04080088064074516,
            0.057921357452869415,
            0.2803754210472107,
            0.7721859216690063,
            -0.016206765547394753,
            0.013819313608109951,
            0.4406011998653412,
            -0.11451935023069382,
            0.21137316524982452,
            -0.10264633595943451,
            -0.029714280739426613,
            0.46134549379348755,
            -0.019449718296527863,
            -0.7233335971832275,
            0.27685293555259705,
            -0.0147682074457407,
            -0.22113651037216187,
            0.23598513007164001,
            0.1062006801366806,
            0.12247706949710846,
            0.07296724617481232,
            -0.08551178127527237,
            -0.5053964257240295,
            -0.2681102454662323,
            0.09191419184207916,
            0.22256629168987274,
            -0.2936864197254181,
            -0.42936423420906067,
            -0.1849401742219925,
            0.1354239284992218,
            0.11619898676872253,
            -0.25725600123405457,
            0.5433887839317322,
            0.48828378319740295,
            0.16584450006484985,
            -0.32342907786369324,
            0.2772083282470703,
            0.6083135604858398,
            0.11661707609891891,
            -0.3256455957889557,
            0.1103077158331871,
            -0.2040475457906723,
            0.14385080337524414,
            0.12524694204330444,
            -0.1384517252445221,
            0.3392145037651062,
            0.032071955502033234,
            -0.14203102886676788,
            0.1346951723098755,
            0.37851187586784363,
            0.20714105665683746,
            -0.33298954367637634,
            0.09596962481737137,
            0.5035607218742371,
            0.10172665864229202,
            -0.1258157342672348
        ],
        [
            -0.010651811957359314,
            0.25946083664894104,
            0.08093617111444473,
            -0.4299554228782654,
            0.06946701556444168,
            -0.05150896683335304,
            -0.06197240948677063,
            -0.6388165354728699,
            -0.43716078996658325,
            0.11584080010652542,
            -0.012898999266326427,
            -0.3985525369644165,
            -0.2453821897506714,
            0.09309502691030502,
            0.2311907708644867,
            -0.28811851143836975,
            0.03929406404495239,
            0.007687684614211321,
            0.22402001917362213,
            -0.1854276806116104,
            -0.3973008096218109,
            -0.01275545172393322,
            -0.17217572033405304,
            0.47851911187171936,
            -0.6681044697761536,
            0.013833601027727127,
            0.12483923137187958,
            -0.08209248632192612,
            -0.10468015819787979,
            -0.008076629601418972,
            -0.05872208997607231,
            0.08787418156862259,
            -0.21706320345401764,
            0.11413143575191498,
            -0.44041213393211365,
            0.30140453577041626,
            -0.13685154914855957,
            -0.3284653127193451,
            -0.025312194600701332,
            -0.2726331353187561,
            0.24168072640895844,
            -0.2823914885520935,
            -0.15318606793880463,
            -0.5205159783363342,
            -0.3843843340873718,
            -0.23030053079128265,
            0.08756445348262787,
            -0.1345689296722412,
            0.08063129335641861,
            0.1623493880033493,
            -0.11719315499067307,
            -0.23551909625530243,
            -0.08866443485021591,
            -0.19619356095790863,
            -0.017439717426896095,
            0.20076823234558105,
            -0.4468801021575928,
            -0.20338644087314606,
            0.17516233026981354,
            0.3004683554172516
        ],
        [
            -0.03705626353621483,
            -0.344242662191391,
            0.184479221701622,
            -0.17266453802585602,
            -0.20623637735843658,
            -0.3621114194393158,
            -0.4955955743789673,
            -0.30225950479507446,
            0.2930832505226135,
            0.11959375441074371,
            0.2213059961795807,
            0.09666503965854645,
            -0.6563434600830078,
            0.14202143251895905,
            0.07602054625749588,
            -0.07069867849349976,
            -0.2473047971725464,
            -0.10816072672605515,
            0.12988793849945068,
            0.3640148341655731,
            -0.23337258398532867,
            -0.24527378380298615,
            -0.5824496746063232,
            0.13487081229686737,
            -0.17886321246623993,
            -0.11249294131994247,
            0.051305629312992096,
            0.030089765787124634,
            -0.10739912837743759,
            -0.05076451227068901,
            0.015246110036969185,
            0.4220544695854187,
            0.04660961776971817,
            -0.11048626899719238,
            0.09266439825296402,
            -0.0883549228310585,
            -0.5114724636077881,
            -0.3594576120376587,
            0.1574782282114029,
            0.5515229105949402,
            -0.3121231496334076,
            0.27631622552871704,
            -0.09596472233533859,
            0.35488900542259216,
            0.33102190494537354,
            -0.36774852871894836,
            0.17043210566043854,
            0.20300918817520142,
            0.014875607565045357,
            -0.12116868048906326,
            -0.044467587023973465,
            0.05293997377157211,
            0.04191887006163597,
            0.011531049385666847,
            0.22705380618572235,
            0.02275216206908226,
            0.3267650604248047,
            -0.028447667136788368,
            0.3526245653629303,
            0.1358698457479477
        ]
    ],
    "net_a_fc3_bias": [
        0.17004892230033875,
        0.08214594423770905,
        0.07022464275360107,
        0.10965320467948914,
        0.25435671210289
    ],
    "net_a_fc3_weight": [
        [
            0.6652932167053223,
            -0.1823548823595047,
            -0.4233051836490631,
            -0.7148865461349487,
            -0.02369919791817665,
            0.0007340569281950593,
            -0.3258521854877472,
            -0.4920869767665863,
            0.4747558832168579,
            0.15926264226436615,
            -0.23885469138622284,
            -0.9654061794281006,
            0.2583237886428833,
            0.2769671082496643,
            -0.2721461355686188,
            0.6845292448997498,
            -0.5334590077400208,
            0.38988715410232544,
            0.245159313082695,
            0.25451841950416565,
            -0.1375834196805954,
            0.20664246380329132,
            0.3254226744174957,
            -0.7372326254844666
        ],
        [
            0.39490270614624023,
            0.01788686215877533,
            -0.21854496002197266,
            0.45044010877609253,
            0.019019445404410362,
            0.14091834425926208,
            -0.3257717192173004,
            -0.7242733836174011,
            -0.32118672132492065,
            0.06172593683004379,
            0.7532415390014648,
            -0.14871835708618164,
            0.3069117069244385,
            0.004279741086065769,
            -0.4727429151535034,
            -0.27400535345077515,
            0.09616915881633759,
            0.2020701915025711,
            0.0883169025182724,
            0.9522210359573364,
            0.07606479525566101,
            0.2903168797492981,
            -0.5216162204742432,
            0.18256090581417084
        ],
        [
            -0.6966570615768433,
            -0.1394602209329605,
            -0.10346769541501999,
            -0.11925960332155228,
            -0.360979825258255,
            -0.3026701807975769,
            -0.255321741104126,
            -0.43611252307891846,
            0.5251592397689819,
            0.4524071514606476,
            -0.7326178550720215,
            0.5672251582145691,
            0.13451306521892548,
            0.4248572587966919,
            0.38460057973861694,
            0.32224664092063904,
            -0.17153263092041016,
            0.13688838481903076,
            0.504432737827301,
            -0.5948008894920349,
            -0.5851830244064331,
            0.6031681299209595,
            0.04680493101477623,
            0.1217290535569191
        ],
        [
            -0.45815661549568176,
            0.6078137159347534,
            -0.5449521541595459,
            0.5438929796218872,
            0.8965588808059692,
            -0.708687961101532,
            0.02474752813577652,
            0.5945643782615662,
            -0.22307230532169342,
            -0.05418333411216736,
            0.33033713698387146,
            0.41980573534965515,
            0.16744546592235565,
            0.014915571548044682,
            -0.31328102946281433,
            0.11181216686964035,
            1.0550826787948608,
            -0.028245819732546806,
            0.3330380320549011,
            0.5148673057556152,
            -0.02115516923367977,
            0.6474164128303528,
            -0.04921245574951172,
            -0.30180293321609497
        ],
        [
            0.17780204117298126,
            0.009744390845298767,
            -0.381940096616745,
            0.22510680556297302,
            -0.39032986760139465,
            -0.2942935824394226,
            -0.7469550967216492,
            -0.04521000757813454,
            0.3211537003517151,
            -0.9572688937187195,
            -0.9388585090637207,
            -0.5594462156295776,
            0.4737478196620941,
            -0.04461339861154556,
            0.43250253796577454,
            -0.044756852090358734,
            -0.4193524420261383,
            -0.3849831521511078,
            -0.15981335937976837,
            0.4473113715648651,
            0.22798043489456177,
            -0.1739320605993271,
            0.5646289587020874,
            0.41786035895347595
        ]
    ],
    "net_b_fc1_bias": [
        0.19639569520950317,
        0.011498854495584965,
        0.006299308035522699,
        0.33138594031333923,
        0.2955271303653717,
        0.2381611168384552,
        0.09855590015649796,
        0.306507408618927,
        -0.08192232251167297,
        -0.029982592910528183,
        0.14360105991363525,
        0.04624181613326073,
        -0.11611255258321762,
        0.3615554869174957,
        0.3243613839149475,
        -0.00287231826223433,
        0.07759580761194229,
        0.29523608088493347,
        0.3670555353164673,
        0.3445493280887604,
        0.37701353430747986,
        0.06863115727901459,
        0.07707333564758301,
        0.12450288236141205,
        -0.0015963652404025197
    ],
    "net_b_fc1_weight": [
        [
            0.5131902694702148,
            0.1670432686805725,
            0.6988194584846497,
            -0.25761327147483826,
            -0.20612606406211853
        ],
        [
            -0.4701234996318817,
            -0.9014281034469604,
            0.058931268751621246,
            0.34776461124420166,
            -0.2091902792453766
        ],
        [
            0.24831759929656982,
            -0.21565067768096924,
            0.33088764548301697,
            -0.8677342534065247,
            -0.04351019486784935
        ],
        [
            -1.4368867874145508,
            0.7052804827690125,
            0.6080073714256287,
            -1.4778854846954346,
            2.0878360271453857
        ],
        [
            0.9764407277107239,
            -0.5192098617553711,
            0.8328848481178284,
            -0.30287861824035645,
            -0.17437852919101715
        ],
        [
            -0.47375965118408203,
            0.2911231815814972,
            0.1137353852391243,
            0.8133335113525391,
            -0.1375853568315506
        ],
        [
            -0.16082271933555603,
            -1.61600661277771,
            -0.372384250164032,
            -0.04120606184005737,
            -1.2921030521392822
        ],
        [
            0.5481181144714355,
            -0.2777528762817383,
            0.875725507736206,
            -1.2645155191421509,
            -0.40838903188705444
        ],
        [
            -0.7047030329704285,
            -0.1705455780029297,
            -0.9855658411979675,
            -1.2702248096466064,
            -0.16681285202503204
        ],
        [
            -1.4558217525482178,
            -0.5276134014129639,
            -0.36021411418914795,
            1.1647090911865234,
            -0.5061010122299194
        ],
        [
            0.3595041334629059,
            1.2394230365753174,
            -0.3053303062915802,
            1.0939857959747314,
            0.6054975986480713
        ],
        [
            0.4191587269306183,
            -0.5422055125236511,
            0.16155114769935608,
            0.1092463955283165,
            0.572116494178772
        ],
        [
            0.34104636311531067,
            1.4661614894866943,
            0.3674834966659546,
            0.8094954490661621,
            0.2844814956188202
        ],
        [
            1.8159401416778564,
            1.145216941833496,
            0.418947696685791,
            -0.5444453954696655,
            0.15085728466510773
        ],
        [
            1.3520476818084717,
            -0.41450875997543335,
            0.14172589778900146,
            -1.9340230226516724,
            1.4897878170013428
        ],
        [
            -0.20087917149066925,
            -0.36280515789985657,
            -0.40469780564308167,
            0.4715139865875244,
            0.996688187122345
        ],
        [
            -0.20737484097480774,
            -0.6249105930328369,
            -0.18483053147792816,
            0.2816206216812134,
            -0.9157034754753113
        ],
        [
            -0.9471267461776733,
            -0.60550856590271,
            0.9561639428138733,
            1.190053105354309,
            -0.7391902208328247
        ],
        [
            0.6138298511505127,
            -0.5573408603668213,
            0.7044721841812134,
            -0.6714423298835754,
            0.5315357446670532
        ],
        [
            -1.6065974235534668,
            -0.16162756085395813,
            -0.19042478501796722,
            0.8529374003410339,
            -1.7318068742752075
        ],
        [
            1.234092116355896,
            0.8121394515037537,
            0.7777063846588135,
            -0.4533625841140747,
            0.49223509430885315
        ],
        [
            -0.8462249040603638,
            -0.8480768799781799,
            -0.0479360967874527,
            0.327656626701355,
            0.20561891794204712
        ],
        [
            -0.47775083780288696,
            -0.29754042625427246,
            0.7414534091949463,
            0.4891311228275299,
            1.5384420156478882
        ],
        [
            -0.14394845068454742,
            -0.6026256084442139,
            0.6181448698043823,
            0.9277661442756653,
            -0.7021114230155945
        ],
        [
            -1.1339975595474243,
            0.20236580073833466,
            -0.4945622384548187,
            0.8716576099395752,
            0.4111822247505188
        ]
    ],
    "net_b_fc2_bias": [
        0.08630112558603287
    ],
    "net_b_fc2_weight": [
        [
            0.45195484161376953,
            -0.8552952408790588,
            0.32763543725013733,
            0.6224198341369629,
            0.5151475071907043,
            -0.526115894317627,
            -0.43572771549224854,
            0.36795708537101746,
            -0.17332793772220612,
            -0.15963515639305115,
            -0.22831040620803833,
            0.8135718703269958,
            -0.40561631321907043,
            0.5501242876052856,
            0.5504435896873474,
            0.13245134055614471,
            -0.40769943594932556,
            -0.9610471725463867,
            1.2153551578521729,
            -0.3576485514640808,
            0.7980175018310547,
            -0.5345497727394104,
            0.4479753077030182,
            -0.8840036392211914,
            -0.1694817841053009
        ]
    ]
}