{
    "level": 5,
    "net_a_fc1_bias": [
        -0.11979645490646362,
        -0.01638304628431797,
        -0.025079019367694855,
        -0.052245769649744034,
        0.09862781316041946,
        -0.05824488401412964,
        0.005814549513161182,
        0.04182377830147743,
        0.06664570420980453,
        0.06358787417411804,
        0.09802041947841644,
        -0.09402776509523392,
        -0.0665978342294693,
        0.01740117184817791,
        0.03803722560405731,
        -0.05807523801922798,
        0.09852374345064163,
        0.0742369294166565,
        0.21494875848293304,
        -0.03267071023583412,
        0.07124447822570801,
        0.13230636715888977,
        0.009323770180344582,
        0.08239661902189255,
        -0.08860699832439423,
        -0.05111676827073097,
        -0.01699349284172058,
        0.02481672912836075,
        -0.07332450896501541,
        0.0070837559178471565,
        -0.03995395079255104,
        -0.019992729648947716,
        0.12330278754234314,
        0.05871320888400078,
        -0.07762468606233597,
        -0.018672063946723938,
        -0.019980156794190407,
        0.11622565239667892,
        -0.03034335933625698,
        -0.06880905479192734,
        0.14781805872917175,
        -0.011150959879159927,
        -0.04418217018246651,
        0.11625941842794418,
        -0.007153304759413004,
        0.05706338956952095,
        -0.15796586871147156,
        0.026652099564671516,
        0.10011909157037735,
        0.08054108172655106,
        -0.06732115149497986,
        -0.060027651488780975,
        0.03172645717859268,
        0.060402244329452515,
        0.044370751827955246,
        0.004050097428262234,
        0.11980029195547104,
        0.07252010703086853,
        -0.04460494965314865,
        0.10575643181800842
    ],
    "net_a_fc1_weight": [
        [
            0.005615320987999439,
            -0.06897327303886414,
            0.11899777501821518,
            0.032211944460868835,
            -0.1596038043498993,
            0.4068399667739868,
            -0.0628516897559166,
            0.6184090971946716,
            -0.4272148013114929,
            -0.14949820935726166,
            0.712595522403717,
            0.5472949743270874
        ],
        [
            0.19089531898498535,
            -0.06725836545228958,
            0.2745891511440277,
            -0.298524409532547,
            -0.20945602655410767,
            0.019874408841133118,
            -0.2627144753932953,
            0.9413647651672363,
            0.07069946080446243,
            -0.8735896348953247,
            -0.12701155245304108,
            0.06662073731422424
        ],
        [
            -0.195042684674263,
            0.10459396243095398,
            0.4599562883377075,
            0.11855944991111755,
            0.14713254570960999,
            -0.1277020126581192,
            0.01944435015320778,
            -0.27520713210105896,
            0.05428212508559227,
            -0.7532417178153992,
            0.2624965310096741,
            -0.19149206578731537
        ],
        [
            0.29399988055229187,
            0.11675974726676941,
            0.21747355163097382,
            0.8395621180534363,
            0.1915658712387085,
            0.187045156955719,
            0.4587897062301636,
            0.3893253207206726,
            0.22593672573566437,
            0.06934890896081924,
            -0.22358760237693787,
            0.36175352334976196
        ],
        [
            0.6785546541213989,
            -0.11995495110750198,
            -0.6479830741882324,
            0.48758578300476074,
            -0.09390959143638611,
            -0.3911122977733612,
            -0.37675440311431885,
            -0.5531011819839478,
            0.4290429949760437,
            -0.4505797326564789,
            0.2075040340423584,
            -0.3143123388290405
        ],
        [
            0.4587967097759247,
            -0.6687948703765869,
            0.26786983013153076,
            0.8491514325141907,
            0.3270629644393921,
            0.09952196478843689,
            -0.10939546674489975,
            0.0060712979175150394,
            0.33062049746513367,
            -0.05534971132874489,
            -0.31467562913894653,
            0.05193408951163292
        ],
        [
            0.5319252610206604,
            0.43774473667144775,
            -0.246419757604599,
            -1.1492223739624023,
            -0.1901751011610031,
            -0.14887461066246033,
            0.6148328185081482,
            -0.3564901649951935,
            0.6181532740592957,
            0.6599652767181396,
            -0.14743603765964508,
            -0.4229317903518677
        ],
        [
            -0.4472145736217499,
            -0.5116693377494812,
            0.8464486598968506,
            0.18198201060295105,
            0.3679414987564087,
            -0.18535123765468597,
            0.17652368545532227,
            -0.044285766780376434,
            -0.6862521171569824,
            -0.8808170557022095,
            0.20930923521518707,
            -0.036966025829315186
        ],
        [
            -0.2221517115831375,
            -0.14688533544540405,
            0.22030267119407654,
            0.1039792001247406,
            0.005054752342402935,
            -0.2740611135959625,
            -0.10674857348203659,
            -0.21200130879878998,
            -0.15901091694831848,
            0.27567076683044434,
            0.24272096157073975,
            0.22198760509490967
        ],
        [
            -0.645484983921051,
            0.07688258588314056,
            -0.00039337677299045026,
            -0.22611956298351288,
            -0.3095890283584595,
            0.1308460235595703,
            0.2620032727718353,
            -0.5595634579658508,
            -0.10178401321172714,
            -0.156941756606102,
            0.6839374303817749,
            0.28483885526657104
        ],
        [
            0.5267878174781799,
            -0.10072523355484009,
            0.21964822709560394,
            0.6313260793685913,
            -0.5571027994155884,
            -0.20677721500396729,
            0.6539055705070496,
            -0.39384132623672485,
            0.24027442932128906,
            0.1254182606935501,
            0.062446512281894684,
            -0.029392093420028687
        ],
        [
            -0.21075768768787384,
            0.24851085245609283,
            -0.14945238828659058,
            -0.3177008032798767,
            0.3294295072555542,
            0.06348192691802979,
            0.32842543721199036,
            -0.8461165428161621,
            -0.5392674803733826,
            0.2910071313381195,
            -0.31949201226234436,
            -0.2657925486564636
        ],
        [
            -0.9613787531852722,
            0.3384953737258911,
            -0.3421309292316437,
            -0.4497555196285248,
            -0.16509053111076355,
            -0.25692951679229736,
            -0.07441180944442749,
            -0.18986725807189941,
            -0.3299596905708313,
            0.2939680516719818,
            -0.44846731424331665,
            -0.20003612339496613
        ],
        [
            -0.815746545791626,
            0.2894918918609619,
            -0.12070608139038086,
            0.5589143633842468,
            -0.49696478247642517,
            -0.259403258562088,
            0.14325633645057678,
            -1.0337060689926147,
            -0.21520276367664337,
            -0.10152501612901688,
            -0.09670005738735199,
            0.39395201206207275
        ],
        [
            -0.1294209361076355,
            0.4874599277973175,
            -0.4196300506591797,
            -0.5330131649971008,
            -0.5843479633331299,
            0.19803889095783234,
            -0.4641897976398468,
            -0.31179550290107727,
            0.1321364790201187,
            0.2436739206314087,
            -0.22070381045341492,
            0.6365898251533508
        ],
        [
            0.29969891905784607,
            -0.7521541118621826,
            -0.10855985432863235,
            -0.6253000497817993,
            -0.15608075261116028,
            -0.5396339297294617,
            -0.5174224972724915,
            -0.38552820682525635,
            0.1220051497220993,
            -0.10683340579271317,
            -0.08622873574495316,
            0.00456587178632617
        ],
        [
            0.39605578780174255,
            -0.057294268161058426,
            1.004834532737732,
            0.3776635229587555,
            -0.19662655889987946,
            0.1946967989206314,
            0.8164108395576477,
            -0.25542566180229187,
            0.24939267337322235,
            -0.24186082184314728,
            0.3675980567932129,
            0.2780859172344208
        ],
        [
            0.046019554138183594,
            0.2808705270290375,
            0.377208411693573,
            -0.10176782310009003,
            0.2210770845413208,
            0.6305838227272034,
            0.5572152733802795,
            -0.884620726108551,
            -0.13414116203784943,
            0.9452394843101501,
            0.7330162525177002,
            0.32815253734588623
        ],
        [
            0.664303183555603,
            0.16003833711147308,
            -0.4390706419944763,
            0.06945107877254486,
            0.6042723059654236,
            0.026312192901968956,
            -1.053553581237793,
            -0.18007659912109375,
            0.41392287611961365,
            -0.23485712707042694,
            -0.43289920687675476,
            -0.04015035554766655
        ],
        [
            -0.43777504563331604,
            -0.08809821307659149,
            -0.017582092434167862,
            0.5978115200996399,
            0.5637930035591125,
            0.567791759967804,
            -0.02690461464226246,
            -0.11140600591897964,
            0.5307947993278503,
            0.05861947312951088,
            -0.08972732722759247,
            0.7848862409591675
        ],
        [
            0.26868242025375366,
            0.026836981996893883,
            -0.06950541585683823,
            -0.040440578013658524,
            0.3652574121952057,
            0.3724249303340912,
            -0.07393922656774521,
            0.4817456901073456,
            0.008051877841353416,
            0.4279262125492096,
            -0.37657302618026733,
            0.4996992349624634
        ],
        [
            -0.36212804913520813,
            -0.44265809655189514,
            -0.2237374186515808,
            -0.1255798190832138,
            0.30411607027053833,
            0.02109372243285179,
            -0.6853803992271423,
            0.3459022343158722,
            -0.5101379752159119,
            -0.42553409934043884,
            0.07809290289878845,
            0.5257784724235535
        ],
        [
            0.3162473440170288,
            0.6139302253723145,
            0.20135721564292908,
            -0.1091507151722908,
            -0.25057417154312134,
            -0.33981311321258545,
            -0.26448580622673035,
            -0.02280450239777565,
            -0.5482653975486755,
            -0.6660529375076294,
            -0.490045428276062,
            0.5334310531616211
        ],
        [
            -0.20330235362052917,
            0.3991815745830536,
            -0.2592657804489136,
            -0.4514937698841095,
            -1.1316550970077515,
            0.6520659327507019,
            0.0996641144156456,
            0.0025792941451072693,
            -0.0998760536313057,
            0.1826867312192917,
            -0.9783288240432739,
            -0.02733888477087021
        ],
        [
            -0.5537223219871521,
            0.2093936800956726,
            0.022647617384791374,
            -0.13194940984249115,
            -1.2515779733657837,
            -0.3204072415828705,
            -0.07570425420999527,
            -0.2907745838165283,
            -0.5703126788139343,
            -0.30617275834083557,
            0.10269962251186371,
            0.036070842295885086
        ],
        [
            -0.20801536738872528,
            -0.24142108857631683,
            -0.2952905595302582,
            0.15703175961971283,
            -0.7592147588729858,
            0.12091083079576492,
            0.6075454354286194,
            -0.294999897480011,
            -0.32786086201667786,
            0.3381272256374359,
            0.0661158487200737,
            -0.1591402292251587
        ],
        [
            0.55368572473526,
            -0.08718346059322357,
            0.4764280617237091,
            -0.17576056718826294,
            0.06505937874317169,
            0.3856326639652252,
            -0.08573584258556366,
            -0.01866716891527176,
            -0.794537365436554,
            -0.3803078234195709,
            0.9128468036651611,
            -0.04880105331540108
        ],
        [
            -0.29952263832092285,
            0.008827841840684414,
            0.29660606384277344,
            -0.07442468404769897,
            0.8343396782875061,
            -0.2638615071773529,
            -1.0700547695159912,
            -1.2467615604400635,
            -0.1015201210975647,
            0.03499998152256012,
            0.39712443947792053,
            0.12134693562984467
        ],
        [
            0.09814703464508057,
            -0.09582571685314178,
            -0.5701630115509033,
            0.11258697509765625,
            0.25554409623146057,
            0.3111867904663086,
            0.4792642891407013,
            0.4268556535243988,
            0.7681748867034912,
            -0.015236963517963886,
            -0.07589615136384964,
            0.9545835852622986
        ],
        [
            0.6831082105636597,
            -1.0229909420013428,
            -0.04747695475816727,
            -0.1574622392654419,
            0.40899601578712463,
            -0.14285913109779358,
            -0.4534236192703247,
            0.42000702023506165,
            0.6806451678276062,
            0.030345061793923378,
            0.15426026284694672,
            0.058142028748989105
        ],
        [
            0.5765764117240906,
            0.08024612069129944,
            0.7000940442085266,
            -0.32939156889915466,
            -0.23827455937862396,
            -0.008377695456147194,
            -0.5049346089363098,
            -0.6026027202606201,
            -0.04856530949473381,
            0.611203134059906,
            0.44113069772720337,
            -0.22103072702884674
        ],
        [
            -0.026766642928123474,
            0.01791473664343357,
            0.14162187278270721,
            0.9278206825256348,
            -0.06650510430335999,
            -0.08342946320772171,
            0.22795040905475616,
            -0.01739201322197914,
            -0.047514237463474274,
            -0.31596723198890686,
            0.5079417824745178,
            1.0354478359222412
        ],
        [
            -0.18461105227470398,
            -0.13171687722206116,
            -0.3865765929222107,
            0.794224202632904,
            0.4082682132720947,
            -0.33704471588134766,
            -0.46201133728027344,
            0.17938917875289917,
            -0.6377261877059937,
            -0.31361350417137146,
            -0.4746105670928955,
            0.3139953911304474
        ],
        [
            -0.631654679775238,
            0.7785265445709229,
            0.7698087692260742,
            -0.35790514945983887,
            -0.07050586491823196,
            -0.7002262473106384,
            0.3068345785140991,
            0.0848502591252327,
            0.09572552889585495,
            -0.07053273916244507,
            -0.782811164855957,
            0.09537456929683685
        ],
        [
            -0.41424456238746643,
            0.6708768010139465,
            -0.18793821334838867,
            -1.0505001544952393,
            -0.22513633966445923,
            -0.15794737637043,
            0.11841073632240295,
            -0.41259297728538513,
            0.014688102528452873,
            -0.14060230553150177,
            0.8008565902709961,
            -0.41424450278282166
        ],
        [
            -0.20397062599658966,
            -0.44447237253189087,
            0.2942653298377991,
            -0.05806347727775574,
            -0.29990798234939575,
            -0.20243947207927704,
            -0.17802302539348602,
            0.4957687258720398,
            -0.45344579219818115,
            -0.3139173090457916,
            -0.10773542523384094,
            0.45467129349708557
        ],
        [
            0.22998538613319397,
            0.2246987670660019,
            -0.46508246660232544,
            -0.41010400652885437,
            0.29276520013809204,
            0.001840590382926166,
            0.5585034489631653,
            0.1302291452884674,
            0.4933048188686371,
            -0.49945029616355896,
            0.6233412623405457,
            -0.7657909989356995
        ],
        [
            0.29072198271751404,
            0.396380215883255,
            -0.39851298928260803,
            0.19375315308570862,
            0.6416394114494324,
            -0.02834455855190754,
            -0.2434413582086563,
            0.7019917368888855,
            1.1823997497558594,
            0.03179377689957619,
            0.1572907716035843,
            -0.10340504348278046
        ],
        [
            0.38124552369117737,
            0.054174602031707764,
            -0.26532167196273804,
            -0.3623012900352478,
            -0.1544702649116516,
            0.04510091245174408,
            0.18267028033733368,
            0.2770451307296753,
            0.01777913048863411,
            0.4840896725654602,
            0.07614485919475555,
            0.43420669436454773
        ],
        [
            0.7956302165985107,
            0.42998188734054565,
            0.5467540621757507,
            0.331329882144928,
            0.1573268622159958,
            0.15799939632415771,
            -0.18807917833328247,
            0.07300833612680435,
            -0.45590507984161377,
            -0.09511683136224747,
            0.5125781297683716,
            -0.18623985350131989
        ],
        [
            -0.5105314254760742,
            0.22849953174591064,
            -0.5646824240684509,
            -0.2516971528530121,
            -1.0905786752700806,
            -0.47457626461982727,
            0.13276386260986328,
            -0.2847127616405487,
            0.2825186848640442,
            0.5537487268447876,
            0.39653918147087097,
            0.4425079822540283
        ],
        [
            -0.12556806206703186,
            -0.24270957708358765,
            0.42951101064682007,
            -0.7209256291389465,
            0.21433696150779724,
            0.08136797696352005,
            -0.40383562445640564,
            -0.037195175886154175,
            0.6274269819259644,
            -0.6208975911140442,
            -0.5914278030395508,
            -0.049497202038764954
        ],
        [
            -0.48867443203926086,
            0.40527305006980896,
            0.3573923707008362,
            -0.08080130070447922,
            0.13014303147792816,
            -0.12290077656507492,
            0.5140373110771179,
            -0.2224581241607666,
            0.2401283085346222,
            0.36825031042099,
            -0.22074928879737854,
            -0.20613506436347961
        ],
        [
            0.09813251346349716,
            -0.2913539409637451,
            0.07886630296707153,
            -0.32536572217941284,
            -0.7927506566047668,
            -0.023329587653279305,
            -0.3634032607078552,
            -0.8652195334434509,
            -0.18632951378822327,
            -0.35814738273620605,
            0.15651164948940277,
            0.106401227414608
        ],
        [
            0.45540913939476013,
            -0.2769765257835388,
            -0.36047038435935974,
            0.07929467409849167,
            -0.5253055095672607,
            0.7088022232055664,
            -0.37664899230003357,
            0.5940220355987549,
            -0.007911491207778454,
            0.20654641091823578,
            0.03691163286566734,
            -0.15733802318572998
        ],
        [
            -0.08210328966379166,
            -0.13886231184005737,
            0.25995853543281555,
            -0.8897790908813477,
            0.5621399283409119,
            0.2232663631439209,
            -0.055877696722745895,
            -0.09472940862178802,
            0.6425002217292786,
            0.4599466323852539,
            0.35171598196029663,
            0.5666437149047852
        ],
        [
            0.1251325160264969,
            -0.09285201132297516,
            -0.5193650722503662,
            -0.029953379184007645,
            -0.08050800114870071,
            -0.1795659214258194,
            0.1894732266664505,
            0.10228801518678665,
            -0.24185845255851746,
            0.08428364247083664,
            -0.6210941672325134,
            0.45061594247817993
        ],
        [
            0.42087286710739136,
            -0.673465371131897,
            -0.2164592295885086,
            0.40947431325912476,
            -0.5408546924591064,
            0.48824429512023926,
            -0.5548455119132996,
            -0.0643918588757515,
            -0.25207972526550293,
            0.2816195487976074,
            0.2914128005504608,
            -0.845570981502533
        ],
        [
            -0.2864360213279724,
            -0.5355094075202942,
            0.10316555202007294,
            -0.6105531454086304,
            -0.5962456464767456,
            0.287636935710907,
            -0.23661084473133087,
            -0.017333151772618294,
            -0.041631367057561874,
            -0.6456350684165955,
            -0.3558773994445801,
            -0.15450534224510193
        ],
        [
            -0.21115604043006897,
            0.4367063343524933,
            0.5064855813980103,
            1.1188055276870728,
            -0.2711820900440216,
            -0.3414388597011566,
            0.6718741655349731,
            0.36590802669525146,
            0.5048296451568604,
            0.044620905071496964,
            0.32202041149139404,
            0.13575759530067444
        ],
        [
            -0.11714071035385132,
            0.2724188566207886,
            0.5544590950012207,
            0.6618603467941284,
            -0.5835381150245667,
            -0.39140626788139343,
            0.5912857055664062,
            0.6135197281837463,
            0.5383774638175964,
            0.184845432639122,
            -0.735609233379364,
            0.10242447257041931
        ],
        [
            0.5971559882164001,
            -0.0006580561166629195,
            0.536858081817627,
            -0.10894465446472168,
            -0.29087576270103455,
            -0.29558229446411133,
            -0.471105694770813,
            -0.2663763761520386,
            -0.3577243387699127,
            0.2007303088903427,
            0.2624974250793457,
            -0.005228701047599316
        ],
        [
            -0.05733410269021988,
            -0.565462052822113,
            -0.5962623357772827,
            0.43370214104652405,
            0.2324322760105133,
            0.43016794323921204,
            -0.11555392295122147,
            0.0003625204844865948,
            -0.34517502784729004,
            -0.3888433277606964,
            -0.35695528984069824,
            -0.069344662129879
        ],
        [
            0.32524824142456055,
            -0.3005262017250061,
            -0.3134370446205139,
            -0.5650325417518616,
            0.3341773450374603,
            -0.5289041996002197,
            -0.057485200464725494,
            0.12264889478683472,
            0.6793122291564941,
            -0.15069784224033356,
            -0.431138813495636,
            0.08452483266592026
        ],
        [
            -0.39610809087753296,
            0.2597486674785614,
            -0.7098686099052429,
            0.12112707644701004,
            -0.5677418112754822,
            0.31744953989982605,
            -0.03413603454828262,
            0.6398826837539673,
            -0.3028736710548401,
            -0.028160301968455315,
            -0.18984143435955048,
            0.47718724608421326
        ],
        [
            -0.4008559286594391,
            -0.4157404601573944,
            -0.4371257424354553,
            -0.2778726816177368,
            -0.006424847524613142,
            0.3342183828353882,
            -0.4168863594532013,
            -0.543415904045105,
            -0.418700635433197,
            0.2109372913837433,
            0.2188335359096527,
            -0.28328099846839905
        ],
        [
            0.032384730875492096,
            -0.5919106602668762,
            -0.5202668905258179,
            0.21111442148685455,
            -0.2085736244916916,
            -0.21365278959274292,
            -0.27067697048187256,
            0.2562531530857086,
            0.5851072669029236,
            0.031437937170267105,
            -0.1578182727098465,
            -0.5041356086730957
        ],
        [
            -0.8585999011993408,
            0.22777143120765686,
            0.09137723594903946,
            -0.5771818161010742,
            0.36757633090019226,
            0.4236466586589813,
            0.49068567156791687,
            1.4870796203613281,
            -0.2574436664581299,
            -0.1296631395816803,
            0.03783980756998062,
            -0.12459589540958405
        ],
        [
            0.24775287508964539,
            0.2799714207649231,
            -0.3490208387374878,
            -0.08968767523765564,
            0.3930509388446808,
            -0.6676973104476929,
            0.8239166736602783,
            0.22410885989665985,
            0.17067725956439972,
            -0.1560955047607422,
            0.5053969025611877,
            0.798434853553772
        ],
        [
            -0.617911696434021,
            0.38651275634765625,
            -0.33145713806152344,
            -0.5260429978370667,
            0.7542940974235535,
            0.2763941287994385,
            -0.4425702691078186,
            -0.19828619062900543,
            0.07681652158498764,
            -0.3072587549686432,
            0.1766834259033203,
            0.7658959627151489
        ]
    ],
    "net_a_fc2_bias": [
        0.07134783267974854,
        0.05752628296613693,
        -0.07318619638681412,
        0.06407730281352997,
        0.047997619956731796,
        -0.036566659808158875,
        0.04098645597696304,
        0.05562804639339447,
        0.07086028903722763,
        0.09051273763179779,
        -0.06890114396810532,
        0.007800731807947159,
        -0.06925421953201294,
        0.020404256880283356,
        -0.054313238710165024,
        0.10383860021829605,
        0.017405763268470764,
        0.023942623287439346,
        0.11699790507555008,
        -0.029381314292550087,
        -0.08241267502307892,
        0.003208009758964181,
        -0.043748289346694946,
        0.05793425813317299
    ],
    "net_a_fc2_weight": [
        [
            -0.0042185368947684765,
            0.3543584942817688,
            0.35018810629844666,
            -0.1964704841375351,
            -0.031548675149679184,
            0.27044612169265747,
            -0.2557187080383301,
            0.1995452642440796,
            -0.21904008090496063,
            0.2123395800590515,
            0.09062965959310532,
            0.07299992442131042,
            0.22292618453502655,
            0.08771535009145737,
            0.17356805503368378,
            -0.4307836592197418,
            0.22332902252674103,
            0.013549884781241417,
            -0.09663425385951996,
            0.13769052922725677,
            -0.24189622700214386,
            -0.05518798157572746,
            0.02183685079216957,
            -0.22422870993614197,
            -0.09995264559984207,
            0.21701186895370483,
            -0.40091997385025024,
            0.2191682904958725,
            0.07182379066944122,
            0.34839296340942383,
            0.35227614641189575,
            0.10733816027641296,
            0.21861520409584045,
            0.23066481947898865,
            0.08490794152021408,
            0.34065887331962585,
            -0.12088150531053543,
            -0.10613657534122467,
            -0.06506355851888657,
            -0.03231961280107498,
            0.03735176473855972,
            0.3180862069129944,
            -0.34177982807159424,
            -0.22803828120231628,
            -0.1582125425338745,
            0.24538841843605042,
            0.09847819060087204,
            -0.1763041615486145,
            -0.3835456073284149,
            0.3422163426876068,
            -0.056731902062892914,
            -0.11192336678504944,
            -0.025460463017225266,
            0.12875071167945862,
            0.1608084738254547,
            0.27234917879104614,
            -0.2667071223258972,
            0.024920448660850525,
            -0.25949564576148987,
            0.4296395182609558
        ],
        [
            -0.5106794834136963,
            -0.2814410924911499,
            -0.022550495341420174,
            -0.026923948898911476,
            0.1528131365776062,
            -0.010582205839455128,
            -0.2931848466396332,
            -0.051193539053201675,
            -0.04799339175224304,
            0.25104114413261414,
            0.26549261808395386,
            0.1285954862833023,
            -0.30481210350990295,
            0.07584812492132187,
            -0.26374781131744385,
            -0.05325007066130638,
            0.3076744079589844,
            0.40809404850006104,
            0.2861012816429138,
            -0.6163098812103271,
            0.3573915362358093,
            0.17284920811653137,
            0.08518049865961075,
            -0.11532285809516907,
            0.02073432132601738,
            0.293739378452301,
            -0.0017889239825308323,
            0.05887313932180405,
            0.09618581086397171,
            0.40247923135757446,
            0.1590299755334854,
            0.2650369703769684,
            -0.07699870318174362,
            -0.16561923921108246,
            -0.36179399490356445,
            0.3377656638622284,
            -0.17879270017147064,
            0.22592470049858093,
            0.14476747810840607,
            -0.03247604891657829,
            0.2911764681339264,
            -0.03164328634738922,
            -0.22757355868816376,
            0.06439618021249771,
            -0.14568506181240082,
            -0.12237237393856049,
            -0.20667138695716858,
            0.11056890338659286,
            0.31830456852912903,
            -0.09544450044631958,
            0.06757881492376328,
            0.17623718082904816,
            0.14290978014469147,
            0.010921559296548367,
            0.1816115528345108,
            0.011968816630542278,
            0.006190644111484289,
            -0.20636089146137238,
            -0.08562865853309631,
            0.10729113221168518
        ],
        [
            0.07491020858287811,
            0.13150352239608765,
            0.2774811387062073,
            0.17997683584690094,
            0.02482108399271965,
            -0.21424463391304016,
            0.27686837315559387,
            0.3055535852909088,
            -0.1590130776166916,
            -0.029021598398685455,
            -0.20120055973529816,
            0.06035466864705086,
            0.08257333189249039,
            -0.019771583378314972,
            0.18705052137374878,
            -0.01923787221312523,
            0.09351951628923416,
            0.0527130663394928,
            -0.014826660975813866,
            0.2541762590408325,
            -0.0588463693857193,
            -0.1663270741701126,
            0.015315799042582512,
            0.24317657947540283,
            0.4780534505844116,
            0.38051602244377136,
            -0.05616027116775513,
            0.11437227576971054,
            -0.1304866522550583,
            0.012316676788032055,
            0.298044890165329,
            0.02534721978008747,
            -0.22211477160453796,
            -0.0027585169300436974,
            0.3423992097377777,
            0.022562658414244652,
            0.2443932443857193,
            -0.16694067418575287,
            0.2721005976200104,
            0.046753183007240295,
            -0.3005462884902954,
            -0.13661284744739532,
            0.28064149618148804,
            -0.053700678050518036,
            0.1731220930814743,
            -0.13583436608314514,
            0.2885661721229553,
            -0.12268988788127899,
            0.10675478726625443,
            -0.13813695311546326,
            -0.058071475476026535,
            -0.11081568896770477,
            -0.21602480113506317,
            0.27943554520606995,
            -0.2790294587612152,
            0.09350081533193588,
            0.14266861975193024,
            -0.3709641396999359,
            0.1519555002450943,
            -0.03829707205295563
        ],
        [
            0.1894160360097885,
            -0.06897807866334915,
            0.10810495167970657,
            -0.03283306583762169,
            0.09936248511075974,
            0.19470791518688202,
            0.052515264600515366,
            -0.08926180750131607,
            -0.24737679958343506,
            -0.268311083316803,
            -0.037919722497463226,
            0.0385177806019783,
            -0.07480990886688232,
            -0.045280907303094864,
            0.6076751351356506,
            0.021506426855921745,
            -0.2291368693113327,
            -0.20650869607925415,
            -0.09941589832305908,
            -0.15870286524295807,
            -0.06336186081171036,
            0.15814273059368134,
            0.1948672980070114,
            -0.27802789211273193,
            -0.09516134858131409,
            -0.19783541560173035,
            0.11680794507265091,
            0.14817988872528076,
            -0.3547528088092804,
            -0.28390204906463623,
            0.13272419571876526,
            0.12446129322052002,
            0.3140873610973358,
            -0.05028689652681351,
            0.14254668354988098,
            0.0270207691937685,
            0.1558409035205841,
            0.054413557052612305,
            -0.2572098672389984,
            0.11209086328744888,
            0.1264803558588028,
            0.22038543224334717,
            -0.20667271316051483,
            0.06206202507019043,
            0.35212764143943787,
            0.0016746643232181668,
            -0.461454838514328,
            -0.22867543995380402,
            -0.11582204699516296,
            -0.3082854449748993,
            -0.3724968135356903,
            0.0604255236685276,
            -0.20169760286808014,
            -0.22145980596542358,
            0.04718276113271713,
            0.05182146281003952,
            -0.09606370329856873,
            -0.017093919217586517,
            -0.24838858842849731,
            0.024434300139546394
        ],
        [
            -0.17728441953659058,
            0.2613252103328705,
            0.023685073480010033,
            0.1809593141078949,
            -0.02719394862651825,
            0.22955983877182007,
            -0.04666691645979881,
            0.03928421437740326,
            0.1496448665857315,
            0.09978155046701431,
            0.12288390100002289,
            -0.06592829525470734,
            -0.00991540215909481,
            0.01131176482886076,
            0.35985100269317627,
            -0.15541407465934753,
            0.0774630680680275,
            0.022030632942914963,
            0.14258307218551636,
            -0.21942183375358582,
            0.17622151970863342,
            0.4221862256526947,
            0.23649773001670837,
            -0.019660677760839462,
            -0.12136821448802948,
            0.00803496316075325,
            0.3151145875453949,
            0.04129008948802948,
            0.004905357491225004,
            0.21305151283740997,
            -0.01613820157945156,
            -0.13701803982257843,
            -0.0316770076751709,
            0.05056336894631386,
            -0.07595926523208618,
            -0.13118299841880798,
            0.06279084086418152,
            0.3739846646785736,
            -0.007192515768110752,
            0.5596281290054321,
            0.1319141536951065,
            -0.2454223483800888,
            -0.1950044184923172,
            0.21062850952148438,
            0.17811906337738037,
            -0.027713226154446602,
            -0.2985195219516754,
            0.32422900199890137,
            -0.04494688659906387,
            -0.3858218789100647,
            -0.35910680890083313,
            -0.3432895243167877,
            -0.0688958391547203,
            -0.0335095040500164,
            0.00927810464054346,
            -0.1308133453130722,
            -0.28686827421188354,
            -0.03163616359233856,
            0.025960648432374,
            0.10195138305425644
        ],
        [
            -0.20185191929340363,
            -0.02499968931078911,
            0.005859702825546265,
            0.07722386717796326,
            0.04931603744626045,
            0.16610614955425262,
            0.059663496911525726,
            0.08085636794567108,
            0.18046219646930695,
            -0.2077205330133438,
            -0.14555710554122925,
            0.04708646982908249,
            0.24643173813819885,
            0.11757392436265945,
            -0.02944709174335003,
            0.21812674403190613,
            0.1672685593366623,
            -0.02434242144227028,
            -0.27535849809646606,
            -0.1495966911315918,
            -0.0997517853975296,
            0.061432208865880966,
            -0.37527039647102356,
            0.23739825189113617,
            0.016678467392921448,
            -0.010867971926927567,
            -0.026393288746476173,
            0.0998927503824234,
            -0.2819184958934784,
            -0.4018065333366394,
            0.31760168075561523,
            0.1844196319580078,
            0.14759880304336548,
            -0.2029944509267807,
            0.01608646847307682,
            0.12782350182533264,
            -0.41177093982696533,
            0.12716268002986908,
            -0.21620845794677734,
            -0.042994629591703415,
            -0.1356600522994995,
            0.18942682445049286,
            0.06523057818412781,
            -0.026014363393187523,
            0.2204335778951645,
            0.0022998368367552757,
            -0.2835118770599365,
            -0.03992219641804695,
            0.12709379196166992,
            -0.19260482490062714,
            0.34813809394836426,
            0.3546174168586731,
            -0.3347304165363312,
            -0.039102643728256226,
            0.16527526080608368,
            -0.2136305868625641,
            0.3691832423210144,
            -0.1907072812318802,
            0.34257709980010986,
            0.06592845916748047
        ],
        [
            0.2659282982349396,
            0.005037050694227219,
            0.10081402212381363,
            0.3575114607810974,
            0.03406785428524017,
            0.3518002927303314,
            0.12639471888542175,
            -0.19061468541622162,
            -0.015846258029341698,
            0.36600056290626526,
            0.02452618069946766,
            -0.2749171555042267,
            -0.22018557786941528,
            -0.0362427793443203,
            -0.08497361093759537,
            0.05405917763710022,
            -0.1704166680574417,
            -0.05207424610853195,
            0.26645755767822266,
            0.22359803318977356,
            -0.16132351756095886,
            -0.0420088954269886,
            -0.26487869024276733,
            0.16607019305229187,
            -0.25940564274787903,
            -0.03125099837779999,
            -0.13757742941379547,
            0.2375401109457016,
            -0.18039532005786896,
            0.034220192581415176,
            -0.06663739681243896,
            -0.04851791262626648,
            -0.11983823776245117,
            0.135933056473732,
            0.07934285700321198,
            -0.8005845546722412,
            -0.06647275388240814,
            0.34219953417778015,
            0.033182598650455475,
            0.20413634181022644,
            -0.07056281715631485,
            0.16727092862129211,
            -0.08398622274398804,
            0.0609864667057991,
            0.23036354780197144,
            -0.06735904514789581,
            -0.06419088691473007,
            -0.07391767203807831,
            0.19022662937641144,
            -0.046691544353961945,
            0.0688483938574791,
            0.07151471078395844,
            0.2524488568305969,
            0.01562919095158577,
            0.0697295069694519,
            0.10761839896440506,
            0.24430200457572937,
            -0.09240931272506714,
            -0.3188021779060364,
            -0.1446068286895752
        ],
        [
            0.03225896507501602,
            0.23539039492607117,
            0.028029201552271843,
            -0.1678190976381302,
            0.10387824475765228,
            -0.3867833912372589,
            0.05594051256775856,
            -0.1768929362297058,
            -0.09534373879432678,
            0.13613899052143097,
            -0.15948012471199036,
            -0.044333986937999725,
            0.11847617477178574,
            -0.3579523265361786,
            -0.4024714231491089,
            -0.13931334018707275,
            -0.05329739674925804,
            -0.34407860040664673,
            0.1816113293170929,
            -0.11251300573348999,
            0.2571244537830353,
            -0.2541212737560272,
            -0.016857802867889404,
            0.11265725642442703,
            -0.10761868953704834,
            -0.23605450987815857,
            0.2388572096824646,
            0.14821451902389526,
            -0.10909317433834076,
            -0.017649518325924873,
            -0.06836262345314026,
            0.37215912342071533,
            -0.05197081342339516,
            0.40231403708457947,
            0.002050283132120967,
            -0.1502312272787094,
            -0.1459127515554428,
            -0.07966699451208115,
            0.13964587450027466,
            -0.15255886316299438,
            -0.31748610734939575,
            -0.09288999438285828,
            0.06171174719929695,
            -0.009304068051278591,
            0.057825446128845215,
            0.1346317082643509,
            0.15473000705242157,
            -0.08721569180488586,
            0.24806293845176697,
            -0.013587415218353271,
            -0.09581121802330017,
            0.19195489585399628,
            0.41626226902008057,
            0.4695141315460205,
            -0.09564001113176346,
            0.3490905165672302,
            -0.002429700456559658,
            0.3415943384170532,
            0.0787414014339447,
            -0.038703255355358124
        ],
        [
            -0.18858695030212402,
            -0.21804025769233704,
            0.15483246743679047,
            0.1328272670507431,
            -0.22123482823371887,
            0.13621510565280914,
            -0.07781333476305008,
            -0.020149745047092438,
            0.11818842589855194,
            0.38059863448143005,
            0.03558708727359772,
            -0.4908459484577179,
            0.4633388817310333,
            0.31844982504844666,
            0.2530338764190674,
            -0.07912057638168335,
            0.1534574031829834,
            -0.04971982538700104,
            0.07190430164337158,
            -0.22903986275196075,
            -0.19724705815315247,
            0.12999770045280457,
            -0.2593144178390503,
            0.1616532802581787,
            -0.11196484416723251,
            0.2765238583087921,
            -0.07671952247619629,
            -0.12587998807430267,
            -0.201409250497818,
            -0.3595791459083557,
            0.15561173856258392,
            -0.032876212149858475,
            0.47252127528190613,
            0.2014525681734085,
            -0.18390409648418427,
            0.1729666143655777,
            0.42039740085601807,
            0.19751322269439697,
            0.3623582720756531,
            0.12319181114435196,
            0.32292360067367554,
            0.19974201917648315,
            0.02353975735604763,
            -0.23768486082553864,
            -0.02305527962744236,
            0.27151650190353394,
            0.16662554442882538,
            0.32296454906463623,
            -0.0865161269903183,
            0.046536635607481,
            0.3262001574039459,
            -0.05722777917981148,
            -0.21434831619262695,
            0.1866031438112259,
            -0.005199451465159655,
            -0.281904399394989,
            -0.1446373015642166,
            0.42044946551322937,
            0.1202627569437027,
            0.0479426234960556
        ],
        [
            -0.18318584561347961,
            -0.02999192848801613,
            0.10769924521446228,
            -0.13228769600391388,
            0.45833244919776917,
            0.15490703284740448,
            0.0763225257396698,
            0.10837728530168533,
            -0.40170925855636597,
            -0.31152334809303284,
            0.1239551454782486,
            0.024993348866701126,
            -0.2295091450214386,
            -0.1753171980381012,
            0.1597917526960373,
            -0.10484010726213455,
            0.2127513438463211,
            -0.3071763217449188,
            0.3504389524459839,
            0.20366542041301727,
            -0.04048170521855354,
            -0.006143101491034031,
            0.11289161443710327,
            0.21255207061767578,
            -0.20143923163414001,
            -0.10799960047006607,
            -0.023989085108041763,
            0.3599570095539093,
            -0.2101651132106781,
            0.06005910038948059,
            0.057214803993701935,
            -0.03535553440451622,
            0.17022597789764404,
            0.13529354333877563,
            -0.25655266642570496,
            -0.08591364324092865,
            -0.18697012960910797,
            0.23851817846298218,
            -0.20620906352996826,
            -0.2774461805820465,
            0.36074015498161316,
            0.3036077320575714,
            0.027148408815264702,
            0.32913416624069214,
            -0.016880057752132416,
            -0.018009070307016373,
            0.0720517635345459,
            -0.1491028517484665,
            0.35507553815841675,
            0.07043660432100296,
            0.09789800643920898,
            -0.025077030062675476,
            0.14205262064933777,
            0.08702169358730316,
            0.12695461511611938,
            -0.06429636478424072,
            0.07718510180711746,
            -0.08647289872169495,
            0.11636746674776077,
            0.5518534779548645
        ],
        [
            -0.13161690533161163,
            0.06845637410879135,
            0.14929261803627014,
            -0.1678989678621292,
            0.22688809037208557,
            0.11747732758522034,
            0.06415519118309021,
            0.13832782208919525,
            -0.016150830313563347,
            -0.20712235569953918,
            0.4725930988788605,
            -0.0890328586101532,
            0.027751071378588676,
            -0.021893521770834923,
            -0.06197446212172508,
            0.12924011051654816,
            0.36034324765205383,
            -0.2053079456090927,
            -0.2678406238555908,
            -0.2721419334411621,
            -0.2031591385602951,
            -0.1470497101545334,
            0.08204104751348495,
            -0.012300508096814156,
            0.19562937319278717,
            0.10885390639305115,
            0.1373966783285141,
            -0.30458787083625793,
            0.08155012875795364,
            0.24827462434768677,
            0.6010708212852478,
            0.17441107332706451,
            -0.2755800187587738,
            0.15998241305351257,
            0.2450929433107376,
            -0.2744106352329254,
            0.30568188428878784,
            0.3419417440891266,
            -0.18901044130325317,
            0.32288214564323425,
            -0.3273915946483612,
            0.06736060976982117,
            -0.3291444480419159,
            -0.1723979115486145,
            -0.030264191329479218,
            -0.31079208850860596,
            0.34824565052986145,
            -0.1533406525850296,
            0.0769743025302887,
            0.02271442860364914,
            0.34215450286865234,
            -0.4085095226764679,
            -0.16802853345870972,
            0.283684641122818,
            0.36169856786727905,
            -0.05447155237197876,
            0.3873975872993469,
            -0.09582682698965073,
            0.2127806693315506,
            0.41348597407341003
        ],
        [
            0.2196943163871765,
            -0.2463003396987915,
            -0.07192534953355789,
            -0.09693880379199982,
            0.24688875675201416,
            0.06464442610740662,
            0.16144567728042603,
            -0.009680833667516708,
            0.48152899742126465,
            0.21135671436786652,
            0.02049560286104679,
            0.04376218095421791,
            0.1853499412536621,
            0.15350580215454102,
            -0.12835323810577393,
            -0.11632559448480606,
            0.11005014181137085,
            0.16521023213863373,
            -0.31395387649536133,
            0.18760712444782257,
            -0.08622484654188156,
            -0.004537415225058794,
            -0.019041242077946663,
            -0.03231831640005112,
            0.20393016934394836,
            0.3115270733833313,
            0.020183460786938667,
            -0.04822013899683952,
            0.11628787219524384,
            0.1119723692536354,
            -0.22640672326087952,
            0.1681116819381714,
            -0.15335246920585632,
            0.331859290599823,
            -0.0986308678984642,
            -0.0816332995891571,
            0.145769864320755,
            -0.12804943323135376,
            -0.058120399713516235,
            0.3910810947418213,
            -0.15584717690944672,
            0.26897159218788147,
            0.30251216888427734,
            -0.21078380942344666,
            0.0683264508843422,
            0.21186001598834991,
            0.10296234488487244,
            0.2802482843399048,
            0.17478246986865997,
            -0.21704216301441193,
            -0.0073415497317910194,
            -0.557066798210144,
            -0.03413230925798416,
            -0.18179501593112946,
            -0.13184063136577606,
            0.1258286088705063,
            0.17392098903656006,
            0.3056780993938446,
            0.22837191820144653,
            0.10350004583597183
        ],
        [
            0.14627839624881744,
            0.07834440469741821,
            -0.0995730385184288,
            0.18488198518753052,
            0.11849088966846466,
            0.03024149127304554,
            0.08459163457155228,
            0.40557801723480225,
            0.19402727484703064,
            0.06007080152630806,
            0.29613757133483887,
            -0.09859292209148407,
            -0.004529627505689859,
            0.3432989716529846,
            -0.19870905578136444,
            -0.06512373685836792,
            -0.2145744413137436,
            0.13483627140522003,
            -0.7514877319335938,
            -0.20245549082756042,
            0.18483269214630127,
            0.01578724943101406,
            0.2102052867412567,
            -0.15322774648666382,
            0.21245789527893066,
            0.08050467073917389,
            -0.24423247575759888,
            -0.15379412472248077,
            0.08302109688520432,
            -0.38539597392082214,
            -0.18623991310596466,
            -0.19816072285175323,
            0.19621717929840088,
            -0.09063930809497833,
            -0.12128365784883499,
            -0.01757783815264702,
            0.33996278047561646,
            -0.13200408220291138,
            0.2663643956184387,
            0.04379313066601753,
            -0.09667579084634781,
            0.12147297710180283,
            0.01596546173095703,
            -0.06262511014938354,
            -0.19749055802822113,
            0.08669739216566086,
            0.12525373697280884,
            0.35520651936531067,
            -0.46180444955825806,
            0.09129765629768372,
            0.29103127121925354,
            0.05412996932864189,
            -0.00427384115755558,
            0.0641503632068634,
            0.45905745029449463,
            -0.054447729140520096,
            0.6599559187889099,
            0.3404797911643982,
            0.000897715101018548,
            0.003592872992157936
        ],
        [
            0.15121591091156006,
            0.09427743405103683,
            -0.008019847795367241,
            -0.01343220379203558,
            0.11594901978969574,
            0.2695547044277191,
            0.016623979434370995,
            0.5063180327415466,
            -0.20731979608535767,
            -0.24755243957042694,
            -0.05156683921813965,
            -0.07683850824832916,
            0.10290946066379547,
            -0.12846370041370392,
            -0.3104681074619293,
            -0.09012693166732788,
            -0.09391560405492783,
            -0.11662798374891281,
            -0.2779780924320221,
            -0.04314041510224342,
            -0.038178883492946625,
            0.11417090892791748,
            -0.19735513627529144,
            0.08333733677864075,
            -0.18861734867095947,
            0.21094149351119995,
            0.08844400197267532,
            0.23028700053691864,
            -0.3699329197406769,
            -0.2514455318450928,
            -0.24170778691768646,
            0.007338063791394234,
            -0.17078500986099243,
            0.2472846657037735,
            0.06729696691036224,
            0.20836372673511505,
            0.10608033835887909,
            -0.21284157037734985,
            0.2707337439060211,
            0.1404573917388916,
            -0.3753061890602112,
            0.12215377390384674,
            -0.16796277463436127,
            -0.29515349864959717,
            0.22936826944351196,
            -0.044655390083789825,
            0.042456790804862976,
            0.06454989314079285,
            -0.11866847425699234,
            -0.022630389779806137,
            0.127303808927536,
            -0.26829689741134644,
            -0.01455686241388321,
            0.016301902011036873,
            -0.1444968581199646,
            0.08934137225151062,
            -0.15191304683685303,
            0.2937908172607422,
            0.3311782777309418,
            -0.16560594737529755
        ],
        [
            -0.17631614208221436,
            0.12166623026132584,
            0.017001178115606308,
            -0.027307122945785522,
            -0.13811896741390228,
            0.03700146824121475,
            0.04989411309361458,
            0.04587078094482422,
            -0.04272722080349922,
            -0.08146104961633682,
            0.01778050698339939,
            0.2788045406341553,
            0.17410485446453094,
            -0.09088388085365295,
            0.025251194834709167,
            -0.184427410364151,
            0.17472295463085175,
            0.15185430645942688,
            0.013654405251145363,
            -0.24599170684814453,
            0.07379191368818283,
            0.21296803653240204,
            0.2152162790298462,
            0.12483860552310944,
            -0.22682587802410126,
            0.026904219761490822,
            -0.059330910444259644,
            -0.08111216872930527,
            0.2483697384595871,
            0.049240853637456894,
            -0.010076147504150867,
            0.1653621792793274,
            0.1797076314687729,
            -0.07525695860385895,
            -0.00511217350140214,
            -0.045567311346530914,
            0.005078969523310661,
            -0.2886525094509125,
            -0.03242969885468483,
            0.30982762575149536,
            -0.4888511300086975,
            0.05706961825489998,
            0.04572523757815361,
            0.16400249302387238,
            -0.22436098754405975,
            0.0554816909134388,
            0.11646571010351181,
            0.2016434222459793,
            0.12809979915618896,
            -0.2475457340478897,
            0.23565466701984406,
            0.22668127715587616,
            -0.3099263906478882,
            0.21832667291164398,
            -0.20308507978916168,
            0.17653897404670715,
            -0.2216508537530899,
            -0.28534960746765137,
            -0.10131756216287613,
            -0.11229414492845535
        ],
        [
            0.009418795816600323,
            0.09038352221250534,
            -0.2125089168548584,
            -0.16259177029132843,
            -0.09411855041980743,
            -0.2457616627216339,
            0.34226712584495544,
            -0.30888330936431885,
            -0.3529084324836731,
            0.08772636950016022,
            -0.07113926112651825,
            0.21963994204998016,
            -0.1822919100522995,
            -0.16117221117019653,
            0.048529624938964844,
            -0.03199630230665207,
            -0.23141834139823914,
            -0.17784008383750916,
            -0.022352220490574837,
            0.11406059563159943,
            0.17828385531902313,
            -0.10410504043102264,
            0.015968235209584236,
            -0.11543332040309906,
            0.33569052815437317,
            -0.328448086977005,
            -0.09191440790891647,
            0.30404776334762573,
            0.5090740919113159,
            -0.10990964621305466,
            -0.6285001039505005,
            0.10604003816843033,
            0.23549287021160126,
            -0.2296740561723709,
            0.13772204518318176,
            0.2794344127178192,
            0.23612874746322632,
            0.20068465173244476,
            0.4016205966472626,
            0.32798755168914795,
            0.3807283341884613,
            -0.29911455512046814,
            0.002837926149368286,
            -0.17865115404129028,
            -0.08933430165052414,
            0.07323342561721802,
            0.22006076574325562,
            0.050387896597385406,
            -0.39397871494293213,
            0.2188316285610199,
            -0.40571755170822144,
            0.05039851740002632,
            -0.33408042788505554,
            0.02014964632689953,
            0.12077997624874115,
            0.11470551788806915,
            0.4691971242427826,
            -0.32959702610969543,
            -0.18883812427520752,
            -0.1713561862707138
        ],
        [
            0.28317534923553467,
            0.12759709358215332,
            -0.07029837369918823,
            0.029455218464136124,
            0.22044409811496735,
            0.27112212777137756,
            -0.16574284434318542,
            -0.09248717129230499,
            0.22710123658180237,
            -0.1755179911851883,
            0.02429329603910446,
            -0.10605019330978394,
            -0.03383182734251022,
            0.11380869895219803,
            -0.20146803557872772,
            0.3020485043525696,
            0.07392231374979019,
            0.14200621843338013,
            -0.01679469458758831,
            -0.2851165533065796,
            0.2810036540031433,
            0.036633215844631195,
            -0.23654022812843323,
            -0.05174359679222107,
            -0.3619290888309479,
            -0.14458006620407104,
            -0.019730592146515846,
            0.17835181951522827,
            -0.08292190730571747,
            -0.031741913408041,
            0.1590951383113861,
            0.0256050918251276,
            -0.1453247368335724,
            -0.11920328438282013,
            0.012555422261357307,
            -0.20415259897708893,
            -0.2836853265762329,
            0.09950093924999237,
            -0.29749342799186707,
            -0.22383636236190796,
            0.03833085671067238,
            0.18678893148899078,
            -0.005139782093465328,
            0.38747668266296387,
            0.1464209109544754,
            0.2360660880804062,
            0.1490417718887329,
            0.09566719084978104,
            0.00031724281143397093,
            -0.12705254554748535,
            0.13255155086517334,
            -0.1582263559103012,
            -0.2157207578420639,
            0.23372600972652435,
            -0.054680902510881424,
            0.0004930354189127684,
            0.2807195782661438,
            0.18316112458705902,
            -0.07948440313339233,
            0.07889099419116974
        ],
        [
            0.266808420419693,
            0.14653940498828888,
            0.2513164281845093,
            -0.6403229832649231,
            -0.00876474566757679,
            0.2570587396621704,
            0.04509127140045166,
            0.3043306767940521,
            -0.1766682118177414,
            0.18266823887825012,
            -0.05914073437452316,
            0.009291362948715687,
            0.09599730372428894,
            0.18105784058570862,
            0.06847070902585983,
            -0.08829635381698608,
            -0.139404758810997,
            -0.09009259194135666,
            0.11021342873573303,
            0.10938572138547897,
            -0.0038042347878217697,
            -0.0005804718239232898,
            -0.10168632864952087,
            -0.02831421047449112,
            0.2502617835998535,
            0.1723317950963974,
            -0.23501287400722504,
            0.06262851506471634,
            0.3750001788139343,
            0.0664047971367836,
            -0.1391669064760208,
            -0.25899311900138855,
            -0.3108760416507721,
            -0.10654178261756897,
            -0.30174487829208374,
            0.19677972793579102,
            -0.11886277794837952,
            -0.2726704478263855,
            -0.07378613948822021,
            0.16019651293754578,
            0.14057816565036774,
            -0.0008587540360167623,
            0.11139131337404251,
            0.29053229093551636,
            -0.17592154443264008,
            0.11926455050706863,
            0.22030921280384064,
            0.07377618551254272,
            0.25214099884033203,
            -0.012722313404083252,
            0.15085822343826294,
            0.36826765537261963,
            -0.13906627893447876,
            -0.01942659541964531,
            0.03987463191151619,
            0.3296124041080475,
            0.07572128623723984,
            -0.2582848370075226,
            -0.2141060084104538,
            0.24319526553153992
        ],
        [
            0.3134145438671112,
            -0.059878237545490265,
            -0.05801613628864288,
            0.013571424409747124,
            0.29683905839920044,
            -0.3028031885623932,
            -0.08539136499166489,
            -0.13188636302947998,
            -0.02424285002052784,
            0.06866494566202164,
            -0.23412871360778809,
            0.06445028632879257,
            -0.2956242561340332,
            -0.06079535931348801,
            0.1718318611383438,
            0.17413896322250366,
            -0.09077129513025284,
            0.034646354615688324,
            0.11625334620475769,
            0.15694715082645416,
            0.0325203463435173,
            -0.2837841212749481,
            0.08425397425889969,
            0.2217191755771637,
            0.21563205122947693,
            0.19682399928569794,
            0.5075451731681824,
            -0.11311735957860947,
            0.124350905418396,
            0.27082082629203796,
            -0.2277481108903885,
            0.355607807636261,
            0.15625770390033722,
            -0.036990150809288025,
            -0.17011547088623047,
            -0.0684194564819336,
            -0.14816761016845703,
            -0.03822186589241028,
            -0.25846076011657715,
            -0.07189901918172836,
            0.028982261195778847,
            0.0017319920007139444,
            -0.1374981701374054,
            -0.11804801970720291,
            -0.36434832215309143,
            -0.27739155292510986,
            -0.019218316301703453,
            -0.275499165058136,
            -0.09506506472826004,
            -0.3166165351867676,
            -0.17017237842082977,
            0.34453779458999634,
            -0.4667264521121979,
            -0.07374431192874908,
            -0.05284542962908745,
            0.005119224078953266,
            -0.17946620285511017,
            -0.023575449362397194,
            -0.16222357749938965,
            0.312213659286499
        ],
        [
            -0.08346639573574066,
            0.040994033217430115,
            -0.1630549430847168,
            0.017753956839442253,
            -0.02038145251572132,
            0.20485758781433105,
            -0.0761871263384819,
            -0.05216411128640175,
            -0.3236731290817261,
            -0.03684582561254501,
            -0.30970433354377747,
            -0.13768230378627777,
            -0.32177671790122986,
            0.05948048084974289,
            -0.1672315150499344,
            -0.008798985742032528,
            -0.08443300426006317,
            -0.05378881096839905,
            -0.20296531915664673,
            0.3064746558666229,
            -0.21145156025886536,
            -0.054223399609327316,
            -0.05370442196726799,
            0.13113680481910706,
            -0.0018849269254133105,
            0.31361842155456543,
            -0.46181246638298035,
            -0.2137146145105362,
            0.024448100477457047,
            0.15154322981834412,
            -0.12703338265419006,
            0.11025749891996384,
            -0.10453331470489502,
            0.02359866164624691,
            0.23942944407463074,
            -0.09080279618501663,
            0.011231383308768272,
            -0.06702379882335663,
            -0.11081479489803314,
            0.06536255031824112,
            0.12764373421669006,
            0.016540642827749252,
            -0.24007868766784668,
            0.07145446538925171,
            -0.042286451905965805,
            0.13618654012680054,
            0.27928626537323,
            0.0393400564789772,
            0.18465781211853027,
            -0.03168604522943497,
            -0.14999744296073914,
            0.11265997588634491,
            -0.26425501704216003,
            -0.1249392181634903,
            -0.026506707072257996,
            -0.17459236085414886,
            0.07640232890844345,
            -0.1671961545944214,
            -0.2429962009191513,
            0.08214636892080307
        ],
        [
            -0.0624685101211071,
            0.0888238325715065,
            0.01637982949614525,
            0.40500789880752563,
            0.15062154829502106,
            -0.008253597654402256,
            -0.06964384764432907,
            0.032672226428985596,
            -0.019106140360236168,
            -0.06456180661916733,
            0.1660921275615692,
            -0.035206254571676254,
            -0.030162759125232697,
            -0.10980091243982315,
            -0.1572951078414917,
            -0.28258776664733887,
            -0.30598509311676025,
            -0.03414250165224075,
            0.0858243927359581,
            -0.37045755982398987,
            0.057928021997213364,
            -0.14416304230690002,
            0.023956216871738434,
            -0.05044303834438324,
            0.1516142040491104,
            0.12518280744552612,
            0.195931077003479,
            0.15956759452819824,
            -0.261320024728775,
            -0.1589321345090866,
            0.02984730713069439,
            -0.056092001497745514,
            -0.3723984658718109,
            -0.18669529259204865,
            0.24675090610980988,
            0.0644049122929573,
            0.21283294260501862,
            0.13618595898151398,
            0.0631093978881836,
            0.1378280520439148,
            0.0019671551417559385,
            -0.30783966183662415,
            -0.09110046178102493,
            -0.4746919870376587,
            0.07624984532594681,
            -0.6041289567947388,
            -0.10554857552051544,
            -0.11262083053588867,
            -0.12399735301733017,
            -0.022563060745596886,
            0.06389004737138748,
            0.07664263248443604,
            0.11874358355998993,
            -0.08657466620206833,
            -0.3782621920108795,
            -0.2547494173049927,
            -0.08804886043071747,
            0.03797314688563347,
            0.0060487473383545876,
            -0.4818197786808014
        ],
        [
            -0.30812349915504456,
            -0.029284674674272537,
            -0.11506805568933487,
            -0.19528082013130188,
            0.11051671206951141,
            -0.29067307710647583,
            0.4437234103679657,
            -0.08813002705574036,
            0.00865199975669384,
            0.2933168411254883,
            0.254300981760025,
            -0.17466329038143158,
            -0.24802882969379425,
            0.04251269996166229,
            0.09941066801548004,
            0.07843800634145737,
            0.06396335363388062,
            0.5834285020828247,
            -0.0578654520213604,
            0.1872996836900711,
            0.28562676906585693,
            -0.041866715997457504,
            0.2604808807373047,
            -0.25262826681137085,
            0.21942898631095886,
            -0.09368251264095306,
            0.11118638515472412,
            -0.1424533724784851,
            0.02415117248892784,
            0.1859908550977707,
            -0.02338957041501999,
            -0.10763629525899887,
            -0.48721620440483093,
            0.3760783076286316,
            0.12138724327087402,
            -0.2146523892879486,
            0.027126235887408257,
            -0.3157685697078705,
            -0.18626202642917633,
            -0.3405154347419739,
            0.04352046176791191,
            -0.209927499294281,
            -0.06820937246084213,
            0.18362466990947723,
            -0.07863613963127136,
            0.027686575427651405,
            -0.050071459263563156,
            -0.14218296110630035,
            0.009051039814949036,
            -0.16347183287143707,
            -0.06823082268238068,
            0.12809789180755615,
            -0.28536760807037354,
            0.16229720413684845,
            -0.09869322925806046,
            -0.06565915793180466,
            0.2552506923675537,
            0.04728749021887779,
            -0.006361427716910839,
            0.07138102501630783
        ],
        [
            0.272164523601532,
            -0.24963200092315674,
            -0.130049929022789,
            0.049902234226465225,
            -0.07328277081251144,
            0.12437935918569565,
            -0.09560183435678482,
            -0.12581558525562286,
            -0.02371586672961712,
            -0.30204564332962036,
            -0.11217856407165527,
            -0.1863204687833786,
            0.25917571783065796,
            -0.2909775376319885,
            0.06099759042263031,
            -0.3102298974990845,
            -0.15533915162086487,
            -0.20974817872047424,
            -0.45431479811668396,
            -0.09420972317457199,
            0.18759547173976898,
            -0.08124888688325882,
            -0.08500330150127411,
            0.028392059728503227,
            -0.18222731351852417,
            0.06621116399765015,
            -0.027821578085422516,
            0.32620304822921753,
            -0.013327615335583687,
            0.1719478964805603,
            0.029178084805607796,
            -0.061444442719221115,
            0.2013491690158844,
            -0.24245685338974,
            -0.14304976165294647,
            0.018838541582226753,
            -0.14183323085308075,
            0.2806645631790161,
            -0.07665935903787613,
            0.06353472173213959,
            0.007265069987624884,
            0.04146023839712143,
            0.1392977088689804,
            -0.19287821650505066,
            0.20043087005615234,
            -0.036328863352537155,
            0.00330520560964942,
            -0.21202567219734192,
            -0.5313217639923096,
            -0.40952426195144653,
            -0.2445228546857834,
            0.08954456448554993,
            0.02497706189751625,
            -0.3413383364677429,
            -0.11471709609031677,
            0.1119399145245552,
            0.057578880339860916,
            -0.00026562888524495065,
            0.03378894180059433,
            0.0793394148349762
        ],
        [
            0.16422338783740997,
            0.2291274070739746,
            0.07650230079889297,
            0.01312307920306921,
            -0.1120087131857872,
            -0.038329120725393295,
            0.08283489942550659,
            -0.2074870765209198,
            -0.11562097817659378,
            -0.21875905990600586,
            -0.12659262120723724,
            -0.33165907859802246,
            -0.006427155341953039,
            -0.008999277837574482,
            -0.03318468853831291,
            -0.16641750931739807,
            0.3047473132610321,
            -0.4422796368598938,
            0.03071925789117813,
            0.022174494341015816,
            0.432681679725647,
            0.022976994514465332,
            0.2065228819847107,
            0.16171912848949432,
            0.10628427565097809,
            0.1586541086435318,
            0.10691028088331223,
            0.06940199434757233,
            0.13234031200408936,
            0.09429345279932022,
            0.1815243661403656,
            0.06799963116645813,
            0.219879612326622,
            0.14449810981750488,
            0.04639881104230881,
            0.2868634760379791,
            0.04173515364527702,
            0.13979190587997437,
            -0.12522970139980316,
            -0.020139798521995544,
            0.27283376455307007,
            -0.17805007100105286,
            0.20414690673351288,
            -0.08717546612024307,
            0.2825431823730469,
            -0.16712915897369385,
            -0.08601852506399155,
            0.012633908540010452,
            0.2918953001499176,
            0.34281131625175476,
            -0.017137965187430382,
            -0.07630009204149246,
            0.000584100722335279,
            -0.3788950443267822,
            0.07406715303659439,
            -0.24863691627979279,
            0.2714827358722687,
            0.01784052513539791,
            -0.037801288068294525,
            0.12782447040081024
        ]
    ],
    "net_a_fc3_bias": [
        0.04571907967329025,
        0.09349490702152252,
        -0.007860559970140457,
        -0.0670611783862114,
        -0.05751263350248337
    ],
    "net_a_fc3_weight": [
        [
            0.0284980908036232,
            -0.08131802082061768,
            0.058165378868579865,
            -0.1016998291015625,
            0.43218886852264404,
            0.1036466434597969,
            -0.05580342933535576,
            -0.6324363350868225,
            -0.1576191782951355,
            0.215870201587677,
            -0.5605762004852295,
            -0.0966874286532402,
            -0.2695925831794739,
            0.0899825468659401,
            0.18012097477912903,
            0.26247164607048035,
            -0.38975414633750916,
            0.10341930389404297,
            0.5203543901443481,
            0.14828120172023773,
            -0.09089934080839157,
            -0.26585862040519714,
            -0.14634424448013306,
            0.39435380697250366
        ],
        [
            -0.5488873720169067,
            0.4697486460208893,
            -0.27248701453208923,
            0.20200008153915405,
            0.2313675880432129,
            -0.2602778673171997,
            -0.154744490981102,
            -0.4697868824005127,
            0.33569100499153137,
            0.05206689611077309,
            -0.1532525271177292,
            -0.34071314334869385,
            0.19111081957817078,
            -0.33111733198165894,
            0.054134469479322433,
            0.13976553082466125,
            -0.07285750657320023,
            0.24484047293663025,
            -0.05835939571261406,
            -0.26088473200798035,
            -0.3819828927516937,
            0.30658799409866333,
            0.3100370168685913,
            0.10792745649814606
        ],
        [
            -0.5319459438323975,
            0.12557320296764374,
            0.057966433465480804,
            -0.07516667246818542,
            -0.2901654541492462,
            -0.054178133606910706,
            0.04463901370763779,
            -0.42681169509887695,
            0.01955758035182953,
            0.20200754702091217,
            0.49881526827812195,
            0.014451338909566402,
            0.09405800700187683,
            0.0023121109697967768,
            -0.07955621927976608,
            0.37005865573883057,
            -0.21627217531204224,
            0.08796504884958267,
            -0.18450425565242767,
            0.2855543792247772,
            -0.03422209247946739,
            0.2461070418357849,
            0.1422000527381897,
            -0.24683113396167755
        ],
        [
            -0.6511072516441345,
            0.18086926639080048,
            0.5333976149559021,
            -0.2597949504852295,
            0.32356229424476624,
            0.1928660273551941,
            0.5241617560386658,
            -0.7096388936042786,
            -0.23751825094223022,
            -0.37561991810798645,
            -0.09821560978889465,
            -0.42488768696784973,
            0.1601865142583847,
            0.7810972332954407,
            0.2753222584724426,
            -0.3180962800979614,
            0.16557979583740234,
            -0.2851543724536896,
            -0.4611845016479492,
            -0.09952430427074432,
            0.30095624923706055,
            -0.18215593695640564,
            -0.23769883811473846,
            -0.1942427009344101
        ],
        [
            0.1769988238811493,
            -0.06925142556428909,
            0.2988922894001007,
            -0.19735300540924072,
            -0.4451441466808319,
            0.6293742060661316,
            -0.1602436751127243,
            -0.2971743941307068,
            0.2832416296005249,
            -0.44495585560798645,
            0.05888642743229866,
            0.5045446157455444,
            0.1881164163351059,
            0.10102341324090958,
            0.03586357459425926,
            -0.20037980377674103,
            0.3938412368297577,
            0.42062076926231384,
            0.07742023468017578,
            -0.1461004614830017,
            -0.4284280240535736,
            -0.44388508796691895,
            -0.2618506848812103,
            -0.2395622432231903
        ]
    ],
    "net_b_fc1_bias": [
        -0.0708133652806282,
        -0.04467086121439934,
        -0.05623485520482063,
        -0.03896813839673996,
        -0.1025616005063057,
        0.040164027363061905,
        0.051135409623384476,
        0.061224181205034256,
        -0.06658077985048294,
        0.127329483628273,
        -0.10442481935024261,
        -0.006167985033243895,
        0.0533662810921669,
        0.03341798111796379,
        0.05770143121480942,
        0.009959751740098,
        -0.09938396513462067,
        -0.07384925335645676,
        -0.07701057195663452,
        0.036881837993860245,
        -0.05188295617699623,
        0.06394407153129578,
        -0.09177990257740021,
        0.02167610079050064,
        0.04601152613759041
    ],
    "net_b_fc1_weight": [
        [
            0.2671829164028168,
            -0.8844796419143677,
            -0.0034736229572445154,
            0.7725886702537537,
            0.9207730889320374
        ],
        [
            -0.8686177134513855,
            -0.42975324392318726,
            0.2655044496059418,
            -0.10084757208824158,
            -0.8913782238960266
        ],
        [
            -0.40923479199409485,
            -0.39181944727897644,
            1.1226212978363037,
            0.7877035140991211,
            0.28064554929733276
        ],
        [
            -0.5116739869117737,
            -0.42853689193725586,
            -0.2578078806400299,
            1.2161887884140015,
            0.17991533875465393
        ],
        [
            0.08478256314992905,
            -0.3605351150035858,
            -0.2505928575992584,
            0.4036673307418823,
            0.005713633261620998
        ],
        [
            -0.5393156409263611,
            0.2462831288576126,
            0.8251962065696716,
            0.25694209337234497,
            -0.6165409684181213
        ],
        [
            -0.4352107644081116,
            0.27022936940193176,
            0.8732938170433044,
            0.383709579706192,
            0.7942406535148621
        ],
        [
            -0.2267700731754303,
            -0.7566789984703064,
            0.6314463019371033,
            -0.29068049788475037,
            -0.01826980710029602
        ],
        [
            -0.5509819984436035,
            -0.8468918204307556,
            0.4183396100997925,
            0.6417647004127502,
            0.7371355295181274
        ],
        [
            -0.01859896071255207,
            0.2795269787311554,
            0.662726879119873,
            1.2033426761627197,
            -1.1000491380691528
        ],
        [
            -0.15892088413238525,
            -0.21758587658405304,
            0.11970582604408264,
            -0.18227140605449677,
            0.8767150044441223
        ],
        [
            -0.2457696497440338,
            1.229693055152893,
            1.3769519329071045,
            0.021324748173356056,
            0.39123237133026123
        ],
        [
            0.8086046576499939,
            0.5645998120307922,
            -0.7258504629135132,
            -0.04848609119653702,
            1.2862035036087036
        ],
        [
            -0.36883166432380676,
            0.7328617572784424,
            -0.6042491793632507,
            0.23187655210494995,
            0.7874270081520081
        ],
        [
            -0.7755888104438782,
            -1.366019368171692,
            0.7881332635879517,
            0.2410334050655365,
            -0.03810948505997658
        ],
        [
            -0.3888998329639435,
            1.5006955862045288,
            -0.39255502820014954,
            -0.8543269634246826,
            0.46915119886398315
        ],
        [
            -0.43144890666007996,
            -0.25141793489456177,
            -0.9044017791748047,
            0.2802618145942688,
            0.2562243342399597
        ],
        [
            -0.2920615077018738,
            0.23863232135772705,
            -0.276251882314682,
            -0.6312483549118042,
            -0.2631240487098694
        ],
        [
            0.2066032737493515,
            -0.8397585153579712,
            -0.058500245213508606,
            -0.028797896578907967,
            0.3854649066925049
        ],
        [
            -0.564288854598999,
            0.056155622005462646,
            -0.4495561122894287,
            -0.556322455406189,
            -0.8500059843063354
        ],
        [
            -0.13911807537078857,
            1.3145149946212769,
            0.10386606305837631,
            -0.035759951919317245,
            -0.7055681943893433
        ],
        [
            -0.00707117049023509,
            -0.540936291217804,
            0.35604169964790344,
            -0.04535572975873947,
            0.509636640548706
        ],
        [
            -0.3470212519168854,
            0.8540822863578796,
            -0.6177074313163757,
            0.35409414768218994,
            -0.6931148767471313
        ],
        [
            -0.8805877566337585,
            -0.22816511988639832,
            0.7442739009857178,
            0.9006227850914001,
            0.0759616568684578
        ],
        [
            -0.13626223802566528,
            0.5453968048095703,
            -0.3964690566062927,
            -0.8023752570152283,
            0.9340243935585022
        ]
    ],
    "net_b_fc2_bias": [
        -0.06728523224592209
    ],
    "net_b_fc2_weight": [
        [
            0.05221934616565704,
            0.026490364223718643,
            0.5864673256874084,
            0.5499880313873291,
            0.19591346383094788,
            -0.21999546885490417,
            0.36600086092948914,
            -0.19152332842350006,
            0.4248256981372833,
            0.08948563784360886,
            0.09584421664476395,
            -0.3035711348056793,
            -0.368726521730423,
            -0.33196592330932617,
            -0.35656923055648804,
            -0.3430415391921997,
            0.05377206206321716,
            0.07706966251134872,
            0.10716293752193451,
            0.24943195283412933,
            0.49931418895721436,
            -0.1388649344444275,
            -0.1909199059009552,
            0.24906691908836365,
            0.5739978551864624
        ]
    ]
}