{
    "level": 2,
    "net_a_fc1_bias": [
        -0.28718680143356323,
        0.07461389899253845,
        -0.14974462985992432,
        -0.2804299294948578,
        -0.029040545225143433,
        -0.1892121434211731,
        -0.09713929891586304,
        0.20214438438415527,
        -0.16716733574867249,
        0.036972373723983765,
        -0.01963171362876892,
        0.1395406424999237,
        0.19341298937797546,
        0.09525415301322937,
        -0.2809089422225952,
        0.003818720579147339,
        -0.058373600244522095,
        0.043561458587646484,
        0.17928394675254822,
        0.2483149766921997,
        0.06284776329994202,
        0.024693965911865234,
        0.06940990686416626,
        0.1943933069705963,
        -0.17575906217098236,
        -0.11257414519786835,
        -0.22329425811767578,
        0.02390381693840027,
        0.27832549810409546,
        -0.07640747725963593,
        0.2817222476005554,
        0.1571679413318634,
        -0.23595981299877167,
        -0.12431636452674866,
        0.008576035499572754,
        -0.018148362636566162,
        0.23618555068969727,
        0.12834197282791138,
        0.20640578866004944,
        -0.28408384323120117,
        0.26443177461624146,
        -0.17417700588703156,
        0.14263251423835754,
        0.13473302125930786,
        0.15176549553871155,
        0.033887654542922974,
        0.2683941125869751,
        0.08761489391326904,
        0.21824485063552856,
        0.14716270565986633,
        -0.07461199164390564,
        -0.03108462691307068,
        0.02360120415687561,
        -0.06374000012874603,
        0.19092702865600586,
        0.13942241668701172,
        0.08385857939720154,
        -0.20275738835334778,
        0.16196119785308838,
        -0.12231095135211945
    ],
    "net_a_fc1_weight": [
        [
            -0.03564539551734924,
            0.17204612493515015,
            0.07969367504119873,
            0.18939369916915894,
            -0.009145885705947876,
            -0.1970699429512024,
            0.12882155179977417,
            0.223707914352417,
            0.2366105318069458,
            -0.027384907007217407,
            0.24943304061889648,
            0.1324635148048401
        ],
        [
            0.08319532871246338,
            -0.043104588985443115,
            -0.15477633476257324,
            0.11247527599334717,
            0.010279089212417603,
            -0.18501313030719757,
            -0.2808672785758972,
            0.13471999764442444,
            -0.2142995297908783,
            0.20583492517471313,
            -0.09395113587379456,
            -0.005441337823867798
        ],
        [
            -0.07819603383541107,
            -0.002318859100341797,
            0.18685612082481384,
            -0.2803782820701599,
            0.2654362916946411,
            -0.22729581594467163,
            0.11240160465240479,
            -0.2206273078918457,
            -0.11888410151004791,
            -0.21958312392234802,
            -0.1221020370721817,
            -0.1560237556695938
        ],
        [
            0.19375154376029968,
            0.11965662240982056,
            -0.19403791427612305,
            0.1188189685344696,
            0.24285578727722168,
            0.16751629114151,
            0.1410021185874939,
            0.20583364367485046,
            0.26848548650741577,
            0.19365251064300537,
            0.28169238567352295,
            0.15308451652526855
        ],
        [
            0.20648792386054993,
            -0.03733879327774048,
            0.17239871621131897,
            -0.25262704491615295,
            -0.2556954622268677,
            0.21851754188537598,
            0.22411316633224487,
            -0.26917189359664917,
            0.1375405192375183,
            0.0865129828453064,
            -0.06669691205024719,
            -0.02252480387687683
        ],
        [
            0.04992273449897766,
            -0.16464422643184662,
            -0.2649415135383606,
            -0.0052581727504730225,
            0.22713035345077515,
            0.25046104192733765,
            -0.06044621765613556,
            0.283166766166687,
            0.10592591762542725,
            -0.1407889872789383,
            -0.07658401131629944,
            -0.200532466173172
        ],
        [
            0.09117501974105835,
            -0.17390617728233337,
            -0.02638077735900879,
            0.2650822401046753,
            0.10981300473213196,
            -0.1759575605392456,
            -0.17256587743759155,
            0.04646751284599304,
            0.10818222165107727,
            0.2878006100654602,
            0.017356783151626587,
            -0.0597715824842453
        ],
        [
            0.2800648808479309,
            -0.2833099365234375,
            -0.2317955493927002,
            -0.07624892890453339,
            0.26435232162475586,
            0.2183380126953125,
            0.15232589840888977,
            0.024465471506118774,
            -0.2811529040336609,
            -0.006590306758880615,
            -0.10795781016349792,
            -0.2211003452539444
        ],
        [
            -0.03220856189727783,
            0.18563616275787354,
            -0.15014633536338806,
            -0.15691432356834412,
            -0.28792083263397217,
            0.21914297342300415,
            0.26953309774398804,
            0.16202831268310547,
            0.2524297833442688,
            0.19175896048545837,
            0.12280094623565674,
            -0.20182621479034424
        ],
        [
            -0.04093456268310547,
            -0.08880290389060974,
            -0.26447156071662903,
            -0.10639436542987823,
            -0.2757408320903778,
            -0.21472899615764618,
            0.22948819398880005,
            0.06235116720199585,
            -0.020762890577316284,
            -0.22164851427078247,
            -0.251613587141037,
            -0.01562979817390442
        ],
        [
            0.02819293737411499,
            -0.09598983824253082,
            0.09085133671760559,
            -0.22688643634319305,
            -0.0033102333545684814,
            -0.13566231727600098,
            0.24398893117904663,
            -0.03360554575920105,
            -0.27205848693847656,
            -0.17900997400283813,
            -0.2097245454788208,
            -0.2346939742565155
        ],
        [
            -0.2762020230293274,
            0.04109075665473938,
            -0.19074447453022003,
            -0.01885285973548889,
            0.04240238666534424,
            -0.0780041515827179,
            0.2417948842048645,
            0.24100887775421143,
            0.09263697266578674,
            -0.18186502158641815,
            0.20348277688026428,
            -0.14005066454410553
        ],
        [
            0.18631044030189514,
            0.1938646137714386,
            -0.28800639510154724,
            0.15462657809257507,
            0.24114447832107544,
            0.2134905457496643,
            0.21100762486457825,
            0.25797808170318604,
            -0.13297203183174133,
            -0.2325657457113266,
            0.20669406652450562,
            0.005858093500137329
        ],
        [
            -0.15761886537075043,
            0.08153936266899109,
            -0.009579330682754517,
            0.0029533803462982178,
            -0.2767780125141144,
            0.1952233612537384,
            -0.005229681730270386,
            -0.0602990984916687,
            0.08962422609329224,
            -0.24186435341835022,
            -0.2024957835674286,
            -0.1960017830133438
        ],
        [
            0.1089150607585907,
            -0.04974660277366638,
            -0.07761487364768982,
            0.2814921736717224,
            -0.23542241752147675,
            -0.08813309669494629,
            0.02022320032119751,
            -0.263888955116272,
            0.23848223686218262,
            0.2579512596130371,
            0.13315314054489136,
            0.03296259045600891
        ],
        [
            0.23900485038757324,
            -0.2860163450241089,
            -0.031194210052490234,
            -0.157382071018219,
            -0.07613465189933777,
            0.10210952162742615,
            -0.12803325057029724,
            0.14841583371162415,
            0.24531596899032593,
            0.15182167291641235,
            -0.0657520741224289,
            0.09008079767227173
        ],
        [
            0.2223600149154663,
            0.2210751175880432,
            -0.09214876592159271,
            0.10739150643348694,
            0.01154237985610962,
            0.18315201997756958,
            -0.04163472354412079,
            0.19593054056167603,
            0.11952036619186401,
            -0.14541780948638916,
            -0.24673882126808167,
            -0.05043041706085205
        ],
        [
            0.21077954769134521,
            -0.27707400918006897,
            0.28540289402008057,
            -0.07577097415924072,
            -0.08920124173164368,
            -0.21517404913902283,
            -0.2670060992240906,
            -0.03717193007469177,
            0.19483229517936707,
            -0.28678563237190247,
            -0.1179434210062027,
            0.16724565625190735
        ],
        [
            -0.009303629398345947,
            -0.08572827279567719,
            -0.245902419090271,
            0.02045425772666931,
            -0.06036737561225891,
            0.15695449709892273,
            -0.05209702253341675,
            0.2763165235519409,
            -0.007384806871414185,
            -0.28787872195243835,
            -0.17434781789779663,
            -0.13314451277256012
        ],
        [
            0.13455677032470703,
            -0.08073398470878601,
            0.2529855966567993,
            0.205386221408844,
            -0.27696001529693604,
            -0.2834502160549164,
            -0.20725028216838837,
            -0.23126491904258728,
            0.012528181076049805,
            -0.19493043422698975,
            -0.06787765026092529,
            0.04362568259239197
        ],
        [
            0.2176588773727417,
            0.055188387632369995,
            0.11606821417808533,
            0.18591398000717163,
            -0.12948185205459595,
            0.05639827251434326,
            0.06538423895835876,
            -0.07288515567779541,
            0.0230923593044281,
            0.23065674304962158,
            -0.08920161426067352,
            -0.15230011940002441
        ],
        [
            -0.2150758057832718,
            0.22158396244049072,
            -0.23360469937324524,
            0.19482341408729553,
            0.03573521971702576,
            0.08251720666885376,
            0.25550103187561035,
            -0.15718622505664825,
            -0.25426632165908813,
            0.08435818552970886,
            0.0406530499458313,
            -0.21035128831863403
        ],
        [
            0.023903578519821167,
            -0.11866162717342377,
            0.022363513708114624,
            -0.2789159119129181,
            0.11996772885322571,
            -0.08502154052257538,
            0.1337326467037201,
            0.07220268249511719,
            -0.20246464014053345,
            -0.06935863196849823,
            0.2741864323616028,
            -0.11787635087966919
        ],
        [
            0.024845421314239502,
            0.273260235786438,
            -0.2471572756767273,
            0.0332396924495697,
            0.20171967148780823,
            0.21453094482421875,
            -0.102307990193367,
            -0.24858753383159637,
            0.2115492820739746,
            0.10725891590118408,
            -0.10279296338558197,
            0.18846651911735535
        ],
        [
            -0.02553275227546692,
            -0.1292637437582016,
            -0.11824838817119598,
            0.06873971223831177,
            0.10843700170516968,
            0.2004796266555786,
            0.25469040870666504,
            0.08556529879570007,
            0.24247008562088013,
            -0.27849140763282776,
            0.22369688749313354,
            -0.015409111976623535
        ],
        [
            -0.12995636463165283,
            0.24720913171768188,
            0.15504169464111328,
            -0.02162840962409973,
            0.055382609367370605,
            0.040369123220443726,
            0.2066594362258911,
            0.04047441482543945,
            0.1692906618118286,
            0.034166932106018066,
            0.22107809782028198,
            0.1573582887649536
        ],
        [
            0.1322309374809265,
            -0.06123650074005127,
            -0.2473532259464264,
            0.09333547949790955,
            0.28374820947647095,
            -0.2782045006752014,
            -0.1295468956232071,
            -0.17228388786315918,
            -0.15830576419830322,
            0.01630568504333496,
            -0.061895132064819336,
            0.016507357358932495
        ],
        [
            0.09118768572807312,
            0.189888596534729,
            -0.2538205087184906,
            -0.20643174648284912,
            -0.25056254863739014,
            -0.28277596831321716,
            -0.03133854269981384,
            0.14145025610923767,
            0.047813475131988525,
            0.10038802027702332,
            -0.23615427315235138,
            -0.2055239975452423
        ],
        [
            0.2652573585510254,
            0.014454066753387451,
            0.2749996781349182,
            0.03475409746170044,
            -0.11094018816947937,
            -0.02040243148803711,
            -0.28606724739074707,
            0.2534577250480652,
            -0.2587156891822815,
            -0.09231463074684143,
            -0.28789573907852173,
            0.13467910885810852
        ],
        [
            0.09558087587356567,
            0.12821230292320251,
            -0.022889137268066406,
            0.15603119134902954,
            0.27506542205810547,
            -0.15769225358963013,
            -0.2584753930568695,
            -0.08113685250282288,
            0.008716881275177002,
            0.023562103509902954,
            0.212979257106781,
            0.023217886686325073
        ],
        [
            -0.22376713156700134,
            -0.09916876256465912,
            0.2671923041343689,
            -0.18427491188049316,
            0.0519024133682251,
            0.1929326057434082,
            -0.18554970622062683,
            0.1126527190208435,
            -0.14669452607631683,
            0.02170717716217041,
            0.19216355681419373,
            -0.0550650954246521
        ],
        [
            -0.1810312718153,
            0.15753024816513062,
            -0.18340949714183807,
            -0.22612079977989197,
            -0.15400132536888123,
            0.02781572937965393,
            0.19868597388267517,
            -0.17922443151474,
            -0.08049288392066956,
            -0.18294870853424072,
            0.1449088454246521,
            0.042405545711517334
        ],
        [
            -0.04654146730899811,
            0.07115015387535095,
            0.027411460876464844,
            -0.021343886852264404,
            0.021226823329925537,
            0.17331093549728394,
            -0.2566651701927185,
            0.16345790028572083,
            0.055957138538360596,
            -0.2147272527217865,
            -0.06862378120422363,
            -0.1424863636493683
        ],
        [
            -0.023999571800231934,
            -0.19901451468467712,
            0.28167909383773804,
            -0.03112533688545227,
            0.018082767724990845,
            0.21687692403793335,
            -0.14894181489944458,
            -0.25080302357673645,
            -0.012663424015045166,
            -0.1252438873052597,
            -0.06559374928474426,
            0.1696375012397766
        ],
        [
            0.1354946792125702,
            -0.24207010865211487,
            -0.11735865473747253,
            0.11729955673217773,
            0.13516467809677124,
            -0.0950104147195816,
            0.1917203664779663,
            -0.2195492684841156,
            0.11847442388534546,
            0.219903826713562,
            -0.1633756309747696,
            0.2829025387763977
        ],
        [
            -0.1340779811143875,
            0.26762598752975464,
            -0.05261094868183136,
            0.1314500868320465,
            0.18029895424842834,
            -0.02514016628265381,
            0.12334585189819336,
            0.25852489471435547,
            -0.15565365552902222,
            0.1595228910446167,
            0.24426895380020142,
            -0.073871910572052
        ],
        [
            -0.05248540639877319,
            -0.23035869002342224,
            -0.1923430860042572,
            0.022561579942703247,
            0.18431076407432556,
            0.18456926941871643,
            0.17986708879470825,
            -0.12428604066371918,
            0.15132737159729004,
            -0.15652243793010712,
            0.031762003898620605,
            0.15945035219192505
        ],
        [
            0.1380520462989807,
            0.1612958312034607,
            -0.018411636352539062,
            0.28262996673583984,
            0.09791359305381775,
            -0.25471389293670654,
            0.20709750056266785,
            0.2753942608833313,
            0.2027651071548462,
            0.004260122776031494,
            0.1525668501853943,
            0.10363972187042236
        ],
        [
            -0.2720489799976349,
            -0.13058637082576752,
            -0.03388619422912598,
            -0.04048715531826019,
            0.24071383476257324,
            0.19939643144607544,
            -0.08088009059429169,
            -0.14110948145389557,
            0.056329160928726196,
            -0.22257772088050842,
            0.08379882574081421,
            0.21596753597259521
        ],
        [
            -0.09964898228645325,
            -0.10529299080371857,
            -0.26916176080703735,
            -0.13706734776496887,
            -0.016354769468307495,
            0.03039085865020752,
            -0.034715354442596436,
            0.19121593236923218,
            -0.13600276410579681,
            0.04512578248977661,
            0.04414188861846924,
            -0.11211232841014862
        ],
        [
            -0.03231588006019592,
            -0.015741735696792603,
            -0.24490541219711304,
            -0.2645105719566345,
            -0.28112658858299255,
            0.07432511448860168,
            0.2807004451751709,
            0.2726231813430786,
            0.12784528732299805,
            -0.0944490134716034,
            -0.16402141749858856,
            -0.05517403781414032
        ],
        [
            0.08706483244895935,
            0.28564804792404175,
            0.002838701009750366,
            -0.12047480046749115,
            0.15474572777748108,
            0.2210574746131897,
            0.2403545379638672,
            -0.11463147401809692,
            0.003987431526184082,
            -0.2353038340806961,
            -0.021972984075546265,
            -0.25585535168647766
        ],
        [
            -0.17746159434318542,
            0.04597523808479309,
            -0.2231055200099945,
            -0.06133250892162323,
            -0.1020127683877945,
            0.17689162492752075,
            0.20819738507270813,
            -0.2419663816690445,
            0.12540239095687866,
            -0.2874925136566162,
            -0.12211377918720245,
            -0.21557042002677917
        ],
        [
            -0.20192217826843262,
            -0.17554649710655212,
            -0.008195042610168457,
            -0.016190409660339355,
            -0.05608344078063965,
            -0.17114540934562683,
            -0.09132629632949829,
            0.2672550082206726,
            -0.2646915316581726,
            0.21817243099212646,
            0.21028387546539307,
            0.261130154132843
        ],
        [
            -0.032887667417526245,
            0.09172692894935608,
            -0.15271475911140442,
            0.12924176454544067,
            0.09064948558807373,
            0.26212239265441895,
            0.019089072942733765,
            0.21571844816207886,
            -0.19652554392814636,
            0.20480331778526306,
            -0.23829656839370728,
            0.18278709053993225
        ],
        [
            -0.03723937273025513,
            0.16589322686195374,
            -0.015097230672836304,
            -0.20240256190299988,
            0.16067853569984436,
            0.07926839590072632,
            0.2507425546646118,
            -0.10006627440452576,
            0.2077169120311737,
            0.06346848607063293,
            0.04816398024559021,
            0.15398302674293518
        ],
        [
            -0.022926270961761475,
            0.1286187767982483,
            -0.18839436769485474,
            -0.20670747756958008,
            -0.1359739899635315,
            -0.23543253540992737,
            -0.21146640181541443,
            0.23290324211120605,
            0.06134653091430664,
            -0.137763112783432,
            -0.06951868534088135,
            -0.007635444402694702
        ],
        [
            -0.12942476570606232,
            0.1546361744403839,
            0.14351898431777954,
            -0.023508518934249878,
            0.2639971971511841,
            -0.028197437524795532,
            -0.11533042788505554,
            0.023927748203277588,
            -0.1897890418767929,
            0.21591371297836304,
            -0.20628520846366882,
            0.0738319456577301
        ],
        [
            -0.26025646924972534,
            0.2636162042617798,
            -0.21361082792282104,
            0.20464512705802917,
            -0.24786561727523804,
            0.059823691844940186,
            -0.21619457006454468,
            -0.1935766041278839,
            0.23251909017562866,
            -0.24750325083732605,
            -0.011617332696914673,
            0.1622106432914734
        ],
        [
            0.2597326636314392,
            0.12672796845436096,
            -0.16393136978149414,
            -0.09800037741661072,
            0.2226545214653015,
            0.09326595067977905,
            0.2518441081047058,
            0.18905246257781982,
            0.22200989723205566,
            -0.09131759405136108,
            -0.17660970985889435,
            0.1612951159477234
        ],
        [
            -0.2858279347419739,
            0.2505987286567688,
            -0.028048574924468994,
            0.07868954539299011,
            0.2314724326133728,
            -0.008929908275604248,
            0.19638535380363464,
            -0.20423623919487,
            0.17937910556793213,
            0.010229915380477905,
            0.23506736755371094,
            0.1128297746181488
        ],
        [
            -0.04380001127719879,
            0.11943930387496948,
            0.10371014475822449,
            0.09235158562660217,
            -0.014700084924697876,
            -0.056143999099731445,
            -0.05209299921989441,
            0.20655140280723572,
            0.1691579520702362,
            -0.11990271508693695,
            -0.18030470609664917,
            -0.011392712593078613
        ],
        [
            0.17891061305999756,
            -0.08451449871063232,
            -0.04094158113002777,
            -0.22997240722179413,
            -0.00976899266242981,
            0.12123644351959229,
            -0.21755468845367432,
            -0.10025867819786072,
            -0.15894103050231934,
            -0.03558003902435303,
            0.19994062185287476,
            -0.11415231227874756
        ],
        [
            -0.0071870386600494385,
            0.1266201138496399,
            0.018536031246185303,
            -0.016580790281295776,
            0.14291059970855713,
            0.173438161611557,
            0.22976696491241455,
            0.13345173001289368,
            -0.2014220654964447,
            -0.07178907096385956,
            -0.18212108314037323,
            -0.01911422610282898
        ],
        [
            0.11108431220054626,
            0.21084585785865784,
            0.28015077114105225,
            0.24674397706985474,
            0.011190205812454224,
            -0.004486173391342163,
            -0.23653653264045715,
            -0.07715047895908356,
            0.08903062343597412,
            -0.03987926244735718,
            0.22796529531478882,
            -0.2784323990345001
        ],
        [
            -0.09311586618423462,
            -0.15035763382911682,
            0.11806008219718933,
            0.2068137526512146,
            -0.2793146073818207,
            0.02628210186958313,
            0.0470728874206543,
            0.08855465054512024,
            0.03850129246711731,
            0.04808056354522705,
            -0.1336483359336853,
            0.1493297815322876
        ],
        [
            -0.21964775025844574,
            -0.10127553343772888,
            0.1285335123538971,
            0.2376246452331543,
            -0.1513158231973648,
            0.17267903685569763,
            0.059445858001708984,
            -0.009024947881698608,
            -0.030912697315216064,
            -0.17174112796783447,
            -0.23662057518959045,
            -0.02488139271736145
        ],
        [
            -0.00720551609992981,
            0.1855161488056183,
            -0.06757646799087524,
            0.16361072659492493,
            -0.26673153042793274,
            0.10419192910194397,
            0.21189594268798828,
            0.0343683660030365,
            0.1606091558933258,
            -0.15169335901737213,
            0.23392558097839355,
            -0.263129860162735
        ],
        [
            -0.25705963373184204,
            0.01366513967514038,
            0.19843485951423645,
            -0.05236141383647919,
            0.15469157695770264,
            -0.2174307405948639,
            0.20801857113838196,
            -0.23936161398887634,
            0.2514573931694031,
            0.014599382877349854,
            0.06104755401611328,
            -0.16855359077453613
        ],
        [
            0.08939382433891296,
            0.06316274404525757,
            0.046631455421447754,
            -0.008975028991699219,
            -0.28641942143440247,
            0.1379278004169464,
            0.06561127305030823,
            0.1003587543964386,
            -0.2132103592157364,
            0.16942477226257324,
            -0.002793043851852417,
            -0.275127112865448
        ]
    ],
    "net_a_fc2_bias": [
        -0.05870653688907623,
        0.031384751200675964,
        -0.07890874147415161,
        -0.09439870715141296,
        0.006981879472732544,
        0.08223158121109009,
        -0.036102719604969025,
        -0.03406400978565216,
        0.07490970194339752,
        0.09450958669185638,
        -0.03351700305938721,
        0.020549893379211426,
        0.009141400456428528,
        -0.11783620715141296,
        -0.0022493302822113037,
        -0.024718061089515686,
        -0.004569247364997864,
        -0.11553039401769638,
        0.12201805412769318,
        0.0107889324426651,
        -0.08643318712711334,
        0.018335536122322083,
        -0.04852423816919327,
        0.0637291669845581
    ],
    "net_a_fc2_weight": [
        [
            0.12111417949199677,
            -0.10030650347471237,
            0.003952831029891968,
            0.05277357995510101,
            0.04667046666145325,
            0.03538954257965088,
            -0.03188103437423706,
            -0.10857945680618286,
            -0.08881168812513351,
            0.10761447250843048,
            0.1268789917230606,
            0.08287836611270905,
            0.08348621428012848,
            -0.10568539798259735,
            -0.07011192291975021,
            -0.08539130538702011,
            -0.07324205338954926,
            0.01919865608215332,
            -0.053285613656044006,
            0.06451144814491272,
            -0.024237819015979767,
            0.06090123951435089,
            0.02071504294872284,
            -0.0724208652973175,
            -0.07545826584100723,
            0.01951487362384796,
            -0.1212354302406311,
            0.08776813745498657,
            -0.08680541813373566,
            0.08500869572162628,
            0.062093764543533325,
            0.004750698804855347,
            0.12057408690452576,
            -0.09415498375892639,
            -0.10239569842815399,
            -0.049464911222457886,
            -0.09347409009933472,
            -0.004533298313617706,
            0.10410904884338379,
            0.10842534899711609,
            -0.05631210654973984,
            -0.09995187819004059,
            0.04004305601119995,
            -0.10325662046670914,
            -0.11444517970085144,
            -0.0062626078724861145,
            -0.05008312314748764,
            0.01937691867351532,
            -0.057363785803318024,
            0.11259205639362335,
            -0.04794740676879883,
            -0.02962993085384369,
            0.01846720278263092,
            -0.10467003285884857,
            0.09702794253826141,
            -0.019409239292144775,
            0.1204436868429184,
            0.09508584439754486,
            0.10310056805610657,
            -0.016751423478126526
        ],
        [
            -0.11889072507619858,
            0.05558086931705475,
            0.002860918641090393,
            -0.0629420354962349,
            -0.060481198132038116,
            0.02359592914581299,
            -0.07547231763601303,
            0.04937657713890076,
            0.06045347452163696,
            0.055616557598114014,
            -0.10820228606462479,
            0.07345426082611084,
            0.052626997232437134,
            0.1098892092704773,
            -0.07469428330659866,
            0.10244795680046082,
            -0.06301826238632202,
            -0.07134215533733368,
            -0.00833652913570404,
            -0.05913906544446945,
            0.07458938658237457,
            0.09104429185390472,
            -0.05536419898271561,
            0.12591518461704254,
            -0.020239993929862976,
            -0.033625707030296326,
            -0.12793384492397308,
            -0.1098613440990448,
            0.12275479733943939,
            -0.01696101576089859,
            0.02971610426902771,
            0.004008352756500244,
            -0.09649203717708588,
            -0.09683631360530853,
            0.06363260746002197,
            -0.017304271459579468,
            -0.04109445959329605,
            -0.01764100044965744,
            -0.12291424721479416,
            -0.06608955562114716,
            0.06865417957305908,
            0.05323922634124756,
            -0.04134610295295715,
            -0.02786828577518463,
            0.02437184751033783,
            -0.08210258930921555,
            0.019229024648666382,
            -0.09355680644512177,
            0.11503419280052185,
            0.04200480878353119,
            0.12478505074977875,
            0.11827868223190308,
            0.12677960097789764,
            -0.07701094448566437,
            0.09820185601711273,
            -0.05185887962579727,
            -0.12781144678592682,
            0.09437409043312073,
            0.03872087597846985,
            -0.009629398584365845
        ],
        [
            -0.11161188781261444,
            -0.0559646338224411,
            0.12870539724826813,
            -0.05732949823141098,
            -0.0073579177260398865,
            -0.08023701608181,
            0.08098627626895905,
            -0.048442088067531586,
            0.023372113704681396,
            0.026362240314483643,
            -0.04506918787956238,
            0.11995622515678406,
            0.026219695806503296,
            -0.12021301686763763,
            0.03709302842617035,
            -0.09928832948207855,
            0.05375850200653076,
            -3.413856029510498e-05,
            -0.03244670480489731,
            -0.05918359011411667,
            -0.08813853561878204,
            0.10401937365531921,
            -0.1155104786157608,
            -0.056432925164699554,
            -0.09340271353721619,
            -0.03664430230855942,
            -0.03246380388736725,
            -0.12341124564409256,
            -0.12407619506120682,
            -0.06589504331350327,
            0.016076311469078064,
            -0.03513720631599426,
            -0.08650507032871246,
            0.007913932204246521,
            -0.044618479907512665,
            0.12555496394634247,
            0.03857971727848053,
            0.0020821094512939453,
            -0.10389797389507294,
            -0.12335599958896637,
            -0.008772030472755432,
            -0.01863998919725418,
            0.05893765389919281,
            0.0086117684841156,
            0.08580738306045532,
            -0.10680168867111206,
            -0.10833355784416199,
            0.074567049741745,
            0.0003558993339538574,
            -0.04061206430196762,
            -0.033676616847515106,
            0.09319543838500977,
            -0.07356005162000656,
            0.00042364001274108887,
            0.0157395601272583,
            -0.0852208286523819,
            0.07758745551109314,
            -0.12278357148170471,
            0.0347481369972229,
            -0.0927635133266449
        ],
        [
            -0.011879317462444305,
            -0.004107862710952759,
            0.1176907867193222,
            -0.04858516901731491,
            0.06487594544887543,
            -0.09551407396793365,
            0.01496724784374237,
            -0.1288367509841919,
            -0.027338087558746338,
            -0.09159921854734421,
            -0.09853756427764893,
            -0.06616610288619995,
            0.09391938149929047,
            0.04761873185634613,
            0.06946192681789398,
            -0.06088987737894058,
            0.11844612658023834,
            0.11411251127719879,
            0.05690392851829529,
            0.1078958809375763,
            -0.09266738593578339,
            0.07915425300598145,
            -0.0292745903134346,
            0.006342262029647827,
            -0.1067257970571518,
            -0.05491895228624344,
            0.10071974992752075,
            -0.08285611867904663,
            -0.11969524621963501,
            -0.05869483947753906,
            0.05319830775260925,
            -0.09638263285160065,
            -0.08009923994541168,
            -0.05042054504156113,
            -0.11847130209207535,
            0.09470964968204498,
            -0.03697005659341812,
            -0.1008857935667038,
            0.0748714953660965,
            0.11320266127586365,
            0.12705232203006744,
            -0.1034039780497551,
            0.12109218537807465,
            0.011256515979766846,
            -0.08093853294849396,
            0.05043238401412964,
            -0.05372527241706848,
            0.027787834405899048,
            -0.11325125396251678,
            0.012837335467338562,
            0.05450041592121124,
            -0.05046169459819794,
            -0.12358702719211578,
            -0.08941273391246796,
            0.10313843190670013,
            0.08352574706077576,
            0.029239490628242493,
            0.005995139479637146,
            -0.09314677864313126,
            -0.0016416311264038086
        ],
        [
            0.07257410883903503,
            -0.038829877972602844,
            0.04088155925273895,
            0.11396892368793488,
            0.07119579613208771,
            -0.11486051976680756,
            -0.10723170638084412,
            -0.047017693519592285,
            -0.06468275189399719,
            -0.11898581683635712,
            -0.020824670791625977,
            0.11696583032608032,
            -0.03772999346256256,
            0.12373887002468109,
            0.10356199741363525,
            -0.09841416776180267,
            0.10830545425415039,
            -0.018544554710388184,
            -0.003369957208633423,
            0.11236999928951263,
            -0.011638112366199493,
            -0.08027522265911102,
            0.06434543430805206,
            -0.07292768359184265,
            -0.09996292740106583,
            -0.055624671280384064,
            -0.12625731527805328,
            0.0036115795373916626,
            0.04915039241313934,
            0.049993425607681274,
            0.06853397190570831,
            -0.08894262462854385,
            0.09057319164276123,
            -0.10097920894622803,
            0.07355740666389465,
            -0.03737233579158783,
            -0.11691342294216156,
            0.033612146973609924,
            0.10539482533931732,
            -0.05786238610744476,
            -0.06316617131233215,
            0.09955938160419464,
            0.03379902243614197,
            0.003801599144935608,
            0.01622571051120758,
            -0.028694331645965576,
            0.0707830935716629,
            -0.08209291100502014,
            -0.09712773561477661,
            0.005818694829940796,
            -0.10816696286201477,
            -0.07405969500541687,
            -0.08913189172744751,
            0.013442650437355042,
            0.04136763513088226,
            -0.08592057973146439,
            0.05452744662761688,
            -0.12488708645105362,
            -0.08059844374656677,
            -0.014091715216636658
        ],
        [
            -0.010907821357250214,
            0.033889517188072205,
            -0.11723480373620987,
            0.0023514479398727417,
            -0.026150085031986237,
            -0.009390152990818024,
            0.07171034812927246,
            -0.016561515629291534,
            0.007287859916687012,
            0.04129168391227722,
            -0.09021492302417755,
            0.06646913290023804,
            -0.03797908127307892,
            0.029966294765472412,
            -0.06918920576572418,
            0.06721645593643188,
            -0.042833685874938965,
            0.11959773302078247,
            0.03855988383293152,
            -0.11738237738609314,
            0.054189905524253845,
            -0.09952476620674133,
            0.0528208464384079,
            0.09869316220283508,
            -0.06745696067810059,
            0.03721228241920471,
            0.0038721710443496704,
            0.10096393525600433,
            0.08294925093650818,
            -0.06072569638490677,
            -0.07532600313425064,
            0.11923399567604065,
            0.10112428665161133,
            -0.021526619791984558,
            0.07161864638328552,
            -0.11436846107244492,
            -0.10427021980285645,
            0.07352365553379059,
            -0.12766307592391968,
            -0.048832863569259644,
            0.04091064631938934,
            -0.003251299262046814,
            0.007008850574493408,
            0.05974641442298889,
            -0.020121432840824127,
            0.0680263489484787,
            0.08852306008338928,
            0.049418821930885315,
            -0.04004829376935959,
            -0.018331296741962433,
            0.011296287178993225,
            -0.04680036008358002,
            0.03271263837814331,
            0.06300543248653412,
            -0.036778904497623444,
            0.01042187213897705,
            0.08126196265220642,
            -0.10895620286464691,
            0.07100598514080048,
            -0.11764100193977356
        ],
        [
            0.004287347197532654,
            -0.06131146848201752,
            -0.08140290528535843,
            -0.07561250030994415,
            0.03403779864311218,
            0.05046148598194122,
            0.05104127526283264,
            0.04611791670322418,
            -0.025994859635829926,
            0.03221353888511658,
            0.10759173333644867,
            -0.05458914488554001,
            0.06965474784374237,
            -0.06448802351951599,
            -0.014552198350429535,
            -0.00647541880607605,
            0.11601077020168304,
            0.04349108040332794,
            0.09526689350605011,
            -0.11033648997545242,
            0.09028872847557068,
            -0.08824847638607025,
            0.037828609347343445,
            -0.036991216242313385,
            -0.038858458399772644,
            -0.08198758959770203,
            0.07789646089076996,
            0.02055603265762329,
            0.015138983726501465,
            -0.05503954738378525,
            0.0654691755771637,
            -0.02478358894586563,
            -0.06108199059963226,
            -0.012004226446151733,
            -0.015382468700408936,
            -0.01195187121629715,
            -0.03138657659292221,
            0.08817225694656372,
            -0.03385777026414871,
            -0.07058481872081757,
            0.04544690251350403,
            -0.11031182110309601,
            -0.0659087672829628,
            0.0739305168390274,
            0.12133230268955231,
            0.03171353042125702,
            0.03941135108470917,
            0.03822687268257141,
            0.0703197717666626,
            -0.057462215423583984,
            -0.0784461572766304,
            0.006851807236671448,
            0.12336631119251251,
            0.055988162755966187,
            0.03227531909942627,
            0.1283024102449417,
            0.07064498960971832,
            0.029885485768318176,
            -0.06855634599924088,
            0.08801007270812988
        ],
        [
            0.10798248648643494,
            -0.03301152586936951,
            -0.061491742730140686,
            0.06344088912010193,
            0.1083885133266449,
            -0.0761169046163559,
            -0.05426788330078125,
            0.004519477486610413,
            -0.02547740936279297,
            0.006200239062309265,
            -0.1077832505106926,
            -0.07940611243247986,
            0.0375584214925766,
            -0.01759195327758789,
            -0.10354196280241013,
            -0.08512206375598907,
            -0.09897129982709885,
            0.07225249707698822,
            -0.08532662689685822,
            0.059101402759552,
            0.04588955640792847,
            0.01784566044807434,
            0.056461483240127563,
            0.10478328168392181,
            -0.007957495748996735,
            -0.023044824600219727,
            0.1028124988079071,
            0.06799343228340149,
            -0.07462114840745926,
            0.03331539034843445,
            -0.09948519617319107,
            -0.06808620691299438,
            -0.12036168575286865,
            0.07657143473625183,
            -0.0900191143155098,
            0.09317038953304291,
            -0.11093194037675858,
            0.027542516589164734,
            0.0760374665260315,
            0.036278679966926575,
            -0.07812654227018356,
            0.09193621575832367,
            -0.11038731038570404,
            0.10895630717277527,
            0.08874799311161041,
            0.07915978133678436,
            0.09280623495578766,
            0.06205962598323822,
            0.09549613296985626,
            -0.07600769400596619,
            -0.007178150117397308,
            0.11318963766098022,
            0.07482302188873291,
            0.07932956516742706,
            0.07093121111392975,
            0.015445441007614136,
            -0.08802299201488495,
            -0.020533405244350433,
            -0.10628095269203186,
            -0.11543173342943192
        ],
        [
            0.0751589834690094,
            -0.08483844250440598,
            -0.12615111470222473,
            0.012942224740982056,
            -0.07037665694952011,
            -0.11360030621290207,
            0.06763069331645966,
            0.06407307088375092,
            0.0666331797838211,
            -0.023723430931568146,
            -0.10213682055473328,
            -0.08643493801355362,
            -0.055530205368995667,
            0.08422645926475525,
            0.11240597069263458,
            0.12439210712909698,
            0.0716823935508728,
            0.012178212404251099,
            -0.02934008091688156,
            0.038905635476112366,
            0.08095778524875641,
            0.04851290583610535,
            0.04903240501880646,
            -0.05626598000526428,
            -0.07849429547786713,
            -0.035184189677238464,
            -0.07177311927080154,
            0.024192646145820618,
            -0.12442466616630554,
            0.0449172705411911,
            -0.0593256801366806,
            0.11899900436401367,
            0.015483856201171875,
            -0.1005798876285553,
            0.11831669509410858,
            -0.11134923249483109,
            -0.033355504274368286,
            -0.032854028046131134,
            -0.07524177432060242,
            -0.08162455260753632,
            -0.06442362070083618,
            0.06002222001552582,
            0.10099416971206665,
            0.012798100709915161,
            -0.0917956680059433,
            0.038595959544181824,
            -0.05270665884017944,
            0.12204383313655853,
            -0.032408565282821655,
            -0.09535479545593262,
            -0.0422699972987175,
            -0.04380187392234802,
            0.07415646314620972,
            0.049580320715904236,
            -0.09403304755687714,
            0.11463411152362823,
            0.07015997171401978,
            -0.004685826599597931,
            0.013960376381874084,
            0.09565834701061249
        ],
        [
            0.0321858674287796,
            0.0659392923116684,
            0.08113062381744385,
            -0.12400446087121964,
            0.09864182770252228,
            0.12365321815013885,
            -0.08037446439266205,
            -0.050524547696113586,
            0.048475414514541626,
            0.054370343685150146,
            -0.10886643826961517,
            0.03588658571243286,
            0.0920230895280838,
            0.04871849715709686,
            -0.02082199603319168,
            0.0663340836763382,
            -0.11914842575788498,
            0.02845384180545807,
            -0.059841811656951904,
            -0.07955564558506012,
            0.12184949219226837,
            -0.126789852976799,
            -0.07520028948783875,
            -0.10012368857860565,
            0.03691944479942322,
            0.0987977683544159,
            -0.023327723145484924,
            -0.0007009953260421753,
            0.08273875713348389,
            -0.05577624589204788,
            -0.09745088964700699,
            -0.07716017961502075,
            0.006867021322250366,
            -0.08361713588237762,
            -0.042671479284763336,
            -0.008033856749534607,
            0.018643617630004883,
            0.11709843575954437,
            -0.1217847540974617,
            -0.010727807879447937,
            0.1087513118982315,
            -0.10870391875505447,
            -0.0164453387260437,
            0.11620309948921204,
            0.07265105843544006,
            -0.09980916976928711,
            -0.005214914679527283,
            0.10671652853488922,
            -0.07386070489883423,
            -0.08799351751804352,
            0.007254645228385925,
            0.07193203270435333,
            -0.02124793827533722,
            0.0073913633823394775,
            0.02215510606765747,
            0.03990687429904938,
            0.09022460877895355,
            -0.051297470927238464,
            -0.08169639110565186,
            0.061434343457221985
        ],
        [
            -0.031231336295604706,
            0.12848620116710663,
            0.0025717318058013916,
            0.04129335284233093,
            0.011356353759765625,
            0.08070497214794159,
            -0.055972740054130554,
            0.052379876375198364,
            -0.12709197402000427,
            -0.0867953896522522,
            -0.08248413354158401,
            0.027718782424926758,
            0.06627285480499268,
            0.0857619047164917,
            0.03464120626449585,
            -0.03457721322774887,
            0.09673033654689789,
            0.11653958261013031,
            0.01732240617275238,
            0.10232031345367432,
            -0.10781863331794739,
            0.007661223411560059,
            -0.04598569869995117,
            -0.0879485011100769,
            0.052083954215049744,
            -0.03689420223236084,
            -0.07530532032251358,
            -0.07930004596710205,
            -0.03515283763408661,
            0.09435781836509705,
            -0.03782213479280472,
            0.10950100421905518,
            -0.0808623805642128,
            0.10461600124835968,
            -0.04096945375204086,
            0.01296927034854889,
            0.04669494926929474,
            -0.025322861969470978,
            -0.08687227219343185,
            -0.10244720429182053,
            -0.0009543001651763916,
            0.05698712170124054,
            0.0822371393442154,
            -0.0772281140089035,
            -0.09225580096244812,
            0.12748797237873077,
            -0.02755489945411682,
            -0.06932779401540756,
            0.09477031230926514,
            -0.08364307880401611,
            0.05414953827857971,
            -0.09876763075590134,
            0.11554153263568878,
            -0.056547120213508606,
            -0.08293591439723969,
            0.0502043217420578,
            0.04152300953865051,
            -0.007557280361652374,
            0.058180227875709534,
            -0.11896277964115143
        ],
        [
            -0.07948344945907593,
            0.07161583006381989,
            -0.10464748740196228,
            0.0409422367811203,
            0.07141187787055969,
            -0.05501958727836609,
            0.09483867883682251,
            -0.11867960542440414,
            -0.06317879259586334,
            0.1175687164068222,
            -0.018466517329216003,
            -0.08980011940002441,
            -0.049496784806251526,
            0.0346420556306839,
            -0.07363727688789368,
            -0.04831116646528244,
            -0.08494746685028076,
            -0.08222687244415283,
            0.0977727472782135,
            -0.09534675627946854,
            -0.010730758309364319,
            0.09891226887702942,
            -0.08888845145702362,
            0.10884009301662445,
            0.03964926302433014,
            9.810924530029297e-05,
            0.019603654742240906,
            -0.11246830224990845,
            0.017418771982192993,
            -0.10794471949338913,
            -0.09757739305496216,
            0.014903977513313293,
            0.09524871408939362,
            0.12335355579853058,
            -0.004912853240966797,
            -0.051581352949142456,
            -0.11580631881952286,
            0.06861676275730133,
            -0.03134029358625412,
            -0.09519411623477936,
            -0.0029170364141464233,
            0.0602334588766098,
            0.054999396204948425,
            0.051654621958732605,
            0.07217489182949066,
            0.06702257692813873,
            0.024498462677001953,
            0.06375977396965027,
            -0.00967678427696228,
            -0.02261437475681305,
            -0.014265365898609161,
            0.0786416083574295,
            -0.0439363494515419,
            0.06595027446746826,
            0.04104650020599365,
            0.12122054398059845,
            -0.03992098569869995,
            0.0542498379945755,
            -0.004173681139945984,
            -0.003658011555671692
        ],
        [
            -0.110600546002388,
            -0.0535324364900589,
            -0.11027434468269348,
            -0.0011585503816604614,
            0.1252947896718979,
            0.010062068700790405,
            0.10350807011127472,
            -0.08675023168325424,
            0.12073242664337158,
            0.11223746836185455,
            0.06736871600151062,
            -0.08209668099880219,
            -0.0896216556429863,
            -0.06242083013057709,
            0.05820298194885254,
            0.06038488447666168,
            -0.11498931795358658,
            0.0515388548374176,
            -0.1032562330365181,
            -0.0481361523270607,
            0.03334714472293854,
            0.022692710161209106,
            0.12002475559711456,
            -0.006982728838920593,
            0.057676345109939575,
            0.0008969306945800781,
            0.07539184391498566,
            -0.04975450038909912,
            -0.12193360179662704,
            -0.06705445051193237,
            -0.0417352020740509,
            -0.10210387408733368,
            -0.02988956868648529,
            0.08458562195301056,
            0.014430120587348938,
            0.08597354590892792,
            -0.030571170151233673,
            -0.05861624330282211,
            0.07297055423259735,
            -0.1229795292019844,
            -0.100301593542099,
            0.03240717947483063,
            0.09596049785614014,
            -0.10700024664402008,
            0.12348286807537079,
            0.0483526885509491,
            -0.10671219229698181,
            -0.042275652289390564,
            -0.04263598471879959,
            0.07317382097244263,
            0.08570747077465057,
            0.11649313569068909,
            -0.11798838526010513,
            0.045584484934806824,
            0.0803828239440918,
            -0.014379352331161499,
            -0.09208893775939941,
            -0.04946202039718628,
            -0.0565033033490181,
            0.04972328245639801
        ],
        [
            -0.10779402405023575,
            0.08705845475196838,
            -0.021919026970863342,
            0.021955445408821106,
            0.07014958560466766,
            -0.012513644993305206,
            0.08114738762378693,
            -0.018295779824256897,
            0.005426421761512756,
            0.06840872764587402,
            0.01648329198360443,
            0.011914253234863281,
            -0.09007997810840607,
            0.03180249035358429,
            0.06431080400943756,
            -0.049347177147865295,
            -0.03391139954328537,
            0.10995712876319885,
            -0.10001594573259354,
            0.001964882016181946,
            0.04060356318950653,
            -0.10732163488864899,
            0.09671464562416077,
            -0.03502621501684189,
            0.03948897123336792,
            -0.12909595668315887,
            -0.0038851499557495117,
            0.02740706503391266,
            0.12454770505428314,
            -0.0379021018743515,
            0.1214156299829483,
            0.09963613748550415,
            -0.06781831383705139,
            0.07462942600250244,
            0.08246280252933502,
            0.07374413311481476,
            0.007818982005119324,
            -0.06190378963947296,
            -0.014676950871944427,
            -0.03925931453704834,
            -0.028663694858551025,
            -0.10151108354330063,
            -0.10047191381454468,
            -0.11503381282091141,
            -0.12286099791526794,
            -0.01312277466058731,
            0.00018298625946044922,
            0.12234775722026825,
            -0.04645165801048279,
            -0.06045440584421158,
            0.12138430774211884,
            0.0742902159690857,
            -0.09484149515628815,
            0.04680287837982178,
            0.04132497310638428,
            -0.11990800499916077,
            -0.011819757521152496,
            0.0453825443983078,
            0.029137149453163147,
            -0.10737766325473785
        ],
        [
            0.11230111122131348,
            -0.06081763654947281,
            0.062341734766960144,
            -0.11203514039516449,
            -0.12190409004688263,
            -0.0258479043841362,
            -0.05574218928813934,
            -0.08396192640066147,
            0.11240269243717194,
            -0.05474912375211716,
            -0.04848463833332062,
            -0.07938660681247711,
            0.023984551429748535,
            -0.024802006781101227,
            0.06430323421955109,
            0.09690511226654053,
            -0.08603912591934204,
            0.05884021520614624,
            -0.021774642169475555,
            0.01930791139602661,
            -0.017764151096343994,
            0.07378040254116058,
            0.05127488076686859,
            -0.022463493049144745,
            0.029815062880516052,
            0.05303385853767395,
            -0.10602742433547974,
            0.007663697004318237,
            -0.08960308134555817,
            0.05570700764656067,
            -0.05557066947221756,
            -0.0431063175201416,
            -0.035351864993572235,
            0.047888755798339844,
            0.1267816573381424,
            -0.12334395945072174,
            -0.0007303357124328613,
            0.0318632572889328,
            0.08018302917480469,
            -0.07516415417194366,
            0.06906260550022125,
            -0.06803394854068756,
            -0.1022098958492279,
            -0.10553305596113205,
            -0.11841745674610138,
            -0.028614431619644165,
            0.12834177911281586,
            -0.04898091405630112,
            -0.04148987680673599,
            0.12419016659259796,
            0.11043974757194519,
            0.028687745332717896,
            0.1038099080324173,
            -0.12735024094581604,
            -0.08035504072904587,
            -0.12298204004764557,
            -0.09884171187877655,
            0.12370835244655609,
            0.10344880819320679,
            -0.03043520450592041
        ],
        [
            0.012544676661491394,
            0.021897748112678528,
            -0.005425848066806793,
            0.052268728613853455,
            -0.03019247204065323,
            0.06184910237789154,
            -0.052158333361148834,
            -0.10926346480846405,
            0.02090144157409668,
            0.05035349726676941,
            0.013270407915115356,
            -0.08824710547924042,
            -0.12269856035709381,
            -0.12383487075567245,
            -0.027554653584957123,
            -0.052155502140522,
            0.06686915457248688,
            0.043334901332855225,
            0.05723680555820465,
            -0.015415400266647339,
            -0.09369015693664551,
            -0.009354397654533386,
            0.042630136013031006,
            0.01109325885772705,
            0.06282909214496613,
            0.07573038339614868,
            -0.011323712766170502,
            0.005128145217895508,
            0.0037856251001358032,
            -0.11953745037317276,
            -0.05649618059396744,
            -0.018816649913787842,
            0.05139511823654175,
            0.07594102621078491,
            0.0006175488233566284,
            0.03596873581409454,
            0.038648515939712524,
            -0.10999421775341034,
            -0.034433409571647644,
            0.02729049324989319,
            -0.054678380489349365,
            0.0017993152141571045,
            0.11151330173015594,
            -0.07012614607810974,
            0.0957304984331131,
            -0.011492237448692322,
            -0.09980875253677368,
            -0.087892547249794,
            -0.007661901414394379,
            -0.0500526949763298,
            0.12725399434566498,
            -0.024073608219623566,
            -0.07742555439472198,
            -0.00980803370475769,
            0.07539620995521545,
            0.08086973428726196,
            -0.061462149024009705,
            0.024117961525917053,
            0.1181650161743164,
            0.011203378438949585
        ],
        [
            0.010471761226654053,
            -0.08470825850963593,
            -0.046382538974285126,
            0.06971073150634766,
            0.09431406855583191,
            -0.023859471082687378,
            0.018706560134887695,
            -0.041549310088157654,
            -0.018475674092769623,
            -0.07439681142568588,
            -0.004058375954627991,
            -0.11937625706195831,
            0.05950962007045746,
            0.07735887169837952,
            0.11511814594268799,
            -0.09711069613695145,
            0.06540925800800323,
            0.014601364731788635,
            -0.0047006756067276,
            -0.03387033939361572,
            0.06777253746986389,
            -0.08015275001525879,
            -0.11391586065292358,
            -0.009224556386470795,
            -0.07945480942726135,
            -0.1239054724574089,
            -0.10172094404697418,
            -0.046168386936187744,
            0.06664237380027771,
            0.093985915184021,
            0.056624725461006165,
            -0.026716366410255432,
            -0.050808027386665344,
            0.11362852156162262,
            0.05352902412414551,
            0.07723075151443481,
            0.11798788607120514,
            -0.0625402107834816,
            -0.07862593233585358,
            -0.12645530700683594,
            0.1091640442609787,
            -0.04808817803859711,
            0.06837683916091919,
            -0.05153210461139679,
            -0.07520945370197296,
            -0.04483107477426529,
            -0.029325731098651886,
            0.10887476801872253,
            0.058632656931877136,
            -0.1263885796070099,
            -0.11065521091222763,
            -0.1146937906742096,
            0.07628262042999268,
            -0.11489574611186981,
            0.05166815221309662,
            0.06639248132705688,
            0.05236057937145233,
            -0.11377730965614319,
            -0.1161230280995369,
            0.07047723233699799
        ],
        [
            -0.10116071999073029,
            0.04429887235164642,
            -0.11077316105365753,
            -0.07398168742656708,
            -0.038399823009967804,
            0.10936565697193146,
            -0.09992408752441406,
            -0.09703634679317474,
            -0.0004239082336425781,
            0.09511317312717438,
            0.0008548498153686523,
            -0.09742370992898941,
            0.10687366127967834,
            -0.11559081822633743,
            0.11519020795822144,
            -0.08169306814670563,
            -0.0895102471113205,
            0.08823536336421967,
            -0.09253478050231934,
            -0.0666322261095047,
            0.05931094288825989,
            0.09353071451187134,
            -0.07345196604728699,
            0.0347624272108078,
            0.059733808040618896,
            -0.04838206619024277,
            -0.09229931980371475,
            -0.016359709203243256,
            -0.08755840361118317,
            -0.04241517186164856,
            0.06413477659225464,
            -0.09284010529518127,
            -0.017517253756523132,
            -0.09680221974849701,
            0.017895638942718506,
            -0.03756774216890335,
            0.022845938801765442,
            -0.06367980688810349,
            -0.06567579507827759,
            0.006790086627006531,
            -0.0873006135225296,
            0.08952605724334717,
            -0.08031165599822998,
            0.027809828519821167,
            -0.023924633860588074,
            -0.07427932322025299,
            -0.06897024065256119,
            -0.007572934031486511,
            -0.07242061197757721,
            0.05935230851173401,
            -0.05442482978105545,
            -0.10938936471939087,
            -0.04563230276107788,
            -0.014562681317329407,
            -0.069511778652668,
            0.0215979665517807,
            0.0823386013507843,
            -0.0608220249414444,
            -0.007262967526912689,
            -0.05298249423503876
        ],
        [
            0.03563997149467468,
            -0.07464531064033508,
            -0.0823187381029129,
            0.08493214845657349,
            0.02179299294948578,
            0.04253055155277252,
            -0.04067555069923401,
            0.007498711347579956,
            -0.08710387349128723,
            0.013681098818778992,
            -0.10171926021575928,
            0.011651933193206787,
            0.04929414391517639,
            -0.11072911322116852,
            -0.0928955078125,
            -0.11052016913890839,
            0.07686592638492584,
            0.05882120132446289,
            -0.01387505978345871,
            -0.07669953256845474,
            0.0261441171169281,
            -0.015997201204299927,
            -0.08572615683078766,
            -0.11171147972345352,
            0.035855844616889954,
            0.10393549501895905,
            -0.012527354061603546,
            0.08101841807365417,
            0.11105675995349884,
            -0.12016966938972473,
            0.05908374488353729,
            -0.11915101110935211,
            0.06538227200508118,
            0.07253333926200867,
            -0.07706667482852936,
            -0.12302497774362564,
            -0.10289330780506134,
            0.006351634860038757,
            0.10245633125305176,
            -0.05169054865837097,
            0.08225801587104797,
            -0.10435663908720016,
            -0.09031985700130463,
            0.12009544670581818,
            -0.05230450630187988,
            -0.02754129469394684,
            0.041364118456840515,
            -0.019258588552474976,
            0.051190733909606934,
            0.08172804117202759,
            -0.0940135195851326,
            -0.04341688007116318,
            -0.07232047617435455,
            0.010356336832046509,
            0.023496925830841064,
            -0.12717829644680023,
            0.1149754673242569,
            0.11211378872394562,
            -0.053484849631786346,
            -0.09019099175930023
        ],
        [
            -0.10589117556810379,
            -0.02580372244119644,
            -0.0003387331962585449,
            0.058363333344459534,
            0.05968448519706726,
            -0.08155269175767899,
            0.08733519911766052,
            0.01102176308631897,
            -0.08173909783363342,
            0.1111740916967392,
            0.12146459519863129,
            0.08793671429157257,
            -0.02388189733028412,
            -0.0396927073597908,
            -0.0007586777210235596,
            0.06597848236560822,
            0.08564630150794983,
            0.0728023499250412,
            0.026947274804115295,
            0.014909610152244568,
            -0.107541523873806,
            0.03160655498504639,
            0.05752994120121002,
            0.055492743849754333,
            0.0003449171781539917,
            -0.10021927952766418,
            -0.11965116858482361,
            0.05949793756008148,
            -0.04415770620107651,
            -0.1239301785826683,
            0.03265334665775299,
            0.12565334141254425,
            0.10860385000705719,
            -0.02841486781835556,
            -0.06962361931800842,
            0.09396621584892273,
            -0.11641794443130493,
            -0.05370817333459854,
            -0.06578538566827774,
            0.0837564766407013,
            -0.10482391715049744,
            -0.10298875719308853,
            0.048867180943489075,
            -0.12481159716844559,
            -0.1263321191072464,
            0.07861675322055817,
            0.014736831188201904,
            0.0567551851272583,
            -0.023813843727111816,
            0.07336859405040741,
            -0.04997057467699051,
            -0.11757625639438629,
            -0.05852915346622467,
            0.08696791529655457,
            -0.1082334816455841,
            0.04660867154598236,
            -0.009557470679283142,
            -0.09262113273143768,
            0.10155738890171051,
            -0.0765610858798027
        ],
        [
            -0.09295658767223358,
            -0.04135853797197342,
            -0.052766360342502594,
            -0.06827052682638168,
            -0.040893442928791046,
            0.0010611265897750854,
            -0.0361238494515419,
            0.11768233776092529,
            0.11885160207748413,
            -0.09003722667694092,
            0.0329165905714035,
            0.04311069846153259,
            -0.011152029037475586,
            -0.09905187785625458,
            -0.01277102530002594,
            0.07005031406879425,
            0.12192229926586151,
            -0.03841792047023773,
            0.018127262592315674,
            -0.05110380798578262,
            0.12761156260967255,
            -0.10395035892724991,
            0.100354865193367,
            -0.11349748820066452,
            0.08820171654224396,
            0.03372955322265625,
            -0.00876886397600174,
            -0.010411746799945831,
            -0.009787149727344513,
            0.08482988178730011,
            0.013130396604537964,
            0.04882875084877014,
            0.040075719356536865,
            0.00120621919631958,
            0.09446880221366882,
            -0.10652254521846771,
            -0.11189523339271545,
            -0.04954066127538681,
            -0.09416426718235016,
            0.11930689215660095,
            0.036457762122154236,
            0.11749351024627686,
            0.003820255398750305,
            0.08610540628433228,
            0.03959713876247406,
            0.09758459031581879,
            -0.107798732817173,
            -0.04897279292345047,
            0.08839316666126251,
            -0.0973949134349823,
            -0.04490616172552109,
            0.1027488261461258,
            -0.1268332600593567,
            -0.11135509610176086,
            -0.045288458466529846,
            -0.03337160497903824,
            0.12408824265003204,
            -0.08157838881015778,
            -0.11649274080991745,
            0.016949251294136047
        ],
        [
            -0.03724399954080582,
            -0.08781499415636063,
            -0.10296959429979324,
            -0.04817010462284088,
            -0.12025875598192215,
            0.012078240513801575,
            0.005010783672332764,
            -0.003892958164215088,
            -0.07359351217746735,
            -0.07277196645736694,
            0.002529710531234741,
            0.09098778665065765,
            0.09955474734306335,
            0.05209237337112427,
            0.024195313453674316,
            0.10475310683250427,
            -0.041894808411598206,
            0.0913611650466919,
            -0.12271836400032043,
            0.08821296691894531,
            0.0699298083782196,
            0.03755408525466919,
            -0.02977839857339859,
            0.07066158950328827,
            -0.12540073692798615,
            -0.016865767538547516,
            0.00570523738861084,
            -0.017992742359638214,
            0.0016870200634002686,
            0.0064711421728134155,
            0.0014729797840118408,
            0.08346690237522125,
            -0.07236208766698837,
            0.10310579836368561,
            -0.09152214229106903,
            0.07695166766643524,
            0.05769835412502289,
            -0.09007273614406586,
            0.11173105239868164,
            0.06862515211105347,
            -0.08814668655395508,
            -0.1102893203496933,
            0.07668739557266235,
            0.06416153907775879,
            -0.07021190971136093,
            -0.06182961165904999,
            0.05198763310909271,
            0.09864434599876404,
            -0.10818252712488174,
            -0.0297713503241539,
            0.09367455542087555,
            -0.1215030699968338,
            0.04668623208999634,
            0.05431056022644043,
            0.0033639073371887207,
            0.09069980680942535,
            -0.07171054184436798,
            0.12391699850559235,
            -0.05021033436059952,
            0.04286696016788483
        ],
        [
            -0.015366986393928528,
            0.07978940010070801,
            0.05191875994205475,
            -0.11739609390497208,
            -0.02676386386156082,
            0.022474274039268494,
            0.12402625381946564,
            0.028416454792022705,
            -0.081244096159935,
            -0.016339562833309174,
            -0.018789544701576233,
            -0.018711812794208527,
            0.08416621387004852,
            0.028633728623390198,
            0.06627409160137177,
            0.06838037073612213,
            0.11757795512676239,
            -0.017578087747097015,
            -0.11464928090572357,
            -0.011935152113437653,
            0.07541194558143616,
            -0.0855526402592659,
            -0.06811794638633728,
            -0.030632242560386658,
            -0.02520720660686493,
            0.045385852456092834,
            -0.0674867182970047,
            0.020419850945472717,
            -0.10961468517780304,
            0.0003743022680282593,
            0.11086039245128632,
            0.02517378330230713,
            0.09375718235969543,
            -0.021205835044384003,
            0.03542785346508026,
            -0.014258220791816711,
            -0.06665351986885071,
            0.0918968915939331,
            0.0486760139465332,
            -0.09907965362071991,
            -0.05069725215435028,
            -0.050077810883522034,
            0.09851464629173279,
            -0.017525702714920044,
            0.06438949704170227,
            0.10127699375152588,
            -0.036810219287872314,
            -0.04640180617570877,
            0.02596999704837799,
            0.057093992829322815,
            -0.06947079300880432,
            0.04064786434173584,
            0.08785904943943024,
            0.04228587448596954,
            0.05759024620056152,
            0.07995861768722534,
            0.1100628525018692,
            0.0467047393321991,
            0.12405504286289215,
            -0.11527691036462784
        ],
        [
            0.08235891163349152,
            -0.0212654247879982,
            -0.11492711305618286,
            0.08178110420703888,
            -0.013309299945831299,
            0.09207412600517273,
            0.12152169644832611,
            0.06850190460681915,
            0.12701277434825897,
            0.012012749910354614,
            -0.02935568243265152,
            0.03730742633342743,
            0.0411195307970047,
            -0.06847427785396576,
            -0.05095145106315613,
            0.041620731353759766,
            -0.014799162745475769,
            0.052639275789260864,
            0.07445394992828369,
            -0.006236463785171509,
            0.10314685106277466,
            0.12055641412734985,
            -0.07592958211898804,
            0.010495811700820923,
            0.07608464360237122,
            -0.017410390079021454,
            -0.039119623601436615,
            -0.07332348823547363,
            -0.03171311318874359,
            0.10031352937221527,
            -0.12414983659982681,
            0.09381669759750366,
            0.06751570105552673,
            0.08113640546798706,
            -0.03637533634901047,
            0.02892094850540161,
            0.03202927112579346,
            -0.008239403367042542,
            0.12324325740337372,
            -0.09164103865623474,
            -0.034649237990379333,
            0.08275438845157623,
            0.061822712421417236,
            0.08832646906375885,
            0.0010237842798233032,
            -0.026439674198627472,
            0.06331011652946472,
            0.0009400099515914917,
            -0.12450355291366577,
            0.12897814810276031,
            -0.09906104952096939,
            0.0937732607126236,
            0.016734451055526733,
            0.03361569344997406,
            0.014476895332336426,
            -0.008439838886260986,
            -0.04902419447898865,
            0.05967186391353607,
            0.02262258529663086,
            -0.09707216918468475
        ]
    ],
    "net_a_fc3_bias": [
        -0.16976876556873322,
        0.07974070310592651,
        -0.1724347621202469,
        0.17258170247077942,
        0.16790327429771423
    ],
    "net_a_fc3_weight": [
        [
            0.02489207684993744,
            -0.07814550399780273,
            -0.15176835656166077,
            -0.04533164203166962,
            0.09095484018325806,
            -0.11913197487592697,
            0.025357425212860107,
            -0.19367294013500214,
            -0.10066642612218857,
            0.06874477863311768,
            0.0881098210811615,
            0.0723385214805603,
            0.15403801202774048,
            -0.015587404370307922,
            -0.10266157984733582,
            -0.05633284151554108,
            0.09932821989059448,
            0.19181856513023376,
            0.10209652781486511,
            0.13730251789093018,
            -0.03322206437587738,
            0.11668691039085388,
            -0.10787484049797058,
            -0.027814403176307678
        ],
        [
            0.10358577966690063,
            -0.04476635158061981,
            0.20342087745666504,
            0.1427372395992279,
            0.09999015927314758,
            -0.0781121701002121,
            0.03193946182727814,
            0.03989595174789429,
            -0.03908061981201172,
            0.06984028220176697,
            -0.1073230504989624,
            0.06761103868484497,
            0.19710907340049744,
            -0.010257884860038757,
            0.1437026858329773,
            0.1260148286819458,
            -0.013538911938667297,
            -0.15944364666938782,
            -0.1799829602241516,
            0.07489517331123352,
            -0.02937588095664978,
            -0.08177273720502853,
            -0.15482038259506226,
            -0.17659617960453033
        ],
        [
            0.11296117305755615,
            0.035371288657188416,
            0.16195234656333923,
            0.17488399147987366,
            0.10624775290489197,
            0.03281213343143463,
            -0.05097752809524536,
            0.09958243370056152,
            0.09500175714492798,
            -0.008525267243385315,
            -0.027631163597106934,
            0.16264647245407104,
            0.11535248160362244,
            -0.1260366290807724,
            -0.028154760599136353,
            -0.17671135067939758,
            0.13397300243377686,
            0.16481435298919678,
            -0.18556302785873413,
            0.034096941351890564,
            -0.07911527156829834,
            0.1317838728427887,
            -0.08895812183618546,
            0.06175243854522705
        ],
        [
            -0.05014294385910034,
            0.12359827756881714,
            0.03655479848384857,
            -0.021067798137664795,
            -0.08095398545265198,
            0.11717283725738525,
            -0.0502733439207077,
            -0.14657193422317505,
            0.03278030455112457,
            0.11962491273880005,
            0.08369776606559753,
            0.14101728796958923,
            0.12036871910095215,
            0.0002891123294830322,
            0.1329137682914734,
            -0.0452839732170105,
            -0.16842515766620636,
            0.044577986001968384,
            -0.1346568465232849,
            -0.1324617862701416,
            -0.1550782173871994,
            0.1531996726989746,
            -0.19703125953674316,
            -0.03447908163070679
        ],
        [
            -0.18457761406898499,
            -0.059342458844184875,
            -0.18798217177391052,
            0.12512388825416565,
            0.06574049592018127,
            0.1416846215724945,
            0.09637713432312012,
            0.16829338669776917,
            0.1884484887123108,
            0.04677298665046692,
            -0.1311289221048355,
            -0.06090846657752991,
            -0.13977305591106415,
            -0.0894753560423851,
            -0.02633024752140045,
            0.09662142395973206,
            -0.029628679156303406,
            0.021983250975608826,
            -0.04067404568195343,
            0.15732580423355103,
            -0.037275850772857666,
            0.10938382148742676,
            -0.07796162366867065,
            0.08702939748764038
        ]
    ],
    "net_b_fc1_bias": [
        0.045165982097387314,
        0.17939893901348114,
        0.28040388226509094,
        -0.5632155537605286,
        0.01498111430555582,
        0.031945016235113144,
        -0.038014672696590424,
        -0.15427342057228088,
        -0.05437741428613663,
        0.4094058573246002,
        -0.509419858455658,
        0.26047104597091675,
        -0.34382978081703186,
        -0.12337327003479004,
        0.2455817312002182,
        -0.2954936921596527,
        0.07835070043802261,
        0.45952239632606506,
        0.1856132447719574,
        -0.03483432158827782,
        -0.06942156702280045,
        -0.3855293095111847,
        -0.13587895035743713,
        -0.08490672707557678,
        0.26278600096702576
    ],
    "net_b_fc1_weight": [
        [
            -0.26724356412887573,
            -0.34540197253227234,
            0.04018722474575043,
            0.41029274463653564,
            -0.12345613539218903
        ],
        [
            0.2214398831129074,
            0.012440976686775684,
            -0.08662862330675125,
            0.2982269823551178,
            0.3306134045124054
        ],
        [
            0.39189034700393677,
            -0.08176548779010773,
            -0.1645514816045761,
            -0.3523698151111603,
            -0.30374225974082947
        ],
        [
            0.176208034157753,
            -0.10230309516191483,
            -0.1780780702829361,
            -0.2580466866493225,
            -0.1866385042667389
        ],
        [
            0.383748859167099,
            0.420171856880188,
            0.09293577075004578,
            -0.2251947671175003,
            -0.35331711173057556
        ],
        [
            0.21069908142089844,
            -0.1950407326221466,
            0.44248008728027344,
            -0.020078636705875397,
            0.2878124415874481
        ],
        [
            0.31438785791397095,
            0.18952535092830658,
            -0.22942103445529938,
            0.4142325222492218,
            0.013749869540333748
        ],
        [
            -0.13914020359516144,
            0.04961821809411049,
            -0.027771826833486557,
            -0.17871786653995514,
            -0.16638822853565216
        ],
        [
            0.27065712213516235,
            0.46427834033966064,
            0.16508892178535461,
            -0.25063595175743103,
            -0.4867249131202698
        ],
        [
            0.42550572752952576,
            0.1119292676448822,
            0.2888050675392151,
            -0.34624916315078735,
            -0.03157782554626465
        ],
        [
            0.11551348865032196,
            -0.28344911336898804,
            0.047570161521434784,
            0.22040073573589325,
            -0.34587031602859497
        ],
        [
            -0.43234965205192566,
            0.11091944575309753,
            0.2713196277618408,
            0.07098298519849777,
            -0.17613664269447327
        ],
        [
            -0.10746639966964722,
            0.047682370990514755,
            -0.3637530207633972,
            0.4187639355659485,
            0.13517215847969055
        ],
        [
            0.029775865375995636,
            -0.025622200220823288,
            -0.02822084352374077,
            -0.1889212727546692,
            -0.26673153042793274
        ],
        [
            0.0951511338353157,
            0.1319143921136856,
            0.3721083104610443,
            0.4171804189682007,
            -0.03963832929730415
        ],
        [
            -0.1019393652677536,
            -0.12134919315576553,
            0.3683292269706726,
            0.5639029741287231,
            0.15576505661010742
        ],
        [
            0.3968137204647064,
            0.3019648790359497,
            -0.15803633630275726,
            -0.09383157640695572,
            0.07278530299663544
        ],
        [
            -0.20151662826538086,
            0.19779488444328308,
            0.23675715923309326,
            -0.36693185567855835,
            0.36434391140937805
        ],
        [
            -0.1365472823381424,
            0.041281409561634064,
            0.18894018232822418,
            -0.40078428387641907,
            0.008120500482618809
        ],
        [
            0.1867700070142746,
            -0.3891891837120056,
            0.06051771342754364,
            -0.06721658259630203,
            0.360496461391449
        ],
        [
            0.04975832253694534,
            0.21658183634281158,
            -0.1263332962989807,
            -0.17128019034862518,
            -0.09937753528356552
        ],
        [
            -0.24976007640361786,
            0.44415050745010376,
            0.20056307315826416,
            -0.01377906184643507,
            0.08522569388151169
        ],
        [
            0.02149604633450508,
            -0.11235721409320831,
            0.37621042132377625,
            -0.33657893538475037,
            0.21506045758724213
        ],
        [
            -0.412124365568161,
            0.10636072605848312,
            -0.08524083346128464,
            -0.21075208485126495,
            0.30371177196502686
        ],
        [
            -0.01915648952126503,
            0.3144427239894867,
            0.2431894838809967,
            0.1959618330001831,
            0.17296434938907623
        ]
    ],
    "net_b_fc2_bias": [
        -0.04935460537672043
    ],
    "net_b_fc2_weight": [
        [
            0.12416382133960724,
            0.20494307577610016,
            -0.06100567430257797,
            -0.005314935464411974,
            0.11220139265060425,
            -0.17945224046707153,
            0.07656031101942062,
            -0.006197501439601183,
            -0.16152623295783997,
            0.16514739394187927,
            -0.011895699426531792,
            -0.022764410823583603,
            -0.20316001772880554,
            -0.0003152191929984838,
            -0.048818912357091904,
            -0.04600052908062935,
            -0.15972448885440826,
            0.18364647030830383,
            0.14365653693675995,
            -0.10508313030004501,
            0.004459901247173548,
            -0.039309460669755936,
            -0.1416388601064682,
            -0.16435161232948303,
            0.07173576951026917
        ]
    ]
}